0.096654892
0.027288225
0.049917161
0.18643981
0.10495283
0.028926119
0.060850777
0.18552634
0.034062181
0.061157517
0.067168437
0.089502022
-0.0039369664
0.097723812
0.11723662
0.084755644
-0.0051418603
0.0447395
0.11422247
0.099265322
-0.037284527
0.017082119
0.11393685
0.073469788
-0.092171311
-0.00501861
-0.020339377
21.489368
0.25195304
-0.18202968
-0.24461737
0.11686792
-0.075972669
0.002516445
-0.023574039
0.15620059
-0.13270724
0.0084834043
0.19380237
0.044683758
-0.072030015
0.022277586
0.19688238
0.07975734
-0.10264844
0.054432575
0.20162483
0.095973648
-0.053195957
0.026548395
0.18621168
0.090569086
0.043839682
0.020851964
0.15932137
0.083682783
0.058206536
0.031888343
0.17000045
0.078111775
0.1006214
-0.052378342
0.098447554
-0.62731701
0.32539245
0.1248401
0.14932673
-0.85431838
0.082660235
0.15531819
0.2360031
-0.29474103
0.24684887
0.087822892
-0.043990806
-0.084543638
0.14122279
0.092213638
0.17509489
-0.12813674
0.12851663
0.2179755
0.037465446
0.56939715
0.22209929
0.19143233
-0.13823232
1.7704709
0.19006759
0.22538771
0.31148449
-86.078789
-0.17090957
-0.18958743
0.98128885
0.11562624
0.075713821
-0.18575241
0.51302522
3.6000745
0.1325154
-0.13686611
0.75465667
0.20562308
0.47349975
-0.15953675
0.27166823
0.11558166
0.65360606
-0.086763583
-0.037832301
-0.025563553
0.39537939
0.35303494
-8.6719809
0.012998898
-0.090381898
0.83261234
-0.71290243
-0.62070233
-0.990049
1.3324705
-0.45997408
0.094136499
-0.04728448
-0.12113511
0.73121208
-0.8632828
0.18448833
-0.40658608
0.22001906
0.19113185
0.16513838
0.20955497
0.25039718
-0.15009819
0.15909162
0.33456355
0.18189789
-0.47067165
-0.64712912
0.76079589
-0.26141286
-0.39643398
-0.39475772
0.67381895
-0.6275174
-0.49304959
-0.18593268
-0.55324197
0.068095036
-2.4246953
0.095903538
-1.2037098
0.1003788
-79.891106
-7.6768036
2.5426767
1.1836523
0.11578703
-2.6647549
0.53160495
0.85954523
18.53245
-1.9540943
0.82776469
0.22147129
-1.2062055
-0.67558253
0.94247949
-1.1378311
-7.8456697
0.42316511
0.50844812
-0.38097683
0.58914363
0.39590412
0.28457657
0.16736111
0.21749091
0.48593798
-0.15015347
0.68655944
0.2444351
-0.12696528
0.14737608
0.1239995
-0.37343347
0.025993844
0.37267834
-2.8146956
-0.19477151
-0.04628028
0.38729602
0.060399655
0.32495102
0.044288941
0.19735925
0.088616915
0.27761808
0.051672876
0.077172659
0.11529145
0.10666119
0.06586846
0.080353133
0.17712069
0.10504185
0.063138761
-0.0099047963
0.21687023
0.088980787
0.020005206
-0.076654322
0.21061361
0.068848513
-0.028089717
-0.13345243
0.1352255
5.6906881
0.25722912
-0.25925374
-0.22177526
0.11548857
0.027231239
-0.3533496
0.11448895
0.14369601
0.0084608719
-0.16814347
0.1837565
0.096286006
0.06883622
0.021090066
0.14455646
0.18013252
0.074097387
0.044888429
0.13614157
0.10892915
0.046785861
0.067079522
0.14782074
0.12101039
0.065648995
0.078388177
0.13596705
0.097740315
0.036791906
0.073511086
0.12021976
0.10508762
0.036683857
0.1532127
-0.055469014
-0.80578864
-0.015075456
0.75236177
0.037578605
0.24291511
0.14300179
0.19102187
0.064818852
0.23858581
0.11375471
0.063270353
0.16622469
0.093481302
0.077262126
0.087299965
0.23536564
0.10365648
0.087326013
-0.067023136
0.29397681
0.10334408
0.035876885
-0.043622069
0.32814386
0.058961585
-0.087890618
-0.25214851
0.115617
19.488117
0.31274816
-0.5503552
-0.31310126
0.12434413
-0.058388084
-0.47057432
0.19344649
0.15636243
-0.090532027
-0.032471791
0.39043358
0.049545549
0.028108707
-0.022137756
0.24350214
0.18300389
0.051121235
0.051029801
0.21168822
0.11161006
0.058603477
0.11997669
0.17509246
0.14122735
0.092443369
0.124795
0.19518808
0.13539653
0.10878163
0.12671235
0.12792179
0.099772848
0.14866133
-0.0063912976
-0.0076621245
-0.77948403
0.1043297
0.020657465
0.071579024
1.1131167
0.19613406
0.0024740519
0.085983016
0.12653755
0.041667815
0.021788046
0.087022707
-2.1741769
0.021396771
0.011331668
0.23838566
0.032220699
0.024949662
-0.0096697118
0.19102591
-0.41922963
-0.00047400218
0.0098600257
0.14929028
-90.274506
0.018960822
0.036393069
-0.0052682213
-68.137115
0.13896088
0.036246393
-0.15559052
0.109193
0.021892395
0.036911469
-0.081180133
3.5488944
-0.0029182974
0.024037816
0.06138926
0.087497212
0.071386509
-0.0017504786
0.091299281
0.094887175
0.20279497
0.055451751
0.093503363
0.072735511
0.028909199
0.042309143
0.093902417
0.064988188
-0.010406793
0.071859501
0.091968693
0.045816883
-0.029575355
0.073373176
0.083460018
0.090350203
1.1569579
0.026701093
0.0066664242
-0.7797417
0.054211564
-0.18727778
0.084328182
0.01805874
-0.066222869
-0.068099268
0.070755027
0.023924541
-0.061212357
-0.017146584
0.044438295
0.10451912
-0.040965997
-0.046362802
0.011912549
0.11663955
0.044289567
0.0027318536
-0.065273263
0.12063562
0.16744474
0.017600479
-0.17952909
0.13839182
0.25907597
0.01572253
-0.032815479
-88.482109
0.090008654
0.066013701
0.27310658
0.12053623
0.25306845
-0.001666269
-0.025775537
0.094016112
0.20680356
0.037038475
-0.10846952
0.20254669
0.092875622
-0.048182219
0.016611788
0.10755212
-0.011963652
0.0048535406
0.045946971
0.10532775
0.0083791427
0.026572863
0.043944478
0.11673544
-0.018839456
0.012096995
-0.014495498
0.12590237
0.0029844015
0.061835997
-0.095643423
0.12915449
0.10552215
-0.180663
0.2174437
-0.828143
0.13953589
-0.48846036
0.10503232
0.0018556297
-0.02601774
-0.18582794
0.16171136
-1.0962594
-0.15917695
-0.10130643
0.19678496
-0.50520849
-0.16527866
-0.092299201
0.20519912
-0.088465817
-0.25085694
-0.087246262
0.2226443
-0.85768491
-0.28650841
-0.0073515214
0.21886769
-4.4693489
-0.096313886
-0.021577727
-0.13409653
28.567263
0.15129116
-0.065220676
0.33719748
0.12142459
-0.1270328
0.087210804
-0.47376013
25.106365
-0.3266598
0.19629608
-0.046266843
-3.4057701
-0.30677792
0.016372409
0.40484616
-0.11240392
-0.27261263
-0.042296756
0.33872083
0.038097475
-0.23458995
-0.086905323
0.35331258
0.14884868
-0.14468925
-0.096857391
0.47800127
0.05652171
-0.011635133
-0.09189526
0.25081384
-0.021458473
0.087853618
0.098744221
0.015904143
-0.27209163
0.08987613
-0.10187116
0.25226894
0.19836628
0.021475427
-0.025705468
0.16016291
0.1286798
-0.020582329
0.046976291
0.12430348
0.11404008
-0.067262121
0.094248794
0.087180749
0.087472424
-0.031462789
0.064341567
0.082696736
0.10770681
-0.074727379
0.10428406
-0.003371587
0.12684049
0.0056909425
0.04399259
-0.11413691
21.466505
0.2082939
-0.17959674
-0.050865505
0.10789971
-0.012533628
0.08126343
-0.27581981
0.16166115
-0.14288308
0.090872362
0.038860351
0.04848019
-0.16376691
0.041966595
0.1975659
0.047189496
-0.14516278
0.057333745
0.20428783
0.080122583
-0.073529772
0.056085311
0.20591596
0.10436983
0.0033142522
0.052451976
0.16379893
0.10771085
0.026039444
0.058110945
0.19339514
0.13198157
0.066967599
-0.089892544
0.18559772
-0.56137204
0.0064285528
0.0031107878
0.082988955
0.31920135
0.026779175
0.045405582
0.60184634
0.24225268
0.035082612
-0.096458189
0.136462
0.12093955
0.07789816
-0.009681155
0.13391137
0.26895416
0.065597862
-0.022804247
0.090492167
0.087513991
0.096262448
-0.0016076348
0.060960688
-79.169777
0.11163957
-0.022337234
-0.0061213565
0.28022304
0.18037269
0.19152212
-0.093924649
0.11981802
0.11229352
-0.10211626
0.00029591622
0.061696865
0.19977149
-0.094973825
-0.67598784
0.090145402
0.23436609
-0.036547452
-0.036140464
0.086037993
0.23493174
-0.028137913
-0.035111442
-0.0095552318
0.2096357
-0.1026941
-0.054906547
0.092475645
0.19238022
0.018438386
-0.07128679
0.19295113
0.023798188
0.019848531
-0.055315793
0.23524487
0.48353592
0.15090704
-0.091605343
-0.9061926
-0.32432428
-0.03893606
0.43735716
0.17187023
-0.23969316
0.29325923
0.2658402
0.04513371
-0.10161271
0.19629124
0.13586445
-0.011170362
0.016134951
-0.046942238
-0.030917561
0.24036038
-0.21191049
0.16679725
-0.076767139
0.17397755
-0.32110777
0.22332796
-0.28303927
2.2855892
-0.27206919
0.45673662
-0.4988448
14.545452
0.4820323
0.7506125
-0.55184531
0.12713172
0.16615859
0.74652851
-1.3180206
0.11230981
0.24123332
-0.099509351
-0.89918023
0.41978371
0.24678062
0.18281242
-0.60662711
-0.042719647
0.69681746
-0.064592399
-0.42556378
-0.17247818
0.59487665
-0.068789206
-0.34483114
-0.45324364
0.25964037
-0.27259594
0.045552425
-0.22555564
0.30817971
-0.71846133
0.43286934
-0.18817998
0.63779044
-2.5345871
2.1948256
0.62421286
-0.1762857
0.071993962
-0.27871057
0.018831652
-0.20480426
0.050610863
-0.15252505
-0.1581969
-0.12323357
-0.041497581
-0.15890422
-0.14954209
-0.0092976736
-0.1609824
-0.30938479
0.027391016
-0.11128278
-0.18765479
-0.22932428
-0.14469081
-0.12295212
-0.14330083
-0.2459707
0.080536507
-0.067297608
-0.11290473
-0.33060953
0.51736581
-0.053328961
0.23809919
-0.15588003
0.12105558
-0.16903591
-0.081667446
-0.3946217
1.2687184
-0.11013357
-0.23287909
-0.27236876
-0.12230965
-0.051602308
-0.31894338
-0.220498
-0.49358177
-0.03068517
-0.21728493
-0.48107812
-0.2673597
-0.068286024
-0.079018563
-0.49620533
-0.27573177
-0.15344328
0.054499753
-0.36039758
-0.2567499
-0.1726893
0.073200271
-0.27642256
-0.23762819
0.014723671
0.29910535
-0.098989449
-0.13194183
-0.2399075
1.3473749
0.041665509
0.19732535
-0.13589633
0.35844076
0.090006851
0.11081979
-0.2034702
0.19761685
0.358226
0.096061401
-2.4619007
0.1221753
0.58841652
0.098027058
-0.080159448
-0.050178967
0.61451131
0.078155763
-0.0099447295
-0.23540641
0.69659072
0.030938532
0.052677549
-0.75445634
0.27221647
0.76007134
0.26065916
0.1184453
-0.29359904
0.097856604
0.034853991
-0.083396114
0.16137788
-0.26567185
-0.0057102996
-0.0085524861
0.26018432
0.10190588
0.061337162
0.94440144
0.081528835
0.13443603
0.12293751
0.082212649
0.059915103
0.030794764
0.079402395
0.17480825
0.037952155
0.074635565
0.084549136
0.19526966
0.0068030683
0.098996945
0.044978175
0.26794469
-0.062836252
0.10114228
0.054244757
0.23118301
-0.20717865
-0.64259094
0.46815595
0.22966804
0.29631066
0.0082503418
0.029467756
0.90170974
-0.11405038
-0.63736016
0.16322866
0.82580787
-0.26347184
0.20098275
0.32514092
-4.9966712
0.10990516
1.0185665
0.24115269
-1.4397562
0.51805562
-0.62520868
-2.7738209
-1.5955189
2.9546595
-0.86061215
-3.2697113
-1.4182382
2.2545838
3.4890692
0.80038863
0.99233937
-4.7139516
0.11872236
-0.38735884
-1.2005013
-0.60284954
-0.77713525
-0.56457996
-0.25366932
0.27040949
-0.500229
0.23819338
-0.29934797
-0.50028002
0.22206797
-0.16375177
-0.38238004
-0.15607691
-0.093823768
-0.24512129
-0.024045736
-0.16283706
-0.23979034
-0.11321741
-0.12531494
-0.064213708
-0.40477753
-0.28779358
-0.21657096
-0.30718547
-0.34630018
0.62833482
-1.9964696
0.39507291
-0.17121814
-0.46802348
-0.74566215
-0.90934867
-0.92014074
-0.5847764
-0.40829375
-0.92467272
-58.564503
-0.53531682
0.37016773
-4.2093058
-0.89514756
-0.97619903
1.7135445
-5.4794526
-12.294419
-1.0522192
3.0559354
-14.183214
-14.242405
-1.4926707
3.3179586
-14.030857
-1.6695946
-0.15321341
0.99195588
0.85131478
-69.874481
0.64795327
-2.8770058
2.4905729
0.099351503
-0.92761272
-0.74768299
-0.52555025
0.19227706
-0.63360649
-0.89025319
-0.86439556
-1.0084164
-0.52337688
-1.0646757
-1.4256592
-0.9196254
-0.32418746
-0.48916903
-0.87250829
-0.39995661
-0.15122689
-0.41791826
-0.02616483
-0.40249738
-0.14447968
-0.12344792
0.33042777
0.12129309
0.52761322
-0.00050789956
-0.039168276
-0.6429081
-1.5242115
0.45071131
0.72120881
-0.60169578
-0.23989043
-0.50839216
-0.474686
-0.80022579
-0.22864774
-0.69690925
-0.52998924
-0.61844927
-0.30871531
-0.85304487
-0.63540739
-0.98456573
-0.46225107
-0.95921612
-0.63111019
-1.0563173
-0.51642245
-1.1711162
-0.71957165
-1.1316495
-0.25777501
-1.4895432
-0.84846419
-2.5359075
-0.02210658
-2.3518665
-1.0726057
1.3030893
0.50183493
-2.126977
-1.4177229
0.12281322
0.23256324
-1.4071014
-1.8186148
0.18362674
-0.39266691
-0.87570113
-1.155604
-0.52146643
-0.51070321
-0.6273495
-0.94479334
-0.69314265
-0.44971281
-0.59012663
-0.48755363
-0.65902644
-0.32540351
-0.45742619
-0.66244519
-0.63407117
-0.30917326
-0.35304937
-0.50116187
-0.60637742
-0.39011085
-0.28020805
-0.22256999
-0.70746559
-0.062214382
1.1813515
0.61657333
0.15644233
0.92799938
0.43109038
0.1995433
0.28029683
0.55351502
0.45248941
0.52086538
0.34665602
0.36806756
0.52353573
0.54345155
0.30197591
0.46551895
0.54718387
0.56605726
0.40230381
0.43181738
-0.32570335
0.80962861
0.54841763
-0.032199711
-0.49709225
1.0344962
0.45965871
-0.20077384
-0.96488351
0.49102315
-0.63224477
1.319598
-1.7530146
-2.0433943
0.098800249
0.72469532
-0.96507102
-0.20005751
-0.083107792
0.28690487
-0.36981302
0.758627
0.21736062
0.64531118
-0.56713992
0.8468107
0.37989128
0.35161236
-0.085995346
0.72237277
0.63991594
0.15672359
0.33790913
0.45730534
0.8325929
0.26516432
0.57126719
0.26855633
0.58681834
0.5241062
0.69461328
-0.23803714
0.50805587
0.55180919
-0.11612827
-1.8286548
-0.58773756
0.016652901
0.056348689
-0.49766198
-0.4919152
-0.030714786
-0.14075525
-0.32458714
-0.71181923
-0.25742313
-0.14369668
-0.2187818
-0.32788685
-0.25609621
-0.099488609
-0.3917546
-0.19363287
-0.21737982
-0.39244318
-0.40934235
-0.12315523
-0.10946772
-0.72078681
-0.45624915
-0.17995095
0.034285318
-0.94431937
-0.63373929
0.19076933
0.56801254
-1.0032109
-0.67489767
0.10445758
-0.084199406
-1.4568297
-0.42112228
0.63110381
-0.35777366
-0.99459326
-0.07407105
-0.18814436
-0.21102215
-1.6278808
-0.11371856
-0.24181634
-0.20646955
-2.7408655
-0.061489247
-0.20853771
-0.19804086
-2.870177
-0.017813744
-0.15764597
-0.18227468
-2.7803805
-0.040183716
-0.11715274
0.018759027
-0.88823068
-0.15609053
-0.10404412
0.10480184
0.16355607
0.2678062
-0.14183259
-0.88781422
0.021056121
-0.47667453
-1.0035888
-0.26219097
-1.347218
-0.096409626
-0.39289996
-0.0071336403
-1.5676435
-0.16173477
0.013740554
-0.18753323
-1.006139
0.091598116
0.5660044
0.42226511
-0.25070286
0.24806455
0.16848545
-0.88325286
0.18186809
1.7264571
-87.341393
-3.2038672
0.94757497
4.0194974
-59.123329
1.5127918
-0.014094414
1.2604971
0.10646778
0.53294665
0.51293194
-0.054318026
2.2441053
-0.18036242
0.10715393
-0.20738682
0.067443855
-0.27824026
-0.55459607
0.18038577
-0.64155227
-0.50612992
-0.40287814
-0.19410306
-0.80385047
-0.34252861
-0.45745412
-0.27466014
-0.37657568
-0.86294574
-0.50501353
-0.098229311
-0.20009495
-0.16645117
-0.54271191
-0.47301611
-0.1129318
-0.19665743
-2.4481208
2.1673605
-0.031427883
0.022181349
0.34068701
-0.023509096
0.3419852
0.16209641
0.10806987
0.031322014
0.33647665
0.053874865
0.04561729
0.17791089
0.20621225
-0.039785761
0.11158488
0.2985822
0.21941093
-0.048261531
-0.11333699
0.35807347
0.19620717
-0.063411914
-0.12720619
0.40343061
0.048069328
-0.15610045
-0.40097097
0.10059664
21.57567
0.43328357
-0.62000507
-0.60281414
0.10450323
-0.12438554
-0.60834652
0.2092216
0.16097602
-0.22966799
-0.13353075
0.49197084
-0.0058664824
-0.056296103
-0.074386455
0.33416978
0.10067221
0.062627397
0.018597944
0.21243626
0.081675433
0.17619616
0.086520351
0.073607258
0.064595111
0.27737853
0.10182352
0.058338597
0.057902075
0.19410565
0.10502497
0.075559236
0.020524183
0.19543006
-0.05419929
-0.02028352
-0.69335145
0.0051908037
0.33162451
0.054913536
0.11754826
0.27004269
0.072481133
-0.0096838977
0.28772724
0.1540308
0.0082525732
0.21674362
0.13498543
-0.05635833
0.031469159
0.14289311
-0.22309147
-0.15170079
-0.22441165
-0.10885274
-0.24561982
0.024070675
-0.49752071
-0.62253344
-0.04293799
1.0604041
0.57767361
-3.4456933
26.287384
0.93236977
2.2048123
-4.5698447
0.10184771
1.1205353
0.27788919
-2.6515989
8.1959743
0.038904049
0.017782696
-1.1681606
-0.033164695
-0.27334371
-0.22913183
-0.18061873
-0.39341307
-0.31058502
-0.2165183
0.064007767
-0.34131423
-0.20434439
-0.04548946
-0.29853979
-0.3140026
-0.013183994
-0.12057503
-0.19949439
-0.17644083
-0.32284293
-0.035201855
-0.10907648
0.20000705
-0.68381023
0.62110138
-0.34485963
-0.10985176
-0.15496428
0.36458245
-0.070933051
-0.20227471
-0.10754954
-0.056536727
0.087653838
0.039953586
0.29799539
0.30629614
-0.069012955
0.40883836
0.34150308
0.48365816
0.35842097
0.32699263
0.4547585
0.00077507459
1.2349318
0.19829036
0.6293695
-0.15236969
0.80223793
1.2783064
1.0247558
0.89441192
0.5319764
2.5753233
-0.60444641
3.2258031
-0.2406698
0.10712857
0.90230972
-0.090721048
0.7928611
-0.1401086
1.3121306
-3.1739485
11.765754
-1.2060107
-1.2453305
-1.7498709
12.307025
-1.326453
-0.94788796
-0.94112337
4.5471597
0.13410337
-0.14716038
-0.08647985
1.089595
0.88920861
0.21605499
0.071968175
0.69508451
0.48818982
-0.16384982
0.30410066
0.14222775
0.62303734
1.591416
-1.4617218
0.34206101
0.17879985
-0.054706097
0.35185504
-0.063954867
-0.2706016
0.23141794
0.39441201
0.10359281
-0.087404095
0.23039593
0.20391236
0.32477728
0.014277326
0.1824515
-0.31418458
0.74400014
0.65224969
0.073270135
0.67535818
0.71258634
0.63511837
0.70226264
0.62315416
0.76399708
-1.5664251
0.025113778
1.1512724
2.1758013
4.3542643
-1.7787073
1.4473737
3.9647448
0.097558208
-0.052367672
1.0523733
2.4126587
-79.446487
1.0460498
0.34294772
1.0913913
1.0130663
0.25876197
0.45753962
0.95187896
1.1962014
-0.12602305
0.54720819
0.52523166
0.79379553
0.35691965
0.2753287
-0.045290016
0.20415415
0.0025374615
0.13199377
0.15350214
-0.17664276
0.53766698
-0.41644943
0.29579046
-0.7745164
0.037380695
-1.8514602
1.102266
-0.7245242
0.015187966
-0.21729152
0.085030057
0.11343624
-0.088808276
-0.019994915
0.052103221
0.14079192
0.0016774051
0.0048420369
-0.0026755587
0.22489601
0.042479277
-0.058200888
0.014625487
0.37704539
0.18837139
0.0070881378
-0.067167021
0.18820986
0.32312298
-0.035060562
-0.16224165
0.2088318
0.49048752
0.072257675
0.070191436
1.0793306
-0.0062589706
0.47259063
0.48931751
0.11231068
0.48993701
0.087190636
0.05796368
-0.24206792
0.30093637
0.14441447
-0.044199739
0.23935764
0.11909511
0.10623194
0.077912219
0.19857199
0.0090648886
0.087482654
0.12451849
0.16467907
-0.019579919
0.10330295
0.081919022
0.13748805
-0.027056668
0.096050315
-0.056200117
0.13607068
0.0016065922
0.11937741
-0.16733681
0.12020845
0.1236848
-0.13410141
0.13375342
-0.9574964
0.052759096
-0.20396703
-0.18564071
-0.12648049
-0.061339609
-0.18529725
-0.095240563
-0.2306499
-0.12571101
-0.21677054
0.045496486
-0.16466606
-0.086966842
-0.31849945
-0.018318057
-0.16488856
-0.20635009
-0.24177125
-0.048978753
-0.14976129
-0.19063112
-0.21005321
-0.083870932
-1.2824205
-0.13013387
-0.140937
-0.1400162
0.47729808
-0.06307926
0.11993925
0.19398057
0.10516358
-0.13958547
-0.018934816
-0.40694764
0.56531978
-0.17007352
-0.088203289
-0.33202821
-0.094187401
-0.17487675
-0.23297773
-0.04004151
-0.15490572
-0.12216626
-0.20656542
0.00810837
-0.18495516
-0.11484754
-0.15084179
-0.060500704
-0.10915609
-0.16838649
-0.071789168
-0.075843088
-0.050028242
-0.16236618
-0.022612263
-0.084016584
-0.10280143
-0.0016935954
0.26557457
-0.037201241
-0.14855623
-0.068711534
0.013435714
0.065419488
0.23706885
-0.046917841
0.089497216
0.01690595
0.27511045
0.1045132
0.083112784
-0.14679904
0.55279779
0.24402167
0.023410773
-2.0982761
0.50686783
0.28402129
0.12153331
-7.3338251
0.39741886
0.40356591
0.1494991
-0.74625397
0.2252982
0.59546316
0.14189187
-0.07225135
0.36761034
0.30160472
0.32063648
0.12602645
0.10034068
0.59137934
0.066664882
0.063101768
-1.4496444
0.28087702
0.19380113
0.037875332
0.18809344
0.11145078
0.23630723
0.07121525
0.25022298
0.008961617
0.22106147
0.14898789
0.2639187
-0.022505527
0.21560055
0.13000789
0.2452011
-0.040439993
0.2176514
-0.053167231
0.27345848
-0.0061112167
0.24381933
-0.2174532
0.20950846
0.097807139
0.18150505
0.060691588
-1.0636791
0.062954508
0.20898043
-0.018092439
-0.13404882
0.3228083
0.095972277
-0.009555229
0.12629229
0.41648275
0.15377688
0.32791412
0.20439151
0.34886536
0.16152495
0.38245559
0.17741954
0.38129103
-0.1401501
0.51287657
0.1685729
0.66600782
-0.51967585
-0.034696661
0.25279659
1.8090039
-0.67748016
-2.0004725
1.8412399
1.1613051
-1.5223206
-1.2927036
0.1229163
2.2244027
-0.63824391
-1.5442621
-0.27388155
0.52413577
0.023260789
-0.49497482
0.44621143
0.24606915
0.18380134
0.28605655
0.18159689
0.1954543
0.19785748
0.4101432
0.23013507
0.31726751
0.2259395
0.090579994
0.13612868
0.36491022
0.11139483
0.11755059
0.13706015
0.15073729
0.059069384
0.30645263
0.14586134
-1.5145699
-1.4458804
-1.8171834
0.036857966
0.29571259
0.2293669
0.11818963
-1.1357541
-0.071541347
0.69605923
-0.0082127824
-79.396744
-0.53798842
1.0894823
-0.020515501
-7.9901237
-0.57856911
1.0003896
-0.30500844
-9.3811922
-0.68403006
0.48355502
0.34471861
0.12380097
-0.38243189
-0.15669656
0.87568653
-8.4943838
-0.205963
-0.05375877
0.96077055
-1.1070793
-1.68534
2.3712704
0.13925765
0.098559365
-0.1838121
0.47290462
0.31946081
-47.277149
0.96197695
-0.57024348
0.17862412
-22.465517
1.5439337
-3.329881
0.45316023
0.69839597
0.58288962
-0.69660002
0.64096427
-0.23642267
0.10678754
-0.27102402
0.50155973
-0.50187957
-0.34828487
-0.026068641
0.10674328
-0.63399798
0.074024685
0.036261261
-0.7797941
-0.4404766
0.062746264
0.64533049
-1.7969606
-0.87274987
0.12364174
-0.07732866
0.21354744
0.88639009
0.19036639
0.13511866
0.061114512
-1.2934557
0.069839232
0.17680231
0.37777123
-1.5104071
-0.046537429
0.14775068
0.41557041
-2.8417778
-0.30153874
0.95763445
0.48704556
-2.0552218
-0.046702333
0.97099835
0.52983361
-0.1118371
0.11890944
0.9025299
0.93455917
10.215646
-1.0030413
1.0340017
1.8219186
0.12215444
0.71970063
0.58101654
0.45852408
-0.67678326
1.2114226
0.57010049
-0.39259562
0.57472819
0.81360453
0.44666845
0.066874646
-0.031339094
0.49832886
0.1653184
0.22002646
0.035996415
0.17689273
0.031987034
0.50086474
-0.084883399
0.044969618
-0.11415366
0.55014539
-0.45731229
0.037933506
-0.041380629
0.51853746
-0.7300989
-0.16175073
-0.29202291
0.36205214
-0.99549657
-0.3561666
-0.52218843
-0.25456408
-0.32791838
-0.34130028
-0.42009571
-0.31728458
-0.28250799
-0.19679843
-0.30720478
-0.12098242
-0.16521753
-0.39417294
-0.45549831
-0.0083797891
-0.25377488
-0.079437107
-1.0785621
0.41904593
-0.1030904
-0.049326967
-1.4019735
0.15774629
-0.088776074
0.66614914
-2.0457339
0.092542753
2.2331293
1.5836053
-3.3366823
2.2754195
0.12242423
0.98202503
-2.4203203
0.26670888
0.89581078
0.33764741
-1.1792178
-0.097425498
-0.068897575
-0.35336807
-0.74302542
0.23351224
-0.22759734
-0.5748713
-0.22599271
0.02092511
-0.23000306
-0.3412737
-0.15978092
-0.045466565
-0.1036491
-0.025137352
-0.27341983
-0.11606223
-0.1305185
-0.092214435
-0.39579472
0.1439787
-0.21280664
-0.56610882
-1.079547
1.1865056
-0.10572524
0.2720919
0.38922131
0.21453786
0.47112295
-0.024887098
0.17272173
-0.0032762666
0.25915077
0.46860215
0.450261
0.22774345
0.34733871
0.18270347
0.28420889
-0.011788266
0.040076334
0.11840259
0.39164999
0.47596911
0.95347548
-0.041142747
0.50307792
0.41030762
0.58320564
0.1887593
0.39940885
0.42724797
-79.972824
-10.187679
3.7084963
3.6135218
0.098458499
-0.45809767
-0.089015596
0.3896887
-0.024355274
0.53419596
-0.13016471
1.0143403
1.265561
0.42471719
0.052432142
0.67354745
0.47026476
-0.0018326165
0.37546986
0.029153818
0.30113721
0.1165931
0.40019104
0.019851224
0.22015919
-0.10809707
0.074852735
0.04174792
0.22522846
0.06939628
0.033251159
-0.020177592
-0.29958382
-1.2985678
-1.7241416
-1.3228391
0.3990258
-0.050221756
0.12807977
0.022745589
0.093605988
-0.0075337416
0.11385676
0.034743115
0.086173177
0.033736382
0.047509015
0.023361528
0.096453212
0.075759798
0.014569169
0.050638087
0.13273351
0.07859496
0.02625845
-0.035155788
0.080131292
0.11772905
0.062374905
-0.79637116
0.04693111
0.19558674
0.075584374
-0.16819437
-0.33006561
0.21718484
0.11577416
-0.43505493
0.11411878
0.20852359
0.034702823
-0.019745413
0.10289952
0.082625426
-0.0032717474
0.036384214
0.15875511
0.080324858
0.07919652
0.025872283
0.12800634
0.056522414
0.089406587
0.011272462
0.10595889
0.0042090844
0.099866308
1.2445729e-05
0.10932124
-0.049549468
0.10239176
-0.0073217563
0.091064088
-0.048409976
0.084848829
-0.050985202
0.14387892
0.022113241
0.20789646
-0.10130412
-1.0560071
0.30341327
-0.30902368
-0.1653976
0.0122522
0.10318904
0.17296368
-0.23266295
0.19622311
0.13078316
0.28821462
0.16381177
-0.093012534
0.34309724
0.32354423
-0.10605187
0.046880141
0.021298058
1.2133831
-0.27898443
-1.0672575
-0.31456476
2.4162154
-0.13726355
-0.25816157
-0.32836533
2.8622756
0.49249917
-76.76239
1.1480675
1.1621846
1.5857511
0.11072526
0.52538604
0.64871734
0.61607057
2.5548651
0.51782489
0.092627287
0.21052946
0.69064409
0.41704911
-0.38329557
-0.0094229989
0.48278978
0.040379897
0.36611861
-0.38838616
-0.14843401
-0.35991517
-0.10703888
-0.41820824
-0.0067837839
-0.63133621
-0.26348698
-0.33779746
-0.087013312
-0.56639618
-0.34511116
-0.60422021
-0.53313696
-0.17961769
2.7936006
-5.2843385
-0.3311986
0.23336563
0.2298488
0.056932185
0.38755116
0.17520742
0.13064449
0.17116606
0.48632362
0.33835021
0.12178928
0.27133456
0.46815851
0.48820755
0.048290394
0.32330337
0.055518098
0.34703073
0.18961471
0.48880675
0.23484361
0.16788799
0.51513427
0.47358391
0.22424696
0.51609319
0.32264474
0.64455396
0.63139403
-0.028170794
0.71868861
0.57604706
0.099135637
0.66777283
0.073155038
0.73387599
-1.1088221
0.054426465
0.53757179
0.77817947
0.38794169
0.034450863
0.49510753
0.65124089
0.33797204
0.081676401
0.4479644
0.59445465
0.27591589
0.15188925
0.42454156
0.48090455
0.36941403
-0.040129501
0.49390531
0.2235861
0.39040047
-0.032497827
0.61087435
-0.020470573
0.38209909
-0.45998824
2.1465731
-0.6369065
-1.5229864
0.08695291
-0.10398305
0.8943488
0.14745383
0.041992288
-0.035319149
0.15690523
0.12400229
-0.039957669
0.012739176
0.14162174
0.095470771
-0.078806221
0.053091861
0.13465199
0.13224541
-0.080109872
0.013448928
0.11310727
0.097493492
-0.15721215
0.034186929
0.096146755
0.14155667
-0.10966023
0.027290337
-0.071640402
21.471052
0.2553415
-0.048990209
-0.21417169
0.098645426
-0.095043369
0.11033422
-1.0963943
0.25960532
-0.26640457
0.14202188
0.10544761
0.022417122
-0.22401649
0.049364213
0.39690554
0.015608641
-0.22077657
0.052735515
0.43584317
0.040904194
-0.16810487
0.048523359
0.49661556
0.050609209
-0.061725628
0.014429552
0.27210408
0.038241185
0.10081029
0.012332385
0.87910622
0.049374625
0.27794492
-0.033077832
0.21700622
-0.48698342
0.25647005
-0.34838834
0.25649166
-0.086088933
0.017164011
-0.0035343436
0.13731191
-0.055951603
0.034745961
0.086897589
0.057552911
0.015228096
0.0028645424
0.028425934
0.040007278
0.037205502
0.24686319
0.040307082
-0.15796435
0.093694769
0.55255806
0.054768085
-0.43393975
0.6092667
0.62774819
0.010957483
-0.16348654
-2.0255787
0.20996985
-0.14766915
0.5691067
0.11858065
0.58727938
-0.081251882
-0.042142369
-1.5871509
0.41530341
-0.032250516
-0.17809507
0.22703864
0.23548555
-0.1655104
0.189275
0.26384947
0.03606052
-0.044560529
0.47731704
0.30634707
0.03198763
0.013329135
0.019314663
0.35178506
0.11898703
-0.049567096
-0.1498321
0.29699743
0.12095355
0.095445879
-0.24541587
0.31253454
0.20384938
-2.3889463
1.0942267
-0.90171063
0.26408169
-1.1736891
0.097691409
0.04528708
-0.17766222
-0.44451144
0.087246902
-0.093221121
-0.45243651
0.046226468
0.38466537
-0.041100673
-0.85955703
-0.0084288828
0.36682573
-0.40261289
-0.26839522
0.40816858
0.20690995
-0.61037672
0.23457423
0.65698737
-0.65762597
0.60259867
0.61600375
0.60644448
-0.038943008
-81.234375
-1.5067606
0.45661423
1.9432851
0.1041389
0.4463096
0.45075244
0.22121084
5.4166403
0.85466838
2.0045354
-0.55665135
0.25337803
-0.052538015
0.34851202
0.56302416
-0.32372588
-0.060877599
-0.038325362
0.59419197
-0.26384091
0.0053138197
-0.16477482
0.4804461
0.044226483
0.17932963
-0.32103416
0.42726985
0.18927383
0.080531187
-0.059073731
0.38129538
1.011167
-0.45782048
0.089492388
0.6601541
-0.64208788
0.10740954
-0.028229717
0.069463395
0.58470219
0.020584125
0.0012897355
0.064886041
0.17189665
-0.00156022
0.011269061
0.10563914
-0.8876611
0.008647955
0.029718738
1.9453759
0.081650473
0.030685311
0.047155954
0.15389876
-0.76406872
0.0056591723
0.077793591
0.0029189577
-4.3158607
0.02299796
0.048324779
-0.020091766
-82.508415
0.20441073
-0.001890736
-0.087158374
0.10461499
0.076619156
0.023454659
-0.058184393
21.443594
0.040987454
0.039668549
0.017302917
0.25835928
0.01952906
0.00018468595
0.064014278
0.23066778
-0.0058623995
0.044243347
0.056080557
0.17283909
-0.076766901
0.062218383
0.079799533
0.1652738
-0.082402356
0.070803024
0.078060791
0.10005305
-0.060840309
0.094479986
0.060464464
-0.26639646
0.47455648
-0.016787909
0.045145459
-0.77005357
0.026084963
0.94464976
-0.81978387
-3.6838939
0.15717722
-0.22840974
-0.36402708
-0.15632284
0.5939905
-0.64547384
-0.51499891
3.4742689
0.33880863
-1.4511083
-0.24253051
0.54511702
0.04119277
-0.56764179
0.11468611
-3.6025383
0.022152137
-0.39117253
0.53503442
-79.256241
-0.054522976
-0.081258588
1.0577489
-9.5446701
-0.49202144
-0.060015589
2.1274457
0.12683778
0.37037921
-0.28743237
0.76813316
-79.19014
-0.030278826
0.13064288
0.42503133
0.17819826
0.37680659
0.17395122
-0.45122814
-0.15191866
0.44382712
0.081001975
-1.073386
-0.2885893
0.053904116
0.44698811
-1.0746617
-0.27007335
0.017021991
0.48980901
-1.1124966
-0.46590626
-0.41449842
0.93592161
-0.5466336
-0.25706184
0.069826432
-1.2617414
1.0296725
-0.84543693
-0.29647601
-0.01566449
-0.14077134
-0.57582426
-0.31105235
-0.013530203
-0.20115297
-0.49094722
-0.3178204
0.04397434
-0.37725052
-0.43731776
-0.29304695
-0.27410689
-0.46121666
-0.3560088
-0.28700712
-0.58378452
-0.50816107
-0.2963818
-0.15439607
-0.7296207
-0.66234499
-0.25965181
0.03360356
-0.78864151
-1.3360658
1.8455925
0.34861469
-0.9071362
-1.2836417
0.10061251
-0.11097299
-1.248757
-0.92588264
0.4856416
-0.18103494
-1.205601
-0.68409532
-0.24111106
-0.17363274
-0.93726337
-0.66910273
-0.29577124
-0.24259642
-0.80585968
-0.53756797
-0.33596811
-0.22659886
-0.5530495
-0.551624
-0.32742602
-0.1965789
-0.44864962
-0.58480114
-0.31747383
-0.11920387
-0.4111762
-0.54866296
-0.32153556
0.022819655
0.46965075
0.46669558
-0.0098867361
-0.18712561
-0.63199019
0.23183529
0.3502849
-0.41921082
0.10350459
0.25825396
-0.41559628
0.55384624
0.44175258
-1.0454156
-0.52667278
-0.56139201
-0.43508616
0.35811824
-0.58471632
0.062708206
0.059682511
0.41937244
-0.56956029
-0.36209604
-0.17784931
-0.43889901
0.29841822
0.30497238
1.3943551
0.16252252
-0.29512885
-1.7765954
0.79732358
4.3857193
0.099269241
2.3930337
-0.084560454
-0.87250268
-0.050030708
2.3955655
-0.47947612
-1.414048
0.29834479
0.62227213
0.51543301
-0.75057077
0.26883614
-0.2134483
0.20491277
-0.28105134
0.16681196
-0.58515435
-0.030555747
0.55440575
-0.72438884
-0.12245628
-0.12885742
-0.67186373
-0.34954852
-0.33338362
0.061592624
-0.43966207
0.066297993
-0.97613043
2.5371625
1.0315905
-0.093980342
-0.091346569
-0.10270724
-0.13197784
-0.13062938
-0.12847118
-0.063213281
-0.071761437
-0.21852238
-0.14392348
-0.083281614
0.0029976943
-0.21178363
-0.041034542
-0.15900591
-0.056514643
-0.15852413
-0.14568691
-0.079707019
-0.073246278
-1.0009435
-0.13996617
-0.060606681
-0.21135323
-1.6114889
-0.058741905
-0.057444558
-0.22589281
-3.1817007
-0.084144227
0.13176225
-0.013817593
0.09862823
-0.14446507
0.05092635
-0.53135854
1.1598388
-0.19416466
0.012499616
-0.19334786
-0.19171619
-0.16586986
-0.17599286
0.049260415
-0.52281815
-0.11589527
-0.13822193
0.055414997
-0.23584138
-0.064199254
-0.14053489
-0.013743758
-0.21658444
-0.11800599
-0.060369946
-0.026271259
-0.17806421
-0.12230727
-0.024051076
-0.050694942
-0.11484366
0.0098625254
0.22620253
-0.049958937
-0.3197889
0.01083674
-0.097271703
0.029330224
0.080353089
-0.0051184278
0.012508021
0.041722998
0.057058096
0.015608173
-0.035056874
0.028941289
0.073690131
0.072501607
-0.13376692
0.033997804
0.067594454
0.11254212
-0.0064298073
0.029286243
0.032794304
0.097207896
-0.1099044
0.0048024557
0.029041672
0.16177663
0.0067477776
-0.082008727
-84.720306
0.19317067
0.41752368
-0.036969446
0.10476822
0.13373442
0.20010556
-0.057248443
0.13898681
0.02778727
0.087815188
-0.01092351
0.16715465
0.058964074
0.037046447
0.042166982
0.11232872
0.015009314
0.056785502
0.057157908
0.064751081
0.0063502286
0.050707638
0.045038663
0.041218467
-0.025428075
0.075271152
0.061898448
0.085478067
-0.073100768
0.079735912
0.021769682
0.10087578
0.028769575
0.058161192
-0.07740543
-0.90341043
0.73620164
0.042155176
0.0027212652
0.55043185
0.25252822
0.26353112
0.15787901
0.17797928
0.10215716
0.43980107
-0.27942857
0.17683168
-1.0344217
1.4577836
-0.52114558
-0.7510792
-0.43204647
-0.25803393
0.11634851
0.25125313
-0.7525115
-0.29336908
0.11139757
-0.59659058
-0.25385165
-0.94221729
0.071624868
14.96069
0.89589202
-1.9778161
-0.11734549
0.099254765
0.75557035
-1.1670699
-0.54597926
0.82075232
-0.16398659
-0.14318748
-0.26362345
-0.77925044
-0.96799707
0.31232986
0.3451685
-0.40420926
-0.60878861
0.011125515
0.51884496
-0.25460219
0.13696319
0.11957123
0.40809429
-0.10964352
0.73398113
0.26679167
0.43096104
0.19509785
1.2068404
0.14155066
0.5967207
0.5827179
-1.1613444
3.2068446
0.65261948
-0.16888943
0.64198822
0.9316749
0.40770349
0.77766752
0.77592766
0.28901067
0.92477918
0.78430599
0.81058097
0.4311381
0.50333464
0.76025897
0.52024722
0.75489104
0.47274211
0.49387825
0.37563241
0.45243561
0.53302729
-0.28250006
-0.067323409
0.60837382
0.16171953
-0.70497072
-0.62794709
0.13389903
-0.13269958
4.5127306
-0.82729
-0.58425403
-1.153672
0.099010035
2.487278
-0.58710986
-3.170387
0.18261297
1.0901062
0.44279745
-1.900816
0.047324844
-0.46136561
0.69146001
-0.26450974
-1.2088597
0.18985254
0.42015249
-0.046674125
-0.46783841
0.41655248
0.48940209
0.098461591
0.33490232
0.59848893
0.39076391
-0.07899835
0.55728036
0.21413971
0.47022137
0.18692508
-0.10942002
-0.30618259
3.7484252
-3.4639187
-0.064776756
0.44333512
0.067451321
0.41839933
0.16135339
0.1178619
0.32208455
0.4424625
-0.051631369
0.72737092
0.40967822
0.10049113
0.46350649
0.16553023
0.42898858
0.36750624
0.33327347
0.1330235
0.71506751
0.018089781
-0.27313137
-0.33938384
0.46430373
0.047936738
-0.59912807
-1.3597648
-1.1101897
-0.32175699
27.731045
7.9974179
-9.2537727
-7.1525426
0.11844423
-1.2191339
1.1255485
-0.17422606
0.87451404
0.24016497
0.15003094
0.38755107
-0.35911748
0.31757918
0.13487947
0.52402967
0.20623474
0.58467156
0.43127477
0.44645569
0.24894415
0.36906049
0.14524388
0.44582587
0.4309583
0.34467101
0.24564618
0.010506721
0.79807043
0.18538465
0.46703604
0.25733656
0.025753023
-1.8668053
-2.395623
-1.1820627
0.07590691
0.019673964
-0.035687275
0.090685911
0.38092151
-0.0041033574
0.00027689268
0.091453038
0.11765853
-0.01123022
-0.0082969405
0.087625019
-0.13095814
0.010333811
0.021308035
0.073960997
0.065354556
0.0098360851
0.038602389
0.040738955
-0.0074376669
0.038285494
0.073658042
-0.0029571219
-0.16426735
0.078068517
0.080697007
-0.037219707
-83.026428
0.11073682
0.15450411
-0.011348136
0.10434674
0.044232104
0.07215856
-0.0358935
4.0765543
0.030147344
0.086667687
-0.013939712
0.23673888
-0.023533538
0.035817202
0.086195141
0.097545877
-0.043691073
0.08835306
0.097302154
0.11483891
-0.017092286
0.038033284
0.11062122
0.097824864
-0.04669226
0.051873073
0.12457358
0.11532287
-0.037610225
0.04931879
0.2708005
0.076962486
0.18760715
0.0058730557
0.028022464
-0.73313075
0.11843793
-0.30967876
0.49276006
0.037571877
-0.02003276
-0.047141939
0.078293391
0.055060245
0.090983912
-0.0081229135
-0.022763481
0.13676684
0.066823341
-0.040724963
-0.036595043
0.21327972
0.27556479
0.016003581
-0.17281672
0.56773829
0.54730213
0.019358972
-0.40978083
0.64993924
0.68450302
-0.025002101
-0.16790757
0.65896052
0.48958734
-0.10628784
0.28919762
0.098660573
0.53457952
-0.19555758
-0.0491556
-1.6537708
0.36951244
-0.043661207
-0.10777763
0.25803578
0.17665058
-0.037240505
0.041898884
0.23357527
0.017226156
0.018522281
0.19508991
0.26948562
-0.017139139
-0.035202384
0.065007918
0.38180307
0.043694083
-0.060692862
-0.074840151
0.356226
0.092697583
-0.0013472389
-0.20578468
0.28297183
0.17247021
-0.68403357
0.5098421
-0.99180931
0.15002486
-0.32753739
0.23284057
-0.054635286
-0.076941274
-0.040588275
0.13560095
0.041586876
-0.033364482
-0.0035023135
0.038593285
0.12020799
-0.032475002
-0.011218609
0.048357271
0.1499424
0.21204185
0.083892949
-0.13549596
0.13088906
0.55389011
0.066661455
-0.39545906
0.22059605
0.70544618
0.053951621
-0.041240245
0.77204067
0.10151359
0.10956452
0.65690571
0.11737823
0.65121394
-0.073615946
0.0036176825
-1.6166819
0.46914616
0.013745943
-0.15054166
0.23451678
0.19052872
-0.074657477
0.1002667
0.25904688
-0.0046511875
-0.042601824
0.16010189
0.25516936
0.0055481098
-0.016289029
0.08315786
0.31059647
0.069817923
-0.023757905
-0.092812978
0.2269436
0.11189955
0.058029898
-0.29194561
0.26101327
0.19762176
-0.8721441
0.92388862
-0.89840764
0.5391919
-2.9982445
0.78727907
1.1814715
0.47771195
-0.14660403
0.9157483
0.081180379
0.0089853313
0.016164813
0.92902958
0.040435955
-0.02160465
-0.0086744968
0.77390194
0.12051389
-0.0057190247
0.012863746
0.3402127
1.0205994
-0.0068241879
0.020075073
0.20012051
-93.799072
0.0045805927
0.01559078
0.088421173
-26.163261
0.15410732
0.078124255
0.17565881
0.11185879
0.10669427
-0.016307473
-0.042607546
-0.28396705
0.31291908
0.065712318
-0.039273329
0.083754279
0.29818273
0.027001206
-0.017508233
0.21491666
0.12020703
0.057397127
-0.031649433
0.32700557
-0.32741383
0.1154701
0.019901834
0.69332069
-0.1704123
0.15622549
0.036205657
0.70357764
-0.28600121
0.37486508
0.038447175
0.37887618
0.059963785
0.084950171
-0.1025726
-0.88695991
0.12808535
0.48797128
0.60764277
-1.7453802
0.12811747
-7.2666287
0.72243482
0.35965031
0.048507884
-4.0867538
0.78182405
-0.090885617
0.44186115
0.066082127
0.84545046
0.27143511
0.53311747
-0.35111916
0.52313513
-5.9194503
0.13689592
0.53390348
0.74233198
-1.3315746
0.14555427
1.2589195
-0.22680411
14.218588
0.78005373
1.5800109
-1.9529791
0.10421169
-0.14987108
-0.00417333
-0.072086059
-10.088527
-0.36092255
0.057768144
0.68353879
-0.24711961
0.48948583
0.069632433
-0.083094932
1.0616683
0.028603068
-0.0097864252
0.65003318
0.10853419
-0.11517728
0.1523084
0.61785239
0.084373258
-0.34778103
0.11053004
0.9097504
0.032583952
0.023028538
0.080693506
0.62443835
0.04726921
0.85489398
-4.7338991
2.2031982
-1.3096747
-0.13325572
0.82896423
0.063576333
0.85510331
-0.020384872
0.47162902
0.13356203
0.24114943
0.0092382794
0.075371958
0.23099986
0.12465668
0.007817517
0.035161812
0.38380933
0.14809188
0.016970247
-0.24712625
0.43224069
0.11836898
-0.024482004
-0.50172949
0.43412751
0.0558891
-0.075073756
-2.7929637
0.21748993
3.2815275
0.32115063
-0.17545585
-0.32328466
0.10105765
-0.043130498
-0.27163649
0.21220386
-0.24857713
-0.075807326
-0.18340333
0.36356908
0.039251238
0.082923673
0.0043850471
0.1367048
0.14991646
0.12490685
0.013865419
0.15773064
0.099779449
0.14773574
0.089709707
0.069075055
0.12876745
0.17294395
0.11031505
0.076890461
0.11788533
0.11299805
0.086260028
0.08812549
0.10885461
0.11029581
0.066569366
-0.042865105
-0.80370289
0.73450047
0.045567445
0.80930084
0.53890264
0.82417989
0.29215425
0.70084757
0.030948155
0.58407378
0.12390555
0.13024706
0.54982704
0.65239841
0.90974689
-0.024423638
1.8077723
0.022522412
0.53447229
-0.057206668
1.7164348
-1.3492744
0.053227611
2.070796
16.079739
-0.65957201
-0.52173245
-0.42394817
2.2095511
2.5947573
-0.22321539
-5.0776119
0.11239381
-1.2105812
0.89685297
-0.70578587
0.88405704
-0.76682025
-0.9606958
1.2769297
-1.7009494
0.31576586
-0.23303343
0.062289394
0.32804513
0.27442113
0.20492955
0.064353175
1.1520437
0.24788448
0.30355775
0.66185457
0.31607494
0.18224704
0.77427006
-0.038576901
0.55480433
0.31530201
0.028138785
0.55632353
0.53654259
1.2368094
2.2048714
-1.7147163
-0.10839055
0.15859766
0.54351151
0.17500886
0.46554866
0.21641339
0.2745851
0.2773951
0.64320993
0.2293002
0.012427102
0.11689443
0.20076421
0.32689723
-0.23349515
0.21110585
-0.1147695
-0.1166591
0.25894254
0.27166665
-0.42648253
-0.25471985
0.22737056
-0.46168563
-1.2589711
-0.46632266
-0.0022082622
-0.73026603
1.5422314
-0.99466228
-0.46453494
0.37887725
0.12569755
0.17240331
-1.4950898
-0.12950337
0.1394923
2.0563529
-3.2089288
-0.70986146
7.7102938
0.089095853
-1.5834336
-0.38713601
15.531859
-1.1267887
-0.40383974
-0.598746
-1.3293322
-1.0355158
-0.85140568
-0.27823234
-0.38292995
-0.58676147
-0.64111412
0.050107207
-0.3696675
-0.0080885077
-0.57521802
0.41445634
-0.12573381
0.011358977
-0.60329819
3.9064982
0.19691619
-0.36037543
0.1611307
-0.35714373
-0.41638073
-0.023321617
-0.24815814
-0.31265596
-0.030443739
0.084191538
0.085860558
0.092947476
-0.08312954
0.2192142
0.57202107
-0.29323098
0.027199473
0.39919245
0.47822708
-0.092149042
0.35243848
0.51415682
0.0082298694
-0.0075756526
0.57230657
0.77377141
-1.4785221
0.55016559
1.780175
2.1962423
-5.8714075
2.9642386
0.10476483
0.80087626
-1.7546809
0.69422299
0.38545346
-0.3529281
0.39577076
-0.50063288
0.0084129553
0.16382232
0.57041931
-0.4953683
0.068183683
0.024591882
0.25933385
-0.26533118
0.069598459
0.0077287517
0.11811369
-0.2260962
0.12347066
-0.080465846
-0.10258136
-0.10376886
-0.11432315
-0.043284047
-0.09257745
-0.033696841
-0.43114936
-1.3131633
0.025154822
-1.6082764
0.11145968
0.28581038
0.53021365
-2.2781603
0.16769706
0.32225811
0.056606017
-0.20128223
-0.011538259
0.23711467
-0.070703335
-0.42835423
-0.72362763
0.12810452
1.9471545
1.7659539
-4.926825
0.87871367
-1.1875988
-1.0917486
0.43144152
-0.054546941
-1.9231956
-0.70599896
-0.37556329
-0.55357707
-0.58189243
4.1052985
-0.88043261
-0.38853994
-0.85019463
-3.1192496
-0.21414809
-0.88190091
-1.0625978
0.24082084
-0.32707819
-0.0090600289
-0.0087942202
-0.94203341
-2.5885928
-1.6783078
-0.38998753
-0.11504356
0.79084015
0.78641486
3.7823954
0.033979487
-0.5222916
-0.43775484
-0.037297949
1.0808161
0.32482529
1.1973425
1.6210599
1.1483853
-0.31786749
-0.73056442
2.8524876
0.085366137
-0.013341418
-0.30423373
-0.36429074
-1.0844656
-0.47357249
-0.10970425
-2.4051671
-1.0902222
0.37004316
1.0572556
-1.7353503
-1.8921529
-0.18364839
-1.3024454
-2.6032338
0.0081348857
0.046466209
2.0793045
0.68205625
-0.1053502
-1.1134446
0.091366656
2.1817412
1.4096479
0.4191094
-4.9918447
2.0277019
-0.37328535
1.076679
1.4764953
-0.65578932
-0.16198008
-0.073154427
-0.34143752
-1.0004207
-1.2569121
0.53375554
-1.0577853
-0.21653345
-1.4095726
3.3204734
-2.9908919
-0.3467865
-0.10438158
-0.11802594
-0.30753735
2.1637318
0.24282019
1.8534138
-1.703651
-3.9068723
-0.049484871
0.55721259
-6.1256895
-0.25420287
-0.35789451
-0.014010105
0.29712012
-0.059002422
0.13018395
-0.062919743
0.40230948
-0.46481434
-0.5662412
-1.8723271
1.329713
-1.3131917
-0.1829282
-1.1472849
1.3195595
-0.48799032
-4.8355799
-2.0534811
0.63583755
0.32582319
-0.3385261
0.38441989
1.2080367
-1.9092219
0.59312624
-0.23209068
3.0798361
0.040332578
-3.2145069
-0.30404159
0.0089475922
0.88656116
1.2970685
0.033309132
0.43579236
-1.1192145
1.3835176
-0.15805236
0.037873693
0.63030761
-1.1853092
-2.6361437
0.082385264
0.72833008
0.7511341
-0.054487087
-1.7159238
-0.49555141
-0.98216498
1.7618042
0.69293481
-0.055586129
-0.084306173
-3.5152874
-0.091020338
-0.11341552
-0.064422362
-0.030618761
0.17314227
-0.0076516401
-0.069455393
0.052232921
0.32997397
-0.069580279
-1.0487723
-0.11966366
2.2864776
-2.1134245
0.72472745
-0.85183889
-0.17881727
-0.82366836
-0.27246621
-1.5471277
-0.10475766
0.33430162
0.041871689
-6.4592581
-1.6462127
-0.7937746
-0.49610302
-7.3674908
-0.068625487
-2.8682876
0.30234835
0.021774668
0.033563085
-0.30982232
-0.078472264
-0.48776409
1.2847723
2.9528389
0.24331607
-0.068302371
3.0543773
-0.10255025
-7.5637798
-0.038329605
0.067062311
-0.012430685
-0.087200031
-0.11401909
-0.069733061
2.0429711
3.6950693
-3.8078821
0.48066828
-2.7508192
-0.84725761
149190
