-1.0622642
-0.038444951249895548784
0.061379243887805611789
-0.10886568922787753167
-0.13261882650898454995
0.016502604917136684493
0.097776893614438038037
0.05692323936368840937
-0.049074204066185341631
0.08627775433761084027
-0.080948803695146227738
0.00020846642598652125081
0.050081718393416174421
0.17936727887614158374
-0.05056922141102096939
0.05786067979622071152
0.24777277427440583177
-0.070265127015643571662
-0.12090229372961075687
-0.084305995318815997569
-0.12026948796959418015
-0.070932407372664459973
0.093262174326978100065
-0.059508361271030445197
-0.10854060748405093081
-0.062393667070040930046
0.10041434828361836452
0.073128388261250856614
0.021053796833898498772
0.0065664221363563754525
-0.0091186123115683997928
-0.014233858111346298704
0.086350873308315566404
0.12047115396988083082
-0.00078282945485384576701
0.085392191877839921488
0.31656631341602098283
-0.049353900085765624285
-0.15222799696683853923
-0.023919849744370885271
-0.070680007403807614086
-0.084304741954891846233
0.089528513079573687201
-0.060093724903309483245
-0.088066645636943867216
-0.027024953824571510677
0.14079904374620881739
0.10704632224762875732
0.0027170820973414370354
0.062687491176767268355
-0.0345675634935523067
0.020684208155551455653
0.033192922570140108362
0.064351054443596574296
-0.048640179588513961502
0.10118785399842277223
0.26476758679291155233
-0.05136815982153117754
-0.15326898258067780218
-0.075307500915890618741
-0.060146646157624350181
0.02305249402004934748
0.12548321060627398527
-0.015842036311641482941
-0.12662586190258720459
-0.034049352389746138406
0.15594795656401814593
0.14946409777956306667
-2.7834074113600232101e-05
0.042930079848350320555
-0.037386499979705120281
-0.025169395450653857829
0.054811707868330485804
0.12969419913067586642
-0.054725566833134861462
0.1221981007571851663
0.32990707273729460422
-0.078788289215963974655
-0.10787932091928703904
-0.11348221670497751066
-0.083833044974428081804
-0.0046838304793331580935
0.071238998804929685512
-0.015594920762582710856
-0.04692416005016146305
-0.084012265956401812963
0.12366941183688780958
0.13943230204839230107
0.14337545092054306293
0.0080365612306367624509
-0.018087168112513238626
-0.012645954923442194852
0.15704136613604104046
0.13984588542806682438
-0.091553200877043966667
0.1809874592653176219
0.3532751810014036271
-0.062712354935163037286
-0.10311690574695120039
-0.061392811661725521542
-0.014890126514439953394
-0.059356534500278189887
0.068797354902743428475
0.0033845526343141262021
-0.055930710702854355681
-0.045757029293245198218
0.16918362049048199252
0.15629678757551374111
0.18696524789301123524
-0.0060349978051402785567
-0.048909623049010634667
-0.0043451301510107487268
0.13440776503084780819
0.13477446177664177576
-0.010433318864703972543
0.17867975823198904077
0.32720805872934006901
-0.056916397750172505297
-0.14077704822332516993
-0.10746705605788681908
-0.043260561374419675465
-0.062683703488641108661
0.1211687592403799765
0.00939442484104083386
-0.031792842448061671462
-0.054445907796125179874
0.14641691325055038514
0.080931652791463902441
0.16303080471460083374
0.024761133377127619045
-0.085877217867926227851
-0.024483169810520530849
0.12406056830444605382
0.13220012467282520298
-0.050856602934194233106
0.11640976827838180619
0.38320483927339005846
-0.054261749651748289737
-0.15037662731574968697
-0.13252921531510055686
-0.0676758712352267007
-0.0021826787575372076856
0.10747318298763663943
0.040978543992924195469
0.004021016775261170746
-0.09759644363546813522
0.1397334526829295037
0.077175923796185318161
0.20992630992262785702
0.026447997978854086336
-0.026785676505410417776
-0.052024025692313402122
0.095616762735859652577
0.1548585062623762709
-0.10742491216679281582
0.12671835919031887147
0.34541355668602973108
-0.055555135103502909178
-0.14994908475037182982
-0.099210823697303040773
-0.059047287417450065202
-0.038988748655820075501
0.082561529105270252581
0.046579746045269022757
0.025030405781774890195
-0.1149728703486204893
0.1451619240636037208
0.13528082134522657625
0.25110244336248420708
0.025286856076037332732
-0.033605195412438541833
-0.023782671666059178878
0.086810801822579684129
0.12515179921654030355
-0.068893550739350178988
0.089430643747957460392
0.36163186856196949178
-0.032889884665677933747
-0.15200345712753628322
-0.069443502683297799821
-0.047002026960001284481
-0.10365900541556040343
0.13161511860578108894
0.038831663300955306636
-0.016205293147901745676
-0.066485006940354637321
0.10464698585532688985
0.10078765934540887306
0.19823661001644300245
0.0049105284642333592898
-0.036232047527255221261
-0.05406211774260898147
0.056220100209066461277
0.13648676515419032342
-0.13193343134295729279
0.11373421085715706974
0.37854251670627466118
-0.10896397737059871951
-0.13500490236860927486
-0.075803041597053436422
-0.016565097320751182504
-0.08756621746195235158
0.03319661856783531093
-0.03987622658960405561
-0.038939839166805507419
-0.089758880461163668946
0.080842575455627088055
0.061129137016409480423
0.1312985822177760262
0.0035948931805329259335
-0.14598102540633206842
-0.04967308179672343273
0.11205224177480613202
0.074915998249173271957
-0.067023013284050206198
0.043167987367420026597
0.34066076369393749642
-0.060251692753640425213
-0.13236066171142491582
-0.13004270447858542254
-0.03318870801477341785
-0.10443644095466523675
0.099224424955561363379
-0.020006253134421960815
-0.06130489275020188032
-0.16495173667167604587
0.035024512229412538058
0.094783911465251575541
0.1294484612328432542
-0.024134648872249003994
-0.074764575956620051009
-0.034887670021181786841
0.072380009344254206936
0.072477211066425117621
-0.12030332219096540915
0.1170880113126361748
0.22717758933690299735
-0.062543452804459095824
-0.14408796763810578102
-0.079768804770583856983
-0.063775818861949412495
-0.073087311498844638638
0.058294878526742273435
-0.10847971630564789768
-0.010257496096140475464
-0.082907253953975745752
0.059293647540293085121
0.11026026901387043878
0.092663508315835500231
0.038525296614200756578
-0.080761960259704434168
-0.016589360084986122533
0.093476693517753711042
0.041870018305257167895
-0.098394733761395037625
0.16326696956584367258
0.28392626327840468078
-0.10463252122056623229
-0.10508552558200856664
-0.073747851475068787512
0.021310770259594467836
-0.073956818770019406617
0.039222305345432172682
0.0024413426668106888556
-0.037100144763123271758
-0.12233514967030888785
0.058185814772755304557
0.069384669728051262282
0.065350124260883281071
0.081479102047355814989
-0.017838011642603319016
0.0011891485673658904829
0.089547741768749756854
0.040724501279314975493
-0.029814159725323783454
0.15730608508112285306
0.20693011057254225613
-0.075878271991829391807
-0.1563829490790430258
-0.12570952218110576207
-0.081917127733836690364
-0.04151551796278193036
-0.0064203527686767626042
0.017776767047243195951
-0.064356215231796746918
-0.11025013290343853982
-0.019274956943546151545
0.069575883005853393686
0.045345019972253540632
-0.0017298500488451920034
-0.041179176636540771688
0.021709523912612475023
0.16859661655592224382
0.0010952136457619950761
-0.079219955267580785053
0.14208507221628586566
0.17017768151874967831
-0.047783729265299710433
-0.11295428774890186683
-0.057032944004066580544
-0.096827678912008648512
