1.8165286
0
0
0
0
0
0
0
0
0
0
0
0
0
0
0
0
0
0
0
0
-8.7323811376327498124e-15
-0.029926764482893298893
0.0033960318867806287289
-0.030947411886227611669
-0.013033750011661652393
0.031565883263535121329
-0.013266484887273016182
-0.055990364757641334412
-0.0042349964621961833746
-0.0062460281415530799912
0.057443015568301004329
0.051356869355281679604
-0.023255133999772833566
0.065222973889690621189
0.035721265814985353533
-0.030848156450197790385
-0.010357880295854133628
0.0010101082174575986537
0.035531006656781916113
0.0049443997114099382379
0.064104883535481539287
0.047315372891574061396
-0.0073135397842559160387
0.037264480855469329032
-0.019688842666645837274
-0.05995070466035933237
0.0055452988943724123443
0.04883740206055404112
-0.043958521789069864462
0.0026892235532968803359
0.046177597569102011965
-0.011869809104648210128
0.03809347064025203754
0.018534103341879849308
0.19688442556528214609
0.025201329902635359216
0.013252609798185929427
0.06385925262703993073
0.051839077467463859242
0.021337551374752503393
-0.037385652073826124797
0.0034305097437343500453
0.0040602598228742239287
0.076785616971793984148
0.16444627614583211995
-0.038299900263314643191
-0.059048305965520000967
0.012962841818267043612
0.073926091335072604342
-0.060948492817488929835
0.078701576549107873189
0.0051094099405218829864
-0.055840691868677105855
0.025095493520752762
-0.0022229088782374801263
0.22900387764017338449
0.010683605432078856555
-0.056266014574363002375
0.14658584627638573388
-0.024539664328760304758
-0.005340852377110292774
-0.074446426376280703563
-0.049976605464478823623
0.05997772641211631127
0.059356974586345041005
0.14452720289798518627
-0.0043065580518494400314
-0.097986784287233984397
0.081565406619420672123
0.16453979440433024968
-0.045681182529717823773
0.1516149203525716512
-0.015287132100839034427
-0.070665106115131911842
0.058241776116547289125
0.035918453314713533276
0.29888217896643176532
0.049561391605117668927
-0.0049914877191674646419
0.17929402346167415878
-0.10335220869624819712
-0.01278814748491913759
-0.15004592573999347211
-0.13786865128233685735
0.076063887421206780232
-0.026459440014422295741
0.18503138614961261851
0.0966246499711614265
-0.10486736252905958449
0.03417122128700733617
0.18756551535767517695
-0.03647993851197861816
0.17419745354299640828
-0.0021170569142586907069
-0.051473989977105505548
0.042683232101464135017
0.066684967170712487469
0.33764630228271949296
0.052905056117570288738
0.0400074661626762142
0.26564256022610359986
-0.097343091045490135684
-0.027798039200957391397
-0.13269117151623973301
-0.17654209670288870563
0.074241873627540165234
0.019345603233024105727
0.1613881169263360732
0.085572190974437965108
-0.010672660308705304343
0.15000527593539255632
0.22350253842267241184
0.064412073329927545903
0.25078733581592302878
0.042959339508754548236
-0.031738017717555109952
-0.038741490957371418736
0.11116299551985052804
0.40086322743653988928
-0.0045729889776601156279
0.050893548792149374332
0.27226098173698835996
-0.16730625565547506135
0.018473824870531520925
-0.18805368361125727157
-0.07674479942419858276
0.07592346227728188489
0.021887474135545677532
0.03424575382002272241
0.13541613823770320426
0.064123140058450175182
0.14928562805735437526
0.29850742745279062164
0.10650224161071432247
0.28269585076158211263
0.21987505055920235597
-0.0029953187786078024862
0.0014463311542831299626
0.18911139754830490123
0.54092831456985926165
-0.023086517412688105258
0.14388906909263544179
0.25252060366810626023
-0.19081200412047678554
-0.060879589393010310781
-0.20715456049407866804
0.015368429253621425773
0
0.085890458667817569784
0.021600129773270478269
0.16415021457019407413
0.075456332125127891301
0.13358358271288874356
0.1683912685383057799
0.14256452079882848002
0.3406328926404588987
0.23949141559480827558
-0.10181643549287324973
0.0078454388161593443421
0.22373363868746971373
0.43777938315571455246
-0.0095307456467222290372
0.19212766417009138275
0.45454762450732128022
-0.18547159371645916803
-0.1083450818094491801
-0.16375752874457530955
-0.060632011341730426748
0
-0.08119692485607703266
0.13911293457998656478
0.2135556259381125912
-0.0012746580451431623417
0.13402090445729539456
0.13692587529657366651
0.048758677609287523893
0.34775766656836213552
0.23312978161621616136
-0.16501363269960490691
0.083677353969511015236
0.2140171537440591096
0.40087565396042985319
-0.063221416380300427515
0.26804247835295118803
0.37072918441198392139
-0.11678790479841034078
-0.11004753730678608022
-0.11318089811283127108
-0.050644070530680210254
0
-0.054116788138212082255
0.15411120433803477194
-0.038918929857574457822
0.00056195715663098138048
0.094497349842611361771
0.063902466929778839924
-0.076447109925291815073
0.19913547474020372513
0.19176348760565043785
-0.21185813711707028163
-0.093008171351582548317
0.2350803282510260143
0.24814740869029431006
0.0063577072353785014157
0.24298999577142234088
0.38046404210922769799
-0.078237852377855532117
-0.054071559339432601241
-0.079059191045930988546
0.059913086343523172236
0
0.077494109073897064221
0.23356083795291235302
-0.031579209880965548055
-0.025433884063831449773
0.045940518327748578712
-0.12163177691616090518
0.04862812523898808878
0.150433500746163405
0.096852638553820947487
-0.035940200358653788137
-0.021956715264606395149
0.22011278639765721591
-0.035553848417676050444
-0.0034987518365985880325
0.18021692817111491897
0.36691170111897649874
-0.11764764916702220848
-0.14296892890253932598
-0.028122300968828146758
0.017548041612430816863
0
0.040272213783090076857
0.16871803655992045341
-0.17060117849881148399
0.036501411714527956454
-0.053455905123981686085
-0.05643694269340110916
0.010262438330874160753
0.039390440351058667184
0.074836709704999408506
0.11023089742686205653
-0.092700922453729310105
0.23383391589360885273
0.069746221487969825465
-0.015733932821458084146
0.19371390466139674971
0.26429073213073281116
0.0029339890908006364359
-0.16299801930078679605
0.042378141970621316143
0.02785517139233217539
0
-0.036703329273450063616
0.076640215470926625839
-0.20410427879754886348
0.071000052990450418397
-0.19511963970522578005
-0.009680215358567397691
0.040995450576542320898
0.064065288252161069978
0.062632798147475950144
0.12027309306478573995
-0.092570916344234464004
0.041930013987036838277
0.11716278170545935974
-0.10337324747716291325
0.042608132924821451026
0.23471364644766323887
0.03652422825972709267
-0.11000336758162847542
-0.041660030505607902267
0.0038904738991777591605
0
-0.001569585806717246085
0.10837819862216690271
-0.22105786348092621395
0.089570972665593934552
-0.20504254619328161094
-0.019307506740206533343
-0.025036283151145188532
-0.044408523743765161482
0.046708345733229251069
0.23247969746095727307
-0.030796903687651900152
0.060793138360917876372
0.060770186919784264913
-0.073564017479541204915
-0.010511704356166218328
0.30163663384062032002
-0.10285433872619762126
0.017619252622318415198
-0.11587096216918791912
-0.052422739792315400813
0
