0.11600319
0.063802928
-0.13787024
0.32190138
0.062839918
-0.16698465
-0.10100102
0.0025049506
-0.083711825
-0.14310685
0.13478994
-0.018258652
0.19816358
0.2547558
0.33024994
0.44167095
-0.43782666
-0.13232955
0.099850513
-0.14957553
-0.14307556
-0.027584704
-0.19722353
-0.41205242
-0.28410318
0.077042788
-0.33251187
-0.14940348
-0.39950401
-0.17941283
0.068450764
-0.12393911
-0.059023675
-0.13136272
-0.0011384041
-0.24193157
-0.13177285
0.12346723
-0.20474535
-0.19792156
-0.41269532
-0.44866371
-0.099435769
0.049746055
0.026165387
0.030884016
0.064449348
-0.020754889
0.22698972
0.027077517
-0.32603988
0.074760944
-0.09048517
0.23991998
-0.2391419
0.1388108
-0.079917327
0.15410735
0.019742556
0.22825433
0.080058776
-0.11516666
-0.17000845
-0.21958165
-0.019204153
-0.32529393
-0.31613109
-0.14309327
0.24431886
-0.56484306
-0.1408138
-0.070556238
-0.15322156
-0.33120182
0.011420876
-0.062553108
-0.1946594
-0.23912719
-0.2045799
-0.083029591
-0.13843584
0.08234337
-0.047038801
0.074523799
0.28039101
-0.14948209
-0.023480264
-0.16611892
0.012319315
0.10570631
0.31874213
0.079301797
-0.1450482
-0.1023171
0.32768762
0.017569892
0.31264162
0.1842608
-0.035160888
0.03933458
-0.1663235
-0.038819186
-0.26217452
-0.39037606
-0.10796933
0.077192038
-0.40952203
0.030281104
-0.23879626
-0.15685575
-0.1024439
-0.24063265
-0.12097827
0.068820506
0.11193267
-0.043383978
-0.22395222
-0.23018317
-0.31113744
-0.060184013
-0.16469178
-0.10517704
-0.22764023
-0.19078417
-0.19641124
-0.080821231
-0.0053597586
0.027466638
0.18685789
0.0028689164
-0.33443454
-0.11257163
-0.42127913
0.11342839
-0.33838144
-0.060051277
-0.16687326
-0.062390003
0.23898759
0.2164464
0.073796988
-0.034351114
-0.23324586
-0.11806121
-0.28181347
-0.11384961
0.12154779
-0.37078494
-0.0034378266
-0.31113923
0.0028782384
-0.1377645
-0.41600907
-0.10337044
-0.24126226
0.22707312
-0.24418852
-0.23790488
0.06232873
-0.05755851
-0.35983923
-0.22341616
-0.47339845
0.14731972
-0.6411137
-0.12439033
-0.041164286
0.22240588
0.1343911
0.28667811
-0.49194703
-0.42078957
-0.086369693
-0.28742653
0.3005372
-0.17960465
-0.098339446
-0.45832807
0.18921715
0.61496586
0.32165474
0.070363231
0.48601329
0.12739959
-0.17992544
-0.1619986
-0.10209062
0.048927598
-0.18445539
-0.32291043
-0.094923779
-0.16822444
-0.37972781
-0.10715975
-0.35770032
-0.14928754
-0.40777263
-0.56848228
-0.0090879975
0.020286361
0.099923618
-0.15761259
-0.027089668
-0.37102672
0.46524841
-0.059077378
0.12124655
0.36063614
0.49254954
-0.10231535
0.27533489
0.081619255
0.18887654
-0.0584439
-0.084281586
0.25733563
0.15711838
0.2553052
-0.059823703
0.26768023
0.62644494
0.21020389
-0.14834374
0.20379359
-0.5981375
-0.23478591
-0.17703062
-0.083199233
0.0078259455
0.066046976
-0.15166752
0.068397596
-0.11936735
-0.54065692
-0.12327249
-0.03629151
0.11153644
-0.30678231
-0.42071235
0.16180412
-0.15677124
0.038174242
-0.72836894
-0.22542031
-0.22479913
-0.18205743
0.42708927
0.36406729
0.55382961
0.54121619
-0.42458642
-0.0099594854
0.72665155
-0.023085108
0.062663645
-0.45661655
0.041665446
-0.47307074
0.15696442
-0.53258568
0.43174192
0.84588069
0.068351723
0.054852795
0.35987201
0.45761627
-0.02376949
0.033397548
-0.20928857
0.21142507
-0.054638747
0.024199836
0.16931471
0.2005599
0.15758955
-0.79474646
-0.435619
-0.13703735
-0.62396967
-0.31588465
0.60924518
-0.18945415
0.10282551
-0.0011688382
-0.087887257
-0.16312464
-1.7009706
1.0214403
-0.9519161
-0.74408162
-0.73929679
0.012273934
0.35180834
-0.13602039
-0.1828645
0.00031809325
0.010557994
-0.52988058
-1.2687229
0.25240156
0.30029583
-0.020441126
-1.3846836
-0.22079295
-0.030588495
-0.77871674
-0.2845552
0.12656148
-0.03070803
-0.48321825
-0.070432708
-0.39885634
0.14755157
0.092504635
-0.51293939
0.059891451
-0.096529722
-0.093244813
-0.33856744
-0.19687697
0.070330307
0.011856563
-0.27496636
-0.4634971
-0.49721766
-0.09514536
-0.15290572
0.027777776
0.71321797
0.53643268
-0.049463809
-0.15357929
-0.063246898
0.46487734
0.12344381
-0.08209946
-0.25391626
0.56969231
-0.045895927
-0.55422139
0.54717374
-0.095382348
-0.56037974
-0.58390594
-0.37040305
0.048641022
0.40726781
0.047360636
-0.099530466
0.036870483
-0.32545242
-0.063340172
-0.54494685
0.07306169
0.1066152
-0.31995732
-0.039891146
-0.063234054
-0.15884416
0.26447138
-0.17170043
-0.34522435
-0.43623933
-0.37294504
-0.33568501
0.074713863
-0.24754258
0.015994694
-0.25872895
1.6397331
1.333904
1.7960794
1.3176966
-0.60457361
1.2327907
1.449906
-0.39881667
0.010749548
1.167135
0.80707031
1.1369451
0.36390248
-0.14459714
-1.3927783
-0.14746624
0.41313735
0.40557945
0.54373699
-0.18157738
0.13183166
0.32086772
0.00071506976
0.058172625
0.14987187
0.12280901
0.030946646
-0.37143743
-0.2580162
-0.0046705543
0.093198963
0.24623124
0.0047972221
-0.25989017
-2.9724147
-0.088211767
0.19244553
-0.40105742
-0.025995841
0.048163034
-0.31804791
2.1825414
0.13610666
0.65659714
-0.81011617
0.091012046
0.32370415
0.056032181
-0.91337377
0.34629279
0.24280594
0.084102713
0.56994963
0.20710276
-0.3342447
-1.7994058
-0.84040445
-0.246254
0.16523147
0.40239558
-1.071188
0.32259458
0.36398903
0.14062485
-0.084797844
-0.11498163
0.34402019
0.25549462
-0.76197112
-0.10417529
-0.093299508
-0.1517898
0.41706273
0.052848097
0.018710854
-3.496408
-0.2343695
0.12075438
0.15167518
-0.029282127
-0.016181285
-0.30966228
1.0978472
-0.80157965
-0.63165289
-0.71264094
0.16673465
-0.6104418
-0.72142518
-0.22398876
0.13282377
-0.051769178
0.45512423
-0.66722339
0.76280272
-0.14585927
-0.47385675
-0.19789588
0.27263492
-0.036951222
-0.25169736
-0.84793884
0.50675005
0.06410639
-0.28568494
-1.229347
-0.10727713
0.082275055
-0.5632807
0.088758521
0.34869456
0.31595528
0.30450094
-0.67963284
0.22931162
0.28851095
-2.3851993
-0.13561496
-0.51083529
0.37909546
0.35542324
0.17347927
-0.44254106
0.70702034
0.52227616
0.27126196
-0.29729706
0.19071858
0.6780768
0.16739257
0.42430535
0.0073002437
0.062678479
0.54734218
0.059451427
0.71177477
-0.39592454
-0.54894364
-0.55806905
-0.62959987
0.21251738
-0.15155157
-0.84980953
0.0080384649
0.098271064
-0.2768991
-0.16662361
-0.39301285
0.10463988
-0.14775527
-0.23157321
-0.14071545
0.16520111
0.027993431
0.035119206
0.066131681
0.0044591478
-0.53609979
-0.16111478
-0.18822587
-0.48949587
-0.15260521
-0.036230132
-0.78722006
0.8512705
0.63294393
0.96520364
-0.075674869
0.072462857
0.26992479
0.99778146
0.16821346
-0.033862162
0.39969057
0.5078249
0.55883926
0.20709267
-0.19143769
-0.75052524
-0.0095032658
0.21526816
0.3480776
0.22023743
-0.7254861
0.067197815
-0.050675079
-0.21337646
-0.030840861
-0.35705292
0.1288594
-0.0045403624
-0.027851762
-0.13008416
-0.049105141
-0.13552934
0.23170406
-0.21390606
-0.13187678
-0.4671317
-0.062114086
0.059607346
-0.27798006
-0.1803855
-0.15562315
-1.3825551
0.43776169
-0.24914685
0.40487653
-0.31653807
0.26526171
-0.11357481
0.22151262
-0.070012979
0.28517801
0.17523631
0.1929311
-0.009433127
0.12442599
-0.10534438
-0.27576184
-0.66962177
0.37536845
0.071859881
0.1926793
-0.50424039
-0.0086063668
-0.074197203
0.1057769
-0.24669567
-0.32915965
0.14642639
-0.045407657
-0.19841085
-0.2429662
-0.081516795
-0.20426098
-0.13047478
0.092251055
-0.14115433
-0.18727584
-0.16782387
-0.074849345
-0.21848732
-0.21453002
0.12320592
-1.2204494
-0.50075918
0.45637617
0.21597187
0.55940568
0.56539017
-0.38425088
0.23388156
0.020828318
0.17097026
0.072903924
-0.16427197
-0.076618128
-0.29725495
0.21762304
-0.38327417
-0.32493004
-0.22743563
-0.14874515
-0.17387325
0.16250844
-0.63254267
0.0039915117
-0.180632
-0.60293692
-0.37241411
-0.25685227
-0.22956835
0.065465413
0.019593736
0.11372317
-0.11223257
-0.1002583
0.0069029285
-0.010395521
0.103477
-0.091504976
0.2296022
-0.2132836
-0.074536666
0.23328708
-0.010767814
-0.54780817
0.41312963
-0.056193978
-0.12677532
-0.013601488
-0.51111263
0.095546894
0.33841431
0.40978009
-0.28022501
-0.29949218
-0.72897917
0.15223534
0.13171041
-0.15909666
-0.12793577
0.17771114
0.13724546
-0.033659596
0.19874169
-0.08807119
-0.26298702
-0.14915042
0.11259735
-0.38831604
-0.063290425
-0.025027085
-0.087306544
-0.27275315
-0.25925595
0.15638542
-0.037098989
0.41833651
-0.026348032
-0.13969249
-0.15219499
-0.021480454
-0.47614983
-0.022625959
-0.10305709
-0.085626438
0.15884385
0.17187656
-0.34672001
0.075373791
0.11106184
0.17176831
0.003926714
0.34859008
0.1957619
-0.32520366
0.38685304
0.62488961
-0.27615744
-0.11986831
0.15575312
-0.46786684
0.048436262
-0.34850138
-0.098442726
0.54542392
-0.038703155
-0.25472137
-0.14866674
-0.21579525
0.11902013
-0.1175739
-0.24752095
-0.25904146
0.11388518
-0.059017155
0.073844977
-0.20305751
0.12068789
-0.11522099
-0.39855379
-0.39359766
-0.17075489
0.19147786
-0.17593187
-0.059520777
-0.047652505
-0.011169392
-0.063878134
-0.14743672
0.69451189
0.11179187
-0.16122444
-0.17925917
0.083137348
0.36108375
0.58184242
-0.25508448
-0.1464944
0.23179145
0.048330694
0.41765052
0.6459021
-0.59730411
0.028108068
-0.059020221
0.72848874
-0.17972949
-0.18543209
0.25380963
0.041562181
0.19801116
0.14021195
0.18690214
0.012870907
-0.3894105
-0.03965494
-0.30764592
0.0492418
-0.11233766
-0.15735804
-0.36497602
-0.12618159
-0.17260249
-0.30662477
-0.22565167
-0.37361267
-0.042613138
-0.53115416
0.084658816
-0.52962267
0.95929533
-0.18256153
-0.075105488
0.082142778
0.82581145
0.26409385
0.14674325
-0.30043641
-0.40679264
-0.42713833
-0.26092303
-0.95584774
0.53676677
0.33959281
0.50519246
-0.42829034
0.67679733
-0.2480448
-0.19516666
-0.16803116
-0.048236374
0.029608043
-0.31647781
-0.22073348
0.16135453
0.045081288
-0.0283853
0.1214586
-0.13293663
0.33157304
-0.016448708
-0.23063925
-0.18745276
-0.21345663
-0.12787989
-0.1808528
-0.0030214065
-0.43967581
0.17322668
1.231161
0.24352799
0.036233556
0.43127763
0.76497781
1.6550767
1.5538932
0.84949422
0.1728587
-0.69677246
0.85605609
-0.16662425
0.58837849
-0.74979293
-0.24453031
0.64227509
-0.012502475
-0.0063607241
0.27724099
-0.18518411
0.13453916
0.052064899
0.10451767
0.026044196
0.029808193
0.048878234
-0.17618726
-0.22371726
0.02225239
-0.47064927
0.18845019
0.14392969
-0.052448925
-0.74270475
-0.42031717
0.0077589722
0.023804223
-0.16018665
0.067053303
-0.37161031
-1.3744642
0.3358292
-0.80443048
-0.019512754
0.15125003
-0.50920117
0.65777957
-0.45520464
-0.74264425
-0.13997479
-0.30959731
-0.44027629
-0.044029728
0.055039201
1.3046662
0.22103962
0.95905364
0.46497956
-0.016130636
0.84295529
-0.053023852
0.038836606
-0.34212855
-0.46330935
0.19298767
-0.2984989
-0.012205301
-0.10199721
-0.26196232
-0.076776586
-0.017632958
-0.33220744
0.0080926558
0.2433755
-0.076265998
-0.37140134
-0.12224367
0.43136716
-0.34792891
0.23656711
-0.28739083
-2.2677991
1.4126543
-1.4050013
0.095633104
-0.21846958
1.1826459
1.755477
-0.5860725
1.3420789
1.1645215
-0.31996319
0.82730997
0.24921252
0.14614518
-2.4742799
0.015628047
1.4487442
0.12499813
1.1323967
1.9158174
-0.10311013
0.099223264
-0.56237018
-0.067332596
-0.41082147
0.15420736
0.019416111
0.0043651438
0.10242774
-0.12156288
0.044981703
-0.24750802
-0.2201554
0.32875934
-1.095879
-0.33038333
-0.20092596
0.4287723
0.10927807
0.061085556
0.018116349
-0.58891094
0.5666461
0.49828658
0.064884797
-0.30157289
0.29819897
0.56829602
-0.14703704
0.28715676
-0.26731703
0.2800006
-0.14678192
-0.0090816887
0.0919623
1.8123412
-0.047057357
0.035824854
0.010051649
-0.0060905041
-0.54236871
-0.30821189
-0.28821954
-0.50059241
-0.17587215
0.40741053
-0.13662855
-0.050386585
-0.36937439
-0.00073783955
0.23963562
-0.017569888
-0.26879409
-0.014641888
-0.084931351
0.27296209
-0.14100929
-0.36044741
0.47901589
-0.31602144
-0.0868567
-0.37858695
0.66050059
0.56194848
-0.54831785
-0.10905741
0.17902401
0.030294947
0.050882209
0.23057422
-0.12668659
0.054654885
0.029948199
-0.45259923
0.52890849
0.0079698665
-1.0136665
-0.29706913
0.022693302
-0.13230903
0.51235718
0.60634917
0.39565855
0.041763764
-0.40502265
-0.04783918
0.30930007
-0.11924087
-0.093102477
0.023527471
-0.50866091
-0.051069416
0.1608882
-0.030208696
0.12576862
0.20319834
-0.71578336
-0.18325081
-0.10219172
-0.3164857
-0.047987726
0.076599866
-0.86581868
-0.36851731
0.3191857
0.050655957
-0.13587981
0.15154876
-0.13973722
0.10586981
0.33990687
0.29577169
-0.28171551
-0.43029284
0.17546958
-0.19398871
0.29002813
0.48963603
-0.16223562
0.41552636
0.087504476
-0.26414806
-0.57541686
-0.095894299
0.075100355
-0.36011246
-0.62237555
-0.079181895
-0.089199938
0.083714239
0.14065173
-0.17541188
-0.10438216
0.044702731
-0.025972268
-0.090446182
0.086783126
0.14000818
-0.38556826
-0.26410714
0.12129077
-0.097800359
-0.26837909
-0.047028191
0.15663704
-0.07056345
-0.31178612
0.16443416
0.16115664
-0.10197493
-0.27715251
-0.00892027
-0.092737861
-0.67261112
-0.18059562
-0.17023093
0.22039625
-0.093791775
-0.32336029
-0.17932613
0.0092652738
0.33003044
-0.23604248
0.55612093
-0.21073456
-0.011151198
-0.06674967
0.016809639
0.11288209
0.015193801
0.050212208
-0.19327161
0.1728572
0.0061077201
-0.050226036
-0.23383738
-0.29713741
0.062066972
0.11889289
-0.2621066
-0.71118516
-0.31555405
-0.23034088
-0.32751274
0.24639378
0.22302404
0.042524416
-0.047074389
-0.041386604
0.26832861
0.029888444
-0.16989312
-0.27021387
0.40779099
-0.8072136
-0.1943129
0.19357312
0.093586154
0.12444953
0.30174017
-0.69385821
0.31742835
0.19880828
-0.40955734
0.60865545
-0.37816003
0.22381322
-0.073244914
-0.16268872
0.40290284
0.0011866734
-0.339459
0.099450096
-0.22315729
0.10547223
-0.18704934
-0.20484914
0.040971767
-0.15524773
0.033927824
-0.22278209
-0.17484993
-0.32351926
0.040560998
-0.15996426
-0.40792486
0.241469
-0.39863059
-0.34372595
0.092845589
-0.069638789
0.56653911
-0.40118071
-0.015106473
0.079417512
-0.20552249
0.43928525
-0.099644504
0.10067213
-0.41552573
-0.34592706
0.10127039
-0.35831878
-0.18938853
0.19581509
0.073262766
-0.11205193
0.13080193
-0.34917408
-0.066596366
0.01904257
-0.069737405
-0.18465817
-0.25843501
-0.4917306
0.080821916
0.012805007
0.14115611
-0.38716996
0.33639795
-0.14419672
0.12513916
-0.28782853
-0.38173378
-0.23679738
-0.13668069
0.22168991
0.026235269
0.093011737
-0.17469062
0.2317529
0.29287776
-0.48767015
0.31332093
0.14266393
0.37827155
0.14108936
-0.02083349
-0.28719068
-0.31354919
-0.10048331
0.12211032
-0.18301299
0.14745641
0.11073411
0.0022368717
0.059552521
-0.18689221
0.23371515
-0.10142727
-0.27418473
-0.31875363
0.038499702
-0.15251215
-0.082263052
0.20083921
-0.21498273
0.1898502
-0.20193587
-0.23489492
0.1958569
-0.023814064
-0.37422386
-0.3952294
0.016555822
-0.12627186
-0.3565383
-0.014719433
0.29661629
0.17378624
0.19121051
-0.30201113
0.02091814
-0.39506549
0.43743092
0.011375841
0.011785523
-0.13832632
0.20555851
0.4581432
-0.24874122
0.036587343
0.37331942
-0.2915445
-0.33338875
-0.017998582
-0.57389849
0.37810606
-0.0024524275
-0.069670692
0.08249113
-0.34512034
-0.56051433
-0.012790604
-0.044162568
0.013300483
-0.13955292
-0.10400102
0.037351951
-0.32800114
-0.41258076
-0.1843311
0.091769889
-0.24611728
0.097172052
0.57187337
0.21288618
-0.50820696
0.022031363
0.18361002
0.025754875
0.63857079
-0.15683705
0.17665555
0.065176442
0.079675205
-0.30152473
0.10748769
-0.11443198
0.13638261
1.1601135
-0.24018987
0.17549747
0.25117534
-0.062719725
0.063612245
0.14615223
-0.13132261
0.46316051
0.16541144
-0.25321072
-0.0923746
0.055419616
0.2424646
-0.10047649
-0.13111308
0.25932381
0.057867557
-0.18716726
-0.18159884
-0.13223517
0.060067363
-0.31207731
-0.15578519
-0.35512257
-0.14622723
-0.1907818
0.23492952
0.0016504399
-0.54587561
-0.16282712
0.088743731
0.25328094
0.15408771
-0.440718
0.35164684
0.046729866
0.32656708
0.60273147
0.11857976
-0.1755245
0.63626564
-0.43635529
0.40669996
-0.012865716
-0.075326905
0.4235847
0.31302372
-0.50823182
0.6497376
0.074978672
-0.21564199
-0.24314804
-0.55682713
0.11894524
0.12657404
-0.2216469
-0.18915494
0.17503677
-0.16182196
-0.13087523
-0.014306301
-0.11099522
0.24246991
0.14099675
-0.29365686
0.086744629
-0.32379472
-0.032640964
-0.073999107
-0.32778925
-0.52976513
0.46541491
-0.062274292
-0.63048112
-0.1607382
0.12034742
0.7006442
1.081658
0.34510103
0.018662576
0.30923611
0.80337918
-0.4707996
0.52121162
0.14696306
-0.14217958
0.64245474
0.13946064
0.056791935
1.0711732
-0.06686873
-0.34217519
-0.34059712
-0.0050891531
0.3996301
-0.38827124
-0.22084695
0.53378165
-0.070322968
-0.066937655
-0.38622907
-0.10696839
-0.23416154
-0.46416712
0.17709689
0.010868662
0.0055619432
-0.12859283
0.13997801
-0.16593033
-0.18899773
-0.46757939
-0.022848228
0.22079825
-0.56517243
-0.0013481409
0.67918551
-0.056777805
0.42395651
0.41839269
-0.0895596
-0.7256614
0.28300825
-0.65635091
0.80300701
0.40960643
-0.59678
0.33143523
-0.38093665
0.087896585
1.0834727
-0.31265953
-0.32495481
-0.22704157
0.0074887583
0.44869131
-0.3310633
-0.38994789
0.23942371
-0.36445332
0.017131407
0.17114514
-0.2945089
0.41866186
-0.37468305
-0.040073194
-0.27231044
-0.017970843
-0.32089618
-0.10523422
0.046257861
0.1977772
-1.2894648
-0.015169423
-0.49874008
-0.99187213
0.42889595
0.48856863
0.10896008
0.17766574
0.42397073
0.58895713
-1.1439413
0.4329873
-0.42861715
0.33200598
0.71625519
-0.79611301
0.22419597
-0.090735406
0.27197585
1.3519956
0.15023506
-0.44991356
0.32238421
-0.33629939
-0.050957441
-0.066042349
-0.029806083
0.018986102
-0.1926074
-0.047606092
-0.13174146
-0.15562016
0.19734092
-0.17696768
-0.19147986
-0.31057602
-0.1029107
-0.33745548
-0.13756821
-0.22763254
0.39108565
-0.22815295
-0.18651071
-0.92897147
-1.0640064
0.42195019
0.67605424
0.10661477
-1.0300263
-0.057667457
-0.11728977
-1.7188768
-0.43238372
-1.1762378
-0.18941595
1.124473
-0.62262136
0.2376155
-0.15964721
0.1552619
2.2441244
-0.36449811
0.21869111
0.069710925
-0.089122362
-0.79522496
0.3790504
-0.096463658
-0.60019624
-0.31552076
0.17434062
-0.3600229
-0.046996281
-0.048652545
-0.0048522954
-0.45819268
-0.59074444
-0.34455311
0.02964998
-0.41040301
-0.042048737
1.7970923
-0.87425661
-1.1462728
-0.70233786
-0.19399695
0.096289203
-0.32598612
-0.31879652
-1.2445102
-0.087874718
-0.46567574
-1.5459023
-0.55514467
0.17447071
-0.57412344
2.043736
0.13718687
-0.42208356
0.019759478
-0.86176646
0.32046899
0.20847099
0.093908265
0.099138476
0.164949
-0.07579495
-0.054124799
-0.37106553
-0.48310098
0.04088033
0.21015115
-0.48658231
0.18967019
2.9281039e-06
-0.75381893
0.01913663
-0.20781927
-0.33090195
-0.17548245
0.12108626
0.067563005
0.00019573001
-0.30383807
-0.57445073
-0.2643545
-0.11136094
-0.43343002
-0.3498508
0.067628533
-0.5907535
-0.25837615
-0.31713322
-0.54580766
-0.77925956
0.057052638
0.19660135
0.87487268
-0.51244396
-0.86277384
-0.095694199
-0.17988153
-0.15025242
0.065613024
0.27560005
-0.394797
-0.41840181
0.45663175
-0.027910424
-0.11999013
-0.028464278
-0.61651647
-0.34065574
-0.63817322
-0.27836785
0.033322748
-0.20138717
-0.14717078
0.31123808
-0.31579468
-0.32016212
-0.13155146
-0.581182
1.5474671
-0.052084066
0.14831237
0.18960783
-0.032436293
-0.11603981
0.57660228
-0.34234968
0.3725692
-0.1681297
-0.62733752
-0.32074505
0.067617998
0.36572677
0.4507795
-0.93549705
-0.36693877
0.51383346
-0.13088717
-0.20555618
0.44156709
0.0057272669
-0.034200761
-0.52845657
0.0013862166
0.31011042
-0.15984458
-0.0086618215
0.30399969
-0.71233046
-0.17719656
-0.4641155
-0.14012955
-0.28025797
0.063363694
-0.22587381
0.23778702
0.094490528
-0.13070606
-0.45763847
-0.077697717
0.44569919
-0.42968464
0.47676921
-0.044454679
-0.29749471
0.062476054
0.10043021
-0.55967718
0.44736069
-0.44187805
-0.37274814
-0.21303305
-0.32043582
-0.0068980795
0.5003978
0.077313572
0.056312025
0.031639725
-0.45680693
0.21143003
0.16869673
0.034081463
0.017317906
0.048245221
-0.14124191
0.28907895
-0.23957878
-0.045989748
0.21719089
-0.10194538
-0.0015556543
-0.16276737
-0.15594892
-0.13044369
-0.21712564
-0.68120384
0.093018577
-0.17271811
-0.20875078
-0.069545411
-0.43864974
0.26608089
-0.46310633
-0.0093063796
0.42264998
0.05288903
0.1415357
0.66633058
0.071060948
0.031532783
-0.37313274
0.06944339
-0.006382165
0.036435116
-0.12760264
0.010689884
-0.4280546
-0.3156316
0.94483054
-0.16100031
0.30651924
0.23999378
-0.3835597
-0.082476683
-0.30645385
-0.28928578
0.065747842
-0.16147991
-0.045541372
-0.027218906
-0.093016021
-0.18456957
-0.056298986
-0.18647733
-0.22712576
-0.055239275
0.39630723
0.08060661
0.21274434
-0.19492821
0.19466917
-0.15038192
-0.27415702
0.086670928
-0.17109555
0.081138752
-0.035437852
-0.069466464
0.69989002
0.29735398
0.07915587
-0.041530877
-0.30016467
-0.22071485
0.16249295
-0.059373219
0.3211363
0.20287967
0.62012625
0.691769
0.012123485
0.052930042
-0.1158158
-0.46646437
-0.062447056
-0.090417698
-0.050346624
-0.20954145
-0.35972935
-0.16275696
0.15102953
-0.35489687
0.17894877
0.010853429
-0.13454075
-0.18066655
0.090668201
0.03716116
-0.090894006
0.065657102
-0.11125067
-0.26373437
0.17153729
-0.0096051954
-0.062614061
0.2519643
-0.050356578
-0.68580359
-0.10748202
0.023038095
0.10006416
0.29048622
-0.22049206
-0.42556107
0.39448932
0.027001029
0.2336572
-0.13192952
0.34692752
0.39271337
0.4032785
0.066375524
-0.20335379
-0.17139968
-0.20189242
0.021301204
-0.30252108
0.02399019
0.035982665
-0.32394651
-0.0068228403
-0.036764424
-0.074279428
0.23171933
-0.43682256
0.11878576
-0.025559708
-0.069986299
-0.13783474
0.1018362
-0.11696846
-0.24190369
-0.12419951
-0.23717153
-0.01065761
0.25009316
0.6777069
0.26651505
0.40536508
-0.5315938
0.5169242
0.09664467
0.79910976
-0.15443267
-0.26242968
0.73520344
0.19306931
0.084160641
0.083135024
0.41773319
0.30371997
0.30284345
0.45032021
-0.44695649
-0.4465405
-0.217127
-0.047438618
-0.39626762
-0.10673634
-0.43030745
-0.23365466
0.16462576
0.31483781
0.31519091
-0.42278832
-0.010562542
-0.33558738
-0.13344499
0.33101451
-0.080892041
-0.14588282
-0.053834084
-0.34368318
0.15370896
0.014391729
-0.16173157
-0.64912558
0.16835742
0.96539116
1.0271562
-0.12774783
0.62784171
-0.31535572
1.0119041
0.26226372
-0.099436581
0.34998465
1.0106463
-0.016263917
0.11204251
0.39818934
0.50654387
0.39604732
0.0399017
-0.1980961
0.53189123
-0.12575421
-0.31647471
-0.51409477
-0.3870298
-0.29865438
-0.24810553
-0.12137271
-0.073469952
-0.26047608
0.19523537
-0.094502509
-0.13441251
0.057991669
0.14618522
-0.03982053
-0.34069225
-0.28959182
-0.11466813
0.39771596
0.14881389
-0.24400772
-0.96525365
-0.31287456
0.41567725
0.10966916
0.28045526
0.51570094
-0.33028945
1.550133
0.25719044
-0.33198825
0.075585194
0.12638246
-0.040483769
0.17130624
0.051746808
0.40953767
-0.18383312
0.018416187
0.16192004
-0.031635027
-0.1666185
0.04036184
-0.15707342
-0.30518124
-0.17891227
-0.25582126
-0.18439788
-0.24857637
-0.23372559
-0.095490508
-0.073474295
0.07719861
0.036864199
-0.42654961
-0.40285268
-0.071033046
0.078602932
0.31169102
-0.050524972
0.41493401
-0.76747143
-1.9832658
0.30518734
0.46845415
0.52107733
0.45613724
0.16806747
0.10104761
1.708645
0.54061359
-0.36689934
-0.61088115
0.5320676
-0.12616102
0.024283743
-0.11463074
-0.012214887
0.66669154
-0.1713475
0.28430873
0.21285491
-0.086290084
-0.059982166
-0.13445398
-0.12509821
-0.43248445
-0.31658065
-0.17447485
-0.18565272
-0.48193687
-0.050776143
-0.099324048
-0.039345406
-0.10301122
-0.084640965
0.10803702
0.14353494
-0.23993953
0.47021434
-0.013676518
0.23949489
-1.0065988
-0.88046128
-0.3190257
-0.55393595
-0.74353617
0.56101203
0.15294681
-0.97492182
0.31547737
-0.23646255
0.5226357
-0.79588538
-0.40191618
0.014810986
0.35891208
-0.4301073
-0.61641955
-0.44211707
0.29124761
0.41151702
1.4935288
-0.10239641
-0.34683391
0.44228488
0.40724966
-0.62395185
0.066066451
0.22391553
-0.14959458
0.2483864
-0.36930627
-0.31973839
-0.13402762
-0.051113788
-0.47347015
-0.038678098
-0.17264609
0.32869402
0.092770673
-0.43371364
-0.18984565
-0.99815714
-0.86003101
0.79381812
-0.86066198
0.046331417
0.11027501
0.45392013
0.62924272
-0.60830009
0.42492992
0.59665233
-0.47349417
0.79366052
-0.36115485
0.27349862
-0.84075648
0.57990336
1.1130188
0.54024673
0.29369482
1.9922605
-0.1155605
-0.14443262
-0.067513749
0.0034895048
0.15270042
-0.1326063
-0.21987301
-0.2844353
0.26096806
0.032062098
0.039072495
0.095214568
-0.33232114
-0.14571701
-0.46544993
0.22356895
-0.14253151
-0.068756863
-0.29276621
-0.13007566
-0.81959462
1.0321522
-0.53404665
-1.6421353
-0.70191914
0.61459911
-1.2418437
-1.0506284
0.71205986
-0.1479515
1.0967937
-0.038030777
-0.87178737
0.3050276
0.81194311
-0.95758784
-0.20660307
-1.6485131
0.11075211
-0.033744134
1.8182253
0.067852311
0.26262331
-0.053305507
-0.35922548
-1.1086985
0.13531655
-0.12417971
0.085142359
-0.001804558
-0.21097693
-0.07978867
0.10921405
-0.17721964
-0.22216429
-0.59591728
-0.10172278
-0.12069375
0.071032539
0.10289602
0.047303636
-0.4459433
-0.17028071
0.16949703
-0.795322
-0.27930576
0.1518738
0.054660857
1.8542036
0.65021837
0.15060493
2.0684559
-0.26850417
0.33863351
-0.34546226
0.93771625
-3.0055795
0.91038924
0.54005545
0.24018067
0.44678488
1.3797787
0.1829554
0.11425383
0.13542241
0.13531162
-0.32784495
0.036181737
0.053189553
-0.22666101
-0.050428152
0.13379554
-0.01876154
-0.10611402
0.031204486
-0.17008612
-1.5320228
-0.38492453
-0.063163914
-0.34362966
-0.073774099
0.024512446
-0.23507799
0.43322602
-0.3846916
-0.69820583
-0.46508074
0.2243754
-0.47367981
-1.3627263
-0.42027128
-0.2660394
-0.04188709
-0.67654127
-0.11989753
-0.53967595
0.20755871
-0.53247148
-0.062213413
-1.1014913
-0.21785316
0.16708329
0.36313599
-0.0019806847
0.20417868
0.0005429369
0.20317259
-0.69731551
0.26344779
-0.11338197
-0.77021074
-0.063575841
0.010957788
-0.16107973
-0.10092612
-0.27959511
-0.54204726
-0.036177237
-0.06480749
-0.22927313
0.0039399862
-0.11043145
-0.0095170103
0.019532872
-0.34704304
0.22731416
-0.73171306
-0.15001151
0.031987906
0.24401127
0.097962759
-0.51617759
-0.15174864
0.31106797
-0.68370789
0.054487981
0.091216102
0.1005455
0.66684884
0.079692379
0.49836791
-0.29242927
0.22605684
1.4112866
0.0011776295
-0.13973927
-0.00031251292
0.16729346
-0.21504405
-0.29730102
-0.0045676031
-0.16382895
0.23515904
-0.31870303
-0.3728708
0.085319437
0.014617302
0.30981809
-0.68849409
0.11429215
-0.25623921
0.37702248
0.11892593
-0.15516528
-1.2652258
-0.64066976
0.24279495
0.19899774
-0.48312572
-0.2562367
-0.40093967
-0.14283054
-0.078015372
-0.16426033
-0.22332589
-0.28368858
-0.1706554
-0.033584811
-0.25934216
0.45014811
0.58403689
0.15846492
0.023710366
0.33155403
-0.11225192
0.3711254
-0.40335736
-0.30777538
-0.099424668
0.22323491
-0.011325536
-0.29092655
-0.070790917
-0.33267358
-0.10729775
-0.16232552
-0.26147288
-0.18240815
-0.46313605
0.1157197
0.10650788
-0.086607404
-0.27446264
-0.23710197
-0.13016656
-0.042865787
0.13623582
0.0021954963
-1.0073273
0.60245383
-0.12622543
0.46432558
-0.1388697
-0.037975717
0.10505381
-0.20597485
0.047726661
-0.16281651
0.036517635
-0.36255077
0.41046369
0.69312769
0.56803
-0.022617908
-0.062788606
0.13189742
-0.21757576
-0.075926945
-0.074818142
-0.28181112
-0.063487932
-0.3883765
-0.082807049
-0.070765622
0.077030532
-0.68709284
-0.070941992
-0.25309095
-0.0014937569
-0.011032086
0.36379164
-0.17826855
-0.36627379
0.17535479
0.14814398
-0.15043268
-0.38872218
-0.28928947
-0.043364044
-0.23627323
0.037788603
-0.18020155
-0.29235071
0.24451561
0.35765138
0.30552837
-0.33416578
0.1617032
0.056228422
-0.13131367
-0.029623808
0.61371446
0.86153549
0.13184245
0.011524073
-0.010834478
0.08743725
0.22699206
-0.180834
0.01298147
-0.12030728
0.34541509
-0.37269431
-0.2358692
-0.57121253
-0.25329506
-0.13902186
-0.0045330501
-0.47597426
0.24159664
-0.22420557
-0.10324717
-0.024057535
-0.068046451
-0.066161454
-0.28320512
-0.14890943
-0.23992626
-0.18675129
-0.10967673
-0.26493579
0.50573808
-0.052988537
0.35243094
0.36758184
0.07978373
0.28675184
-0.33898631
-0.19782767
0.58499128
0.34963521
0.400947
0.22249943
0.084922165
0.08793278
0.15978925
-0.3265121
0.24946874
-0.27956101
-0.3399376
-0.10402603
-0.22394919
-0.1816801
-0.33839428
-0.42631406
-0.047059987
-0.1255877
-0.1951416
-0.0069925771
-0.13768373
0.05393403
-0.41074523
-0.18623076
-0.025748918
0.1727244
0.2835004
0.11122753
-0.10727765
-0.12776887
0.079627171
-0.2333376
-0.1302859
-0.029453805
-0.022124514
-0.43719408
0.19282496
0.25539601
0.12410104
-0.47557285
-0.20071508
-0.15043224
0.40261236
-0.27278954
0.28940079
0.0011186958
0.16532171
0.12085298
0.0045629512
-0.40736017
-0.10414709
-0.16640009
-0.19934671
-0.23947571
-0.032463618
-0.32631239
-0.066622451
-0.22557919
-0.015490464
-0.16378778
0.055911262
-0.28375241
-0.1719497
-0.010374795
-0.28212121
-0.074928574
-0.31633627
-0.20200281
-0.10910693
-0.022859463
0.22673768
-0.0083498182
-0.061447684
-0.041218542
0.40835142
-0.17627184
-0.16856101
0.38229817
0.07764788
-0.065776452
-0.3467105
0.51758277
-0.21732499
0.26535606
0.15943262
-0.11896876
0.36490363
0.18887059
-0.059663717
-0.0068710218
0.14150526
-0.16440317
-0.059198163
0.013126967
-0.42986271
0.05297916
-0.28469253
-0.19549255
0.015860774
-0.030567417
-0.35583204
-0.10135601
-0.072255224
-0.15024629
-0.033998244
-0.067977317
0.0039349701
0.032404814
-0.25118899
-0.1772044
-0.32994676
-0.22521265
-0.4524579
-0.03435833
-0.097982354
-0.2479535
-0.38821068
-0.25066161
0.22778733
-0.1910194
0.13148373
0.2454524
-0.14136116
-0.71832925
0.087388851
-0.1194023
-0.23128735
-0.14176451
-0.078312419
0.15900935
-0.1223359
-0.46270913
-0.09323018
-0.15415186
0.15376578
0.0080020903
-0.15577833
-0.11757585
-0.19516331
0.017856469
-0.18314786
-0.22931165
-0.16813238
0.0064207646
0.0050219968
-0.086832844
0.30777514
0.058242064
0.22553599
-0.0024007722
-0.17528781
-0.016959792
0.8721174
-0.48692575
0.1177968
0.34120524
-0.63144159
0.44079998
-0.14031167
0.061996456
0.51672459
0.33912772
0.17278133
0.32746157
-0.50805122
-0.48243135
0.17734045
0.41868362
-0.2392696
0.037437461
0.061243884
0.090606071
-0.10225955
-0.0089488449
-0.16606885
-0.15940349
0.38186902
-0.03947686
-0.19039665
-0.16451877
-0.10606027
-0.18015316
-0.17962341
-0.0013916156
0.042081196
0.33377147
-0.055717174
0.31409973
-0.084200799
0.17671891
0.16878088
-0.23845331
-0.0044196676
0.1801683
-0.47896305
-0.22928675
1.1601267
-0.20197316
0.02245805
0.044185601
0.105205
0.23436917
-0.28146294
0.33740354
-0.40453723
-0.064955518
-0.40710041
-0.00030194767
0.35927302
-0.43525413
0.032701332
0.2372041
0.36802787
0.20370218
0.047300294
0.1846908
-0.057107929
0.32963213
0.31492245
0.22523768
-0.091344267
0.060803082
-0.14621295
-0.31136668
-0.31913149
0.31457564
-0.27877685
0.032926075
0.03314944
-0.15160781
-0.14727648
0.66162723
-0.43732595
-0.067207366
-0.19218518
-0.30253598
0.11019874
0.14405926
0.2438983
0.20783179
-0.8813715
0.56102479
0.32965404
-0.17891121
0.092700921
-0.14788383
0.23766819
0.06836392
0.3662928
0.97375929
-0.23615997
0.43254134
0.13993959
0.38855493
0.47695482
0.2427337
0.085745983
0.39231071
0.08104638
0.38773158
0.14427149
-0.25637776
0.024530847
-0.2575466
-0.18585785
-0.23355334
-0.19453858
0.062136237
-0.24836007
0.025358075
-0.032358125
-0.16075103
0.35493535
-0.040671881
0.0098914094
-0.096159019
-0.17865127
-0.32560077
-0.078482896
0.28401732
0.32168427
-1.5720403
-0.72542387
-0.38775823
0.41983876
0.28070092
-0.18471165
-0.25951299
-0.42881393
0.030283665
-0.027254967
0.43669465
-0.60293955
-0.046338283
-0.75329292
-0.07445021
-0.14638664
0.070673153
0.13005693
0.70053864
0.26779789
-0.28011861
-0.21850181
-0.60108662
0.033652671
-0.47789302
-0.056585267
0.18420638
-0.097217128
0.29495236
0.53157675
0.11106921
-0.15315241
-0.31459242
0.19411989
0.025856664
-0.033286672
0.48837158
0.022112172
-0.054004449
0.36601791
-0.10684595
-0.97768462
0.92810053
0.74262261
-0.038235959
0.36406934
0.88650751
0.56231934
0.32287174
0.081357278
1.2161351
0.98362899
-0.60645694
0.68464184
0.10021601
-0.54596514
0.035999272
-0.30450797
0.43987995
0.50581479
-0.44450453
0.32102397
0.18697429
-0.91661835
-0.060031667
-0.6610437
0.079063527
0.015823334
-0.097706921
-0.14350241
0.70880646
0.32501802
-0.049903601
0.3879208
-0.14704277
-0.50013202
0.33736259
2.0098579
0.44988567
-0.62612575
0.63083601
-0.55806029
-0.36983457
1.9178206
0.0044735293
0.37556058
1.4430728
0.96520293
0.54236287
0.23445575
0.11975782
0.043726623
0.63237292
-0.92146039
1.0750133
1.1850178
-0.043270379
0.33257729
-0.14889269
0.52109623
0.59055036
-0.48772797
-0.053053871
0.11096118
-0.31267369
-0.19559549
-0.85045558
-0.10749082
-0.16767266
-0.32073623
-0.98165023
1.0234152
0.64826202
0.044368271
0.1069684
-0.7396403
-0.87511998
1.8258224
0.43550026
-0.54343235
0.40394548
0.82867837
0.066034652
-0.14180866
0.54670477
0.75931185
0.12194937
-0.34524551
0.86123526
0.60801995
0.055100095
0.25708243
-0.54439378
-0.31759575
-0.88641816
0.55089432
0.38258982
0.20735526
0.099913768
-0.061434135
0.82056195
0.73675263
0.17044742
-0.14141653
0.081219479
0.31516099
-0.1980906
-1.1483492
-0.14073882
-0.24339172
-0.099197671
-0.49745727
1.8101642
0.27084506
0.14459465
-0.14215709
-0.42777857
-1.2236747
-0.010256492
-0.21448751
-0.62712628
0.42660418
-0.14643846
-0.21433996
0.0037090501
0.46692088
1.0607599
0.34620214
-0.17837264
0.48659447
0.31810004
-0.090483911
-0.1744872
-1.3210895
-0.62881494
-0.81072664
0.28658819
-0.060273472
0.15195763
0.36473972
-0.075287931
0.26878008
0.21063234
-0.47929505
0.45341066
0.15395015
0.39457327
0.086709976
-0.7885291
-0.45122576
0.32995871
-0.29455429
-0.69353461
0.25256127
0.44600531
0.17258383
-0.45198566
-0.48041269
-0.7351743
1.4348863
0.13782774
0.020764032
0.21919705
0.056538273
0.075796857
0.069167748
0.093337797
0.15051635
-0.47565895
0.30955884
0.095960557
0.46364069
-0.14787704
0.042936459
-1.1023405
0.053345863
0.3669796
0.44899476
0.17437714
0.50381589
-0.0055469489
0.052206706
0.40124342
0.42244515
0.19445114
0.42242548
0.14145501
0.17840396
-0.047830995
-0.54312992
-0.0081975069
0.19682597
-0.49612147
-0.35194311
0.31337887
0.10449208
-0.35596368
0.34603599
-0.54389071
-0.4040764
0.030942308
-0.90038097
-0.19774376
-0.049598273
-0.093714975
0.19138195
0.066356219
0.051687956
0.95619279
-0.061998583
0.78445905
-0.19388466
0.53433675
-1.2316411
0.15887009
0.67617559
0.010271032
-0.11389659
0.24527577
-0.30285549
0.86785817
0.11289718
0.0019425557
0.24074401
-0.12626827
0.54996002
-0.11814988
0.015849734
0.40800798
-0.070097081
-0.1694176
-0.10722587
0.19072865
-0.02612499
0.053948361
-0.073117644
-0.27954885
-0.34215817
0.41288334
-0.24492133
-0.24469584
-0.2230166
-0.59274822
0.016325423
0.29206616
-0.10651813
0.1160183
0.21100661
-0.34021312
0.23289701
-0.15551357
0.16397911
-0.092882648
-0.0042991107
-0.50436503
-0.13509502
-0.042793177
0.42256206
-0.061626941
0.12895477
-0.01263748
0.42810494
-0.16177796
-0.092298821
0.2807965
-0.055736151
0.55008006
-0.039567724
0.14665215
0.36247748
0.16361383
0.099838115
-0.31658545
-0.1403044
0.096040159
-0.23188865
0.0019086235
-0.17126483
-0.19748819
0.043378893
-0.033251237
-0.16869165
-0.098920256
-0.73746955
-0.68276817
-0.059591267
-0.02004613
-0.22034472
-0.15659496
0.19727314
-0.22555347
0.16706856
-0.49161068
0.1645471
-0.066224575
0.037708122
0.1593015
0.30755299
0.1583882
0.35256213
-0.29325745
0.11901298
0.61553872
0.051792834
0.22701691
0.23667866
0.20353363
0.36379287
0.090106718
0.14362125
-0.14296331
0.19958788
-0.2724908
-0.43063626
-0.27615818
-0.009670509
-0.20985463
0.2278318
-0.21048862
-0.4303202
0.35322091
-0.27035451
0.054820053
0.26028961
-0.90767163
-0.61275971
0.017316109
-0.37047729
-0.1158102
-0.44305655
-0.10002074
0.35236937
0.11949494
-0.016911654
0.19454281
0.044737779
-0.43037266
0.061908647
0.37281278
0.61013043
0.54626262
-0.096491396
0.38500941
0.51146722
0.029508444
-0.14553754
-0.4196656
0.22431238
0.37387154
0.026716253
-0.17414257
-0.23390447
0.46825761
-0.15366477
-0.17736226
0.025578652
-0.10035177
-0.18186234
0.34905297
0.16212071
-0.028094996
0.21458912
-0.34770033
-0.21446405
0.4096486
-0.49652711
-0.79224342
0.017286872
0.15160532
0.053962201
-0.58589315
-0.12877172
0.81301069
-0.0542484
0.56514883
-0.45424333
-0.19977319
-0.2609767
-0.29259011
0.21229506
0.62772363
-0.056604065
0.43107009
0.25740764
0.49527439
-0.41184846
0.085655354
0.45050427
-0.038637694
-0.19308083
0.1542298
0.091281265
-0.19076689
-0.14862072
-0.07604368
0.045334004
0.024368189
-0.36007601
0.3541756
0.057639763
0.0023396164
0.12485231
-0.37745842
-0.0090396525
-0.26922053
0.78692746
-0.56465298
0.15150884
0.28792891
0.074727073
0.052777681
0.13978022
-0.062669642
0.086155921
0.036496181
0.04872879
-0.3140406
-0.1953406
0.07188569
-0.025121098
0.24297637
0.20779519
0.24659172
0.35733888
-0.057435881
0.20008197
0.046646468
-0.12014493
-0.14487775
0.022708813
-0.209187
-0.07342229
-0.17131665
-0.34868601
0.072339088
0.0026578782
-0.033721708
-0.064442389
0.094927326
-0.017852789
-0.10238212
0.079341084
-0.061947092
-0.025196701
0.014105997
-0.29526192
0.13962048
-0.59493065
-0.062540166
0.3218039
0.35059965
0.00033349427
0.085832372
0.059773143
-0.083234712
0.18511103
-0.0067251525
-0.2025757
0.24349838
-0.062296975
-0.078026518
0.32829621
0.039332584
-0.093073532
0.19524109
0.037363801
-0.085887432
0.1036704
-0.10656708
-0.048694897
-0.11919641
0.083054155
0.10194602
-0.15209405
-0.27954614
-0.03609135
-0.10900915
-0.11215086
-0.021713106
0.0084793754
-0.20554504
-0.063204825
0.087320328
0.17809215
-0.13528642
-0.24877383
0.088742882
-0.14525831
-0.44738528
-0.13022345
0.14082623
0.13680255
0.054590154
0.14333954
0.22107354
-0.23813744
-0.072753936
0.15208878
-0.12126416
-0.22214839
-0.093946889
-0.10311694
0.14317203
-0.01689624
-0.434414
0.098601453
0.22852096
0.081708997
0.019874508
-0.025445061
-0.11122695
0.099782109
-0.26091412
0.16531973
0.27310273
-0.11429594
-0.23367332
0.02577281
-0.16837414
-0.11756588
-0.069927789
-0.14096956
-0.1382865
0.00071665563
0.074015826
-0.19252692
-0.079760358
-0.029827664
-0.22125283
-0.6078431
0.0076253349
0.4516533
0.15336904
0.037947487
0.28612193
0.055160884
-0.24003336
-0.43188649
-0.019543575
-0.07588423
-0.31545851
-0.036565505
0.18615399
0.060978655
0.028062852
-0.2743341
-0.34033838
-0.043866992
-0.29179248
-0.018409794
-0.090368122
-0.0094318688
-0.035359453
-0.30047283
-0.19555826
-0.038287085
-0.11885774
-0.25837481
0.14299972
0.29237092
-0.17402934
0.073762216
-0.10344176
-0.23460031
-0.020712273
-0.053671941
0.031854637
-0.02938614
-0.05236733
-0.11889726
0.12999032
0.31705907
-0.064876884
-0.014458867
0.024869468
0.17227244
0.17602575
-0.0051681143
-0.45665312
0.076552317
-0.40373662
-0.24680996
-0.3439247
0.11955012
0.29881468
0.133818
-0.10948571
0.12253233
0.24374063
0.22830614
0.076215364
-0.097995318
-0.075243779
0.027177712
-0.4219833
-0.022706242
0.040117279
-0.28418833
0.11801959
-0.12646309
0.099160723
-0.17210376
0.080379955
0.13809626
-0.20848723
-0.066683531
-0.075528011
0.078073263
-0.099783704
-0.013894176
-0.17465481
0.18063226
-0.090883583
0.41162848
0.37803808
-0.056427229
0.34725091
-0.21869548
0.094375879
-0.24492061
0.029009854
-0.018558649
0.13842148
-0.17477956
0.27122766
0.30259874
0.22852693
-0.0055980938
0.16363525
-0.057434812
0.087676518
0.084331505
-0.042089079
-0.077558093
0.15682949
-0.39640787
0.29360899
-0.084779404
-0.12081561
-0.097645171
-0.195457
-0.066932403
0.12104963
-0.23530123
0.095349044
-0.17358357
-0.028820856
-0.12917133
-0.070408672
-0.17419504
-0.011279406
-0.07055793
-0.41092771
-0.13256723
0.33150417
0.19346677
0.23131579
0.086983874
0.040151294
0.13062653
-0.0064164558
-0.30000818
-0.14950724
0.25398231
-0.034498531
0.061358318
-0.36244857
-0.14588799
-0.01515326
0.17740379
0.018107889
0.18624812
-0.030098511
-0.13054365
-0.26629499
-0.11072659
-0.3423959
-0.031391036
-0.019557793
-0.055186246
-0.11058322
0.11710922
-0.018292952
0.34900829
-0.040859763
0.28600454
-0.38917485
-0.11904196
0.074163966
0.18370114
-0.44664192
0.16729034
-0.26830071
-0.17663641
-0.21994379
-0.25507277
0.001087228
0.024626041
-0.70971173
-0.73719263
0.61012703
-0.42920652
0.31581146
0.40296757
-0.43816185
0.04971087
0.74440056
0.21993724
0.0015076221
0.58755553
0.34128207
-0.35829011
0.55288178
0.034396537
-0.049936574
-0.24995762
-0.39568052
-0.6043455
0.017352201
-0.52693576
0.12543902
-0.39092305
0.28357533
0.47831112
-0.32380018
0.22599439
0.12458426
-0.58399242
0.026021002
0.083346181
0.40679872
-0.05697646
0.25494763
0.0085344454
-0.04043676
0.24329029
-0.24448974
-0.45200014
0.35477003
-0.29668954
-0.10418108
0.14654812
-0.1258525
0.29861638
0.44466606
0.22981435
0.13689014
-0.013997019
0.63380128
-0.080877692
0.13103101
0.24368069
0.14699274
0.12777558
0.21257254
0.027167661
-0.067957245
-0.34513411
0.028463531
-0.049580503
-0.46760798
-0.19327934
-0.024914723
0.17875975
0.13638167
-0.10692661
0.1882131
-0.089868255
0.093270607
-0.45923057
-0.02331749
0.22226015
-0.12376051
-0.071632743
-0.14368036
0.058286007
0.18174809
-0.25130406
0.3569465
0.12412066
0.29001892
0.43248534
0.18308499
-0.087541565
0.27670857
-0.059719209
0.097749971
-0.14346714
-0.12293377
0.69042879
0.59688503
0.20608698
0.14150123
0.29993495
0.26377001
0.11862908
-0.053908594
-0.042750932
-0.055760335
-0.30189809
0.053316593
0.083860077
-0.26945877
-0.31984743
0.14241827
-0.079707451
-0.19548237
0.38006735
-0.2516686
-0.23519784
0.066249751
-0.15526579
0.075904086
0.099712737
-0.11853405
-0.24632309
0.32468957
0.19544581
-0.77133369
0.10805864
0.33847469
-0.17868726
-0.29107556
0.066196419
-0.42915949
0.9341557
0.6159395
-0.055903345
0.2981939
0.41853714
-0.078074344
-0.10676565
0.39819232
0.049661297
0.23809232
0.1975494
0.020113157
0.10154165
-0.076927446
-0.084837019
-0.1778262
-0.19047412
-0.24797182
-0.28021982
-0.32157168
0.33427668
0.25783512
0.13334084
0.39017051
-0.092430346
-1.0055915
-0.20386702
0.182327
0.29876783
0.12285611
0.0073043709
-0.40818265
0.37021047
-0.12554932
-0.77619433
-0.28550845
0.14163147
-0.067681335
-0.32471406
-0.15456671
-0.74092114
0.36260799
0.9596743
-0.36511928
0.51288009
0.68732506
-0.12200738
0.53626508
0.36336344
-0.052728239
0.13972886
0.38825533
0.094192877
-0.44164509
-0.062161207
-0.45073327
-0.12371056
0.001609248
-0.45317048
-0.083181582
-0.023190044
0.20200475
0.303785
-0.24872594
0.25535321
0.1511212
-1.0297199
0.011815867
0.50029069
0.067120507
0.19195482
0.27784407
-0.3509225
-0.19098485
0.088184386
0.1770272
0.0032284639
0.25577384
0.22310595
0.23887852
0.3017596
0.26180369
-0.36979693
0.26658401
0.47995543
0.18557483
-0.080516085
-0.12158187
0.30687007
-0.036152858
-0.063239425
0.36103329
-0.033668909
-0.058841683
0.12274341
0.058604375
-0.19162662
0.26469895
-0.30708453
-0.080322258
-0.1463958
0.015044833
-0.14012426
-0.096243203
-0.28973863
0.28227583
-0.10276435
-0.20952433
-0.1143634
-0.013793381
0.071704373
-0.13807246
0.23029722
-0.38680068
0.62439984
0.21528231
0.10900354
-0.18051834
0.23857355
0.0029419807
0.21601973
0.25496134
-0.15238027
-0.13650154
0.21603759
0.25816074
-0.06356445
0.19193377
-0.22149149
0.45141259
-0.1402946
-0.1606265
0.50405568
-0.20641945
0.11403816
-0.058252588
-0.14772479
-0.12246826
0.030784633
0.24828073
-0.066451959
0.016821612
0.047160883
-0.21062006
-0.25524855
0.20262501
0.27642995
-0.4051443
-0.36893016
0.13529034
-0.16294463
0.032901816
0.047770835
-0.10266722
-0.39690977
0.60186893
-0.013686951
0.10108922
-0.17033902
-0.17878346
0.18445648
-0.01806386
0.020547377
-0.029400976
0.33359873
0.65773731
-0.3220112
0.34726802
0.17471194
-0.4041003
0.33627045
0.25816742
-0.11606491
0.24556015
0.0085074976
0.1410511
-0.15579021
-0.37797487
-0.13507921
-0.19392018
-0.024354519
-0.13866986
0.046230484
0.054920547
0.23564176
0.29776907
-0.31968394
0.35178426
-0.037715137
-0.75082523
-0.0057251966
-0.056124706
0.017220495
0.23585556
-0.15486805
-0.25294122
-0.033255707
-0.42452678
-0.28650358
0.72975004
0.16164666
-0.30414468
0.14591938
0.29570675
-0.029953042
1.0874474
0.78762555
-0.66846132
-0.42676035
0.64641708
0.60475212
-0.68057024
0.95668232
0.15775248
-0.074590541
0.45899099
0.25517166
0.3916347
0.0080126058
0.23007651
0.56229895
0.58059704
0.068170398
-0.0080890143
0.38186377
0.30097157
0.002535278
0.14245272
-0.12805256
-0.00022250127
-0.08434552
-0.075297944
0.25612041
0.31614977
0.2534377
-0.20747949
-1.9090987
-0.012936474
-0.27895436
0.7443772
-0.055492125
1.0124141
-0.058312688
-0.72264832
0.089783803
0.12511824
0.31156799
0.80056953
0.095347449
-0.19010957
0.42323285
-0.27153563
-0.149647
0.43854868
-0.0641708
0.23088278
0.80809212
0.20173967
0.65973455
-0.11762353
0.27817601
0.55943447
-0.26695892
0.59568578
-0.38417479
0.20723136
-0.11372007
-0.13473769
0.47654864
0.068143964
0.2047364
-0.34246573
-0.3054035
0.14417423
0.34804845
-0.26909021
0.27665046
-0.82359588
-0.059192814
-0.22221656
0.19078781
0.61269271
-0.21270329
0.2425006
-0.02378805
-0.32972813
0.2597827
0.62471616
-0.81191087
0.26895753
-0.43198362
0.50546843
-0.98808438
-0.20176193
0.71817607
0.27077207
0.13236637
0.79757547
0.020971406
0.05798655
0.13556442
0.06592799
0.36165503
0.24262276
0.082383797
-0.060438789
0.27165753
0.31236798
-0.092479266
-0.17258321
0.22184817
0.2330087
0.30860269
-0.13510826
0.24938975
0.024956621
-0.23848252
0.16959082
-0.5150665
-0.018504525
-0.91051543
-0.67639327
0.14817832
0.13478987
-0.64356321
-0.41817245
-0.45644373
-0.30099121
0.030268535
-0.42949906
0.19769953
-0.32672501
0.24275763
-0.86168659
-0.35746995
0.35142046
-0.073542021
0.14659174
0.69024092
0.32805991
0.12532942
0.15130721
0.26478297
-0.027410645
0.67334294
0.38219085
-0.3957313
-0.064257577
0.22909565
0.41136083
0.10837869
-0.21898848
0.036519025
0.16404106
-0.14796835
0.068564169
-0.39525157
-0.21078977
0.16318963
-0.26632622
-0.055081256
-0.16759548
-0.40637526
0.18109819
-0.48531309
0.12207137
-0.46961105
-0.83647573
-0.07983157
0.12403532
-0.082174629
-1.0180391
0.08442796
0.76200461
0.35889867
-0.45652673
0.26324248
-0.48082307
-0.32436636
0.3843742
0.012979358
0.70172697
0.091310717
0.22034691
-0.25728649
-0.12831566
-0.12914947
-0.64603364
-0.070179783
0.51166999
0.39277357
0.55872357
-0.0032391073
0.20605779
-0.34144509
-0.073825844
0.28000879
0.19917127
-0.30365062
0.37286437
-0.15855514
0.12969035
-0.806117
-0.6162129
-0.70922595
0.10051131
0.33926785
-0.89397931
-0.70790446
-0.41452187
-0.83260828
0.18333468
-0.98088729
0.54104555
-0.060594194
0.24448822
-0.21664615
0.11186381
-0.32426941
-0.39576441
-1.1538625
0.10210398
-0.14549938
0.62925434
-0.033060409
0.15161516
-0.15825494
-0.49636787
-0.29047689
-0.56855989
0.42330804
0.34776405
0.45834321
0.090961747
0.64956832
-0.3018831
-0.18283451
0.4032428
0.64849526
0.40078068
-0.15741274
-0.75476742
0.21259457
0.17195269
-0.58644253
-0.9844467
0.38973758
0.34569037
0.25306243
0.13676041
-0.27941251
-0.86490816
-0.24279332
-0.29979956
0.096784778
-0.44426233
-0.31203789
0.69084895
1.3585427
0.012656034
0.30046776
-0.070994519
0.22118406
-0.020056358
-0.19988514
-0.63372207
1.0986025
0.40334409
0.22689962
-0.42632046
-0.25184959
0.59330511
0.37167424
0.32226977
-0.47764829
0.40474781
-0.82915688
0.044144653
0.59757596
0.74926823
0.10864093
0.70474821
-1.5940762
0.52924651
0.70745194
0.84056383
0.39771083
0.094010256
0.059684664
-0.031772308
1.1414188
0.6722253
-0.87423801
-0.11552636
-0.055515431
0.24615422
-0.42333132
-1.1173147
-0.060433682
0.31185904
0.073019132
0.6804269
1.6879193
-0.19781245
0.18905978
0.10670056
0.059240974
0.2946431
0.024307467
0.18789461
-1.3499882
-0.25931212
0.63254601
0.29503378
0.66784328
0.12268581
0.98389536
-1.1310155
-0.44095004
0.10932887
0.28226024
0.14549662
0.57120448
-0.024964185
-0.20191933
0.066388778
-0.72303492
-1.1788805
0.47619033
-0.58378148
0.23121363
0.051387433
-0.088379219
-1.1662996
0.19127978
-0.48000103
-0.34971979
-0.55875707
-0.85331661
-0.72241545
-0.61392015
0.04694692
-0.18539731
0.25452608
0.1725553
0.15827793
-0.015135187
-0.70986497
0.48289159
0.30502376
0.059971735
-0.049727842
0.30134705
0.39222696
0.58227831
0.38456625
0.54284203
0.47572049
-0.52549022
-0.086039424
0.040353697
-0.059780151
0.48024717
0.6750018
-2.1266389
1.198131
-0.10042207
-0.65295368
-0.4673349
0.0014027923
0.062279526
-0.77908587
-1.1446731
-0.41273904
-0.61538601
0.26558208
-0.43096238
0.3023904
-0.60251909
-0.8359195
-0.91769904
-0.64897954
-0.47178078
-0.39051503
-0.090102375
0.17372575
0.15178464
-0.11360206
-0.41735312
0.46380943
0.17668609
-0.2123505
-0.4156509
0.073138557
0.41220915
0.02909229
0.12738493
-0.095978938
0.4048287
-0.13178276
0.39061767
0.058734011
-0.080204867
0.042507969
0.63704681
-0.37204623
0.12982336
0.20865053
-0.50014722
0.019227289
-0.11848199
0.10004334
0.6327129
0.021042731
-0.30990615
0.63453168
-0.050177123
-0.54850698
-0.21506327
0.49769148
0.055622336
-0.053280786
1.1609645
0.24001107
0.43062222
0.36597833
-0.13118713
0.19836339
0.24698813
-0.73743057
0.19954763
0.033407673
-0.045783188
-0.030892709
0.60574538
-0.094915889
0.23814374
0.12367987
0.23594871
0.48015594
0.33674651
-0.072280578
-0.17057234
0.30973518
0.11691444
0.042543467
-0.34030619
0.50715172
-0.28393331
-0.42151207
-0.75175601
0.14449663
0.012753528
0.24068657
0.38352507
-0.38688266
0.40046236
-0.31241199
-0.20441008
-0.19150651
0.2267327
-0.39415479
-0.50220603
1.1368716
0.14794777
0.24616076
0.094349526
-0.19427845
0.052267067
-0.084860764
0.1490315
-0.11239819
0.2403255
0.33138996
-0.14810009
0.16548075
0.32549277
0.10631757
0.19532062
0.11899457
0.34481156
-0.062394708
-0.010476816
0.083222836
-0.3153742
0.31935346
-0.12134469
0.054064579
0.60375601
0.11487573
0.70656621
-0.2130657
0.42597324
0.071492463
0.75505859
0.46900162
-0.049110051
0.10286345
0.86914438
0.43769249
0.22528678
0.39427868
-0.53346771
-0.18968885
0.76809973
0.53885996
-0.14419062
0.57271737
-0.055719435
0.13415588
0.22833876
-0.29344481
0.027494678
0.07264889
0.12542783
0.10328382
0.17280932
0.38767919
0.21799351
0.094903558
0.040830124
0.26326659
-0.003709218
0.095899656
-0.089251801
0.18016571
0.20108345
0.11588353
-0.70315069
0.19266497
0.3018662
-0.049037181
-0.2509709
0.22812183
-0.24117728
-0.12705429
0.10850453
0.2420498
0.30896574
0.17022206
0.17905161
-0.18446924
-0.049098089
-0.08436539
0.067770042
0.77320772
0.38909495
0.173419
0.24946751
0.20338254
0.054153312
0.073481917
0.016234403
0.1578047
-0.14725541
0.20142636
0.44043285
-0.13853329
0.25998732
0.036608484
-0.038964186
0.45033112
0.048018266
0.010400218
0.14291333
0.059561003
0.24850023
-0.00027968871
0.27068248
-0.85846418
-0.096300021
-0.11052933
-0.28818274
-0.042573038
0.12288059
0.050143633
-0.043238856
-0.13498873
-0.38895503
-0.38778996
0.016248913
-0.32693845
-0.15667386
0.38574472
0.1145558
0.52548933
0.15155248
0.35767978
0.0078993933
0.023478551
0.28290889
0.10705572
0.09844853
0.20227832
-0.11379846
0.065116964
0.18142208
0.37981537
0.30708888
0.1251839
0.25055099
0.094789974
0.25124958
0.45575774
0.048111562
0.16572954
0.25256366
-0.2066558
-0.39472809
0.18705735
-1.3819653
-0.30489373
0.31057721
-0.1553922
-0.07838773
-0.29394555
0.46083826
0.34720755
-0.065443344
0.15185124
-0.20406099
0.1253261
-0.099174142
-0.018098783
0.24519671
0.073662862
0.031377029
0.22089767
-0.048846316
0.048712555
0.13687527
-0.09385439
-0.10496201
-0.23576944
0.15012704
-0.68835217
-0.25159618
-0.064609148
-0.053835545
-0.07537023
0.11490577
0.022906397
-0.26063016
0.0031428735
-0.24302292
0.37956014
-0.0086703366
-0.13881369
0.25264356
0.23245327
-0.066295654
-0.90177268
-0.61539763
0.10055739
-0.27720758
-0.27579916
-0.020988954
0.16437069
-0.1016726
-0.047634698
-0.01240218
0.20342901
-0.077899501
-0.10700517
-0.30632797
0.16382152
0.18358427
0.51190621
0.51231658
-0.086537741
-0.041176368
-0.17318253
-0.058666326
-0.19244365
-0.2931954
0.43971291
-0.18222547
-0.44600865
-0.41734475
0.092587687
-0.036600292
0.1635873
-0.10257214
-0.09476766
0.22257301
-0.25463608
-0.25925165
-0.15994099
-0.071280926
0.34332934
0.19585767
-0.10667261
-0.75071084
-0.40983644
0.13789685
-0.082719661
-0.54931289
-0.22060081
0.19989473
-0.10599423
0.39379436
0.24732493
-0.02845069
-0.11049487
0.13926029
0.21417443
-0.018432911
0.069177032
-0.26583001
0.61815691
-0.15521999
-0.30029038
-0.38668796
0.28916603
-0.19458888
-0.22945055
0.36780527
-0.092307918
-0.048034355
-0.063706733
-0.16766104
-0.12924986
-0.044583309
-0.25810266
0.01958736
0.13912103
-0.0088361613
-0.061675575
-0.085024931
0.11763225
-0.26432621
-0.042284336
-0.25677064
-0.9996891
-0.30630204
-0.14819755
-0.26375535
-0.14743602
0.11306345
0.46141556
0.27637717
0.58409566
-0.11071789
0.2759414
-0.19987832
0.36017609
-0.21538822
-0.38000658
-0.16440181
-0.3540633
0.34439927
0.1393524
0.30575451
0.26695383
-0.053861327
-0.11363693
-0.076832421
0.2080753
-0.12301469
0.051227354
-0.028480519
0.11424652
-0.39637142
0.064553559
-0.4779315
0.27539492
0.078356713
-0.023965485
0.2218771
-0.38337418
0.080767803
0.10936721
-0.33723992
-0.33682868
-0.9607138
0.20612636
-0.63645107
-0.10012496
0.24750833
-0.091907725
0.20600152
-0.034238569
0.0018663737
-0.068508618
0.43681794
-0.30071893
0.012640891
-0.3088578
0.053312946
-0.35789576
-0.82430834
0.15540156
0.12604013
0.58921474
0.64475024
0.069003463
-0.29319713
0.028196102
0.1015256
-0.12996356
-0.12974741
-0.38983327
-0.086626992
-0.53104651
0.18331473
0.4091402
0.027969303
-0.050861523
0.18062365
-0.37659696
-0.37564066
-0.12435557
0.35276911
-0.071699932
-0.0021627129
-0.77203029
0.77447534
-0.39060605
-0.50339383
-0.55932194
-0.1988443
0.023132529
-0.28023478
0.27952465
0.097684994
0.17027442
-0.1893273
-0.00018851311
0.40531221
0.34884387
-0.80389977
-0.84599578
-0.25172761
0.27201152
0.14279255
0.42020524
-0.0039267242
-0.39796913
0.033270959
-0.066517159
-0.47191924
-0.1870482
-0.26226467
0.11635891
0.10942937
0.024822315
-0.36506802
-0.1808231
0.11485045
0.57880038
-0.39173633
0.16473591
-0.0029447922
0.154465
-0.20531967
0.02205033
-0.80879462
0.38572559
0.62153101
-1.1356963
-0.35030812
-0.96663398
0.38427567
1.2824358
-0.34734866
-0.12732169
1.1293042
-0.12514275
0.35866883
0.28654456
0.064571604
-1.7658217
-0.842507
0.38586167
0.35485065
0.14251557
1.7944826
0.19954252
0.091495804
-0.047377959
0.037028264
-0.14198296
-0.071046777
0.04615118
-0.074775159
0.2292878
0.09051504
-0.47206405
0.43188775
-0.16262463
0.11051276
-0.4467802
-0.31872237
-0.2485195
-0.53460324
-0.43177128
0.32482299
-0.69875968
0.17593601
0.46935409
-1.269531
-0.45776135
-0.29329735
0.16578104
0.76318991
-0.601403
-0.099577941
0.77335089
0.31437957
0.5167501
-0.1095287
0.061428368
-1.5859425
0.054128788
0.076715983
-0.015711291
-0.48384324
1.2326899
0.070862234
-0.092168629
-0.52368236
-0.25474089
-0.59334701
0.0099795181
-0.28542003
0.37350741
0.14612493
-0.28621966
-0.53420699
0.29676947
-0.031048113
0.14061867
-0.056721028
-0.054276634
-0.18836835
0.062797494
-0.59363937
0.24284947
0.0015973016
0.081688769
0.019976679
0.010511173
-1.2711145
0.02996177
-0.039680049
0.50298315
-0.73932934
-0.224066
0.51716125
0.070091672
0.037097469
0.1372565
0.36472639
-1.2988753
0.2443192
0.15716186
-0.060071826
0.35005715
0.6647011
0.36117774
-0.4651807
0.051298529
-0.37675479
-0.64412266
-0.36769149
-0.032105297
-0.26808721
0.32086092
0.097815715
-0.0071818847
-0.29663888
-0.10266374
0.19249339
-0.36639321
0.2547445
0.0045214947
0.052894954
0.062854767
0.12683401
-0.71291935
-0.47300169
0.055184029
-0.050747339
-0.65046072
0.11435281
-0.5053696
-0.15143789
0.22769402
0.38225111
-0.5353061
-0.0049553877
-0.31378973
0.22593637
0.46894318
-0.42614141
0.44546238
-0.21666065
0.1173778
0.39954674
-0.14672934
0.1129753
-0.41173866
0.033044845
-0.4031297
0.0075349989
-0.50670469
-0.78733414
0.52683973
0.59358048
-0.33257684
-0.09875045
-0.85668069
0.41122687
0.15430559
0.19986199
0.069367938
-0.014359286
0.14745991
0.12340129
-0.29992175
-0.69228745
-0.77500534
0.20167202
-0.70000052
-0.1308362
-0.031739321
-0.56800389
0.50727308
0.069333173
0.15150084
0.15322763
0.016487706
-0.49844697
0.095582061
-0.099693485
-0.11411858
-0.38358241
-0.44246852
0.76616949
0.009627887
0.67725122
-0.17100695
-0.43034482
-0.16096316
0.23269157
-0.1863604
-0.31762961
0.31454694
0.33479133
0.090548061
-0.55364579
-0.25906789
-0.32468379
0.2197586
-0.23289485
0.52327317
-0.10052858
-0.12932217
0.080162264
0.064566031
-0.16661702
-0.88241112
0.83969951
0.25963077
-0.23140424
-0.19674009
0.08430209
-0.41983134
0.037041463
-1.1224054
0.097975671
0.28440958
0.4342362
-0.56379366
-0.16101721
-0.28360283
-0.84132868
0.72573316
0.27995759
0.26098984
-0.02356153
0.057340525
0.31266168
-0.25247794
-0.45969161
-0.10061537
-0.37546989
-0.21365969
0.029932642
-0.88101423
-0.088979341
0.028906511
0.19868232
-0.15570475
-0.23789459
-0.12104138
0.80293304
-0.17674555
-0.075630784
0.28326994
0.035301
-0.18274909
-0.57398438
0.19019112
-0.10845842
-0.64283764
-0.13316035
0.21683903
-0.19556497
-0.26913449
-0.068796828
0.043864604
-0.4410035
-0.019937009
-0.50042009
0.72972071
0.40192011
0.091675572
0.73143476
-0.21629585
0.21936831
-0.29183272
-0.34173405
-0.12882665
-0.31440493
0.063740343
-0.094898567
0.022327311
-0.27362826
-0.32673728
-0.10770311
-0.32047853
0.1846562
0.12515675
0.067934699
-0.16870698
-0.033716522
0.37313133
-0.18652289
-0.077955328
-0.32671174
0.1648974
-0.022472607
-0.6052202
0.42342019
-0.15586865
0.0045379787
-0.123821
-0.16620876
0.062510677
0.061227202
-0.19361456
-0.51192415
-0.63406271
-0.23774242
0.37673751
-0.14819133
0.38360518
-0.079272904
-0.12754451
-0.40006682
-0.26416501
-0.17611915
0.39555374
-0.36237648
0.12018213
0.20318609
-0.27441418
-0.33041981
-0.16750388
0.16434902
-0.071276732
0.068880282
-0.19452055
-0.030073959
-0.36617857
-0.0040311366
-0.008791103
0.25841075
0.13412796
0.0436804
-0.30934364
-0.10792053
0.043966677
-0.7461648
0.18875642
0.07618659
-0.49044782
0.45789355
0.010053703
0.11024305
-0.12597892
0.053169899
0.031844366
-0.51032627
0.66565204
0.4210217
0.10799858
-0.30925059
-0.26747656
0.34821278
-0.10862953
0.008398707
-0.16066124
-0.18061516
0.2936089
-0.22047751
-0.45482203
0.24009724
-0.078141309
0.24778977
-0.016982326
-0.32512385
-0.30275604
-0.049023427
0.36668304
-0.050762914
-0.19748196
0.2683883
-0.06688679
0.13442455
-0.019495912
-0.12027156
-0.46398777
0.029223334
-1.3670971
0.14302778
-0.1545088
-0.35213849
-0.19856618
0.12451566
0.36666739
-0.052949406
-0.12929647
0.15565675
-0.19196028
0.026934998
-0.44466659
0.01547058
-0.18820156
0.09830492
0.61440462
-0.0039769225
0.11394651
0.27462646
0.37551031
-0.27226141
-0.035582408
0.28991443
-0.25146896
-0.27644181
0.082296163
-0.074056014
-0.15318927
-0.57211673
-0.013118518
0.24211119
-0.25741276
-0.30233181
0.10363489
-0.065828465
-0.43197843
-0.061166208
0.22214322
-0.058351092
-0.093969226
-1.0282072
0.29200906
-0.18477131
0.088229433
0.037333213
0.10442778
0.42404896
0.017914627
-0.027945491
-0.16734682
-0.12574282
-0.50547868
-0.12134098
0.15398687
-0.25723088
0.02848441
0.52675259
0.10192499
0.10055494
0.080863498
0.30312216
-0.16253865
-0.013522385
0.029114364
-0.212827
0.010686893
0.0095759081
-0.11441415
-0.2597627
-0.42509499
0.047312789
0.018798469
-0.061142195
-0.22529605
0.30185634
-0.40408787
-0.73203558
-0.19772138
0.17170882
0.089304797
-0.19008432
-0.6092065
-0.35736492
-0.37314916
0.13462004
-0.28011116
0.17514241
0.82642758
0.32358846
0.2713207
-0.55453676
-0.012972521
0.12630004
0.13753574
-0.28740364
-0.26819474
-0.07055334
0.65402347
0.5181421
0.23401605
0.07906954
-0.1844603
0.19116284
-0.050117072
0.2049157
-0.19802409
-0.84955555
-0.35371682
-0.37328064
-0.12995453
-0.17252865
-0.048864659
0.063338444
0.034209572
0.050458021
0.035013542
-0.23042293
-0.26425183
-0.28855243
-0.068705179
0.34544531
-0.20218684
-0.5535472
-0.0011804578
0.087496676
0.27272019
-0.32677138
-0.21879171
0.29889292
-0.33319718
-0.36054593
-0.26824719
0.27526712
-0.035946317
-0.6724965
0.02539688
-0.24338944
-0.053714551
0.80265647
0.14171645
0.23344241
-0.03258723
-0.40389171
0.11102144
-0.56313044
0.17268899
-0.016254866
-0.3784743
-0.3610867
-0.55388731
-0.090736046
0.051159788
0.14195451
0.16579197
-0.034911819
-0.016796442
-0.29728815
-0.38445717
-0.044427626
-0.4008038
0.23400994
0.28183123
-0.18845946
-0.71080613
0.0051011685
0.22567371
0.077016279
-0.4669379
0.17498314
0.30286425
-0.43144929
-0.31766459
0.21261533
0.20201373
0.073525101
-0.54586011
0.11648286
-0.074951753
-0.53671664
0.22992636
0.30171162
-0.38449258
-0.077448979
-0.59022021
-0.12203879
-0.050490897
-0.45003709
-0.10158065
0.16558833
-0.064606369
-0.44082469
-0.38346285
0.029038981
-0.080528095
0.034379158
-0.20206961
0.10836349
-0.14814119
0.081950307
0.055230603
-0.47717038
0.1111253
-0.17254649
-0.079596877
-0.70203471
0.31373233
-0.41002738
-0.034298651
-0.31442755
0.29819018
0.66849864
-0.15544593
-0.2262907
0.25289178
0.14615686
-0.086869195
0.38796744
0.19768502
0.078798294
-0.33184788
-0.17399694
-0.028821908
-0.018469458
0.32103083
-0.011787458
-0.13783891
0.064253792
-0.1163999
-0.001342191
0.27948293
0.15810187
-0.13973285
-0.074550524
-0.084130086
-0.13511321
-0.28923672
-0.2961646
-0.47562528
-0.37108952
0.054618496
-0.14356863
-0.14281788
-0.20043087
-0.036415059
-0.050186012
-0.71695364
1.5499145
-0.56765169
-0.49863568
-0.15813322
-0.16772515
0.23496677
-0.29215682
0.28058767
0.23612429
0.33005825
0.076576762
-0.38303459
0.58641386
0.10522956
-0.87398189
-0.48789838
-0.17238842
0.19593282
0.47623131
0.60678214
-0.35032177
-0.30908298
0.2226381
0.23014295
-0.79253989
-0.049516518
-0.10236041
0.23046133
0.031836778
-0.26416832
-0.077281371
-0.21002078
-0.25916329
-0.18737559
0.34414893
-0.25770634
-0.48198307
0.26137257
-0.047773737
-0.38585147
-0.67489028
0.92968881
-0.11284544
1.1795571
-0.13272023
0.0067502083
0.031432528
-0.92642778
-0.61538374
0.026329787
0.29764012
-0.086357027
-1.1055501
0.25012198
-0.24964201
-1.304014
0.023580169
-1.0022528
0.30906138
0.46766555
0.087031454
-0.26418975
0.10991525
0.33656743
0.62732536
-0.52359825
0.016455347
-0.90825832
0.31349829
0.36431015
-0.30273992
-0.0098035
-0.281059
0.14847888
-0.076847993
-0.91888118
-0.30096903
-0.39475089
-0.38038224
0.09533193
-0.58972991
0.0049041994
-0.37675175
0.46028954
0.20726855
0.92635417
0.080716841
0.098704688
0.13778812
-1.7838167
0.45100579
0.77246761
1.057688
-0.054454233
-0.2242167
-0.26182795
-1.344018
-0.46072033
0.13628498
0.53813386
-0.13585578
-0.025391551
-0.17637713
0.011373709
0.11004113
0.80089676
-0.21719858
0.094477616
-0.19563724
-0.72866297
0.30787453
0.024413271
-0.27458337
0.082425281
-0.043715816
-0.36071825
-1.0408392
-0.066563033
-0.12081937
-0.055685375
-0.15217054
-0.318737
-0.62188798
1.4456426
0.19335139
-0.24568063
-0.3994143
-0.055700582
0.72189832
-0.04559673
-0.99562174
0.013707894
0.61636794
0.62144798
0.15354078
0.15030377
-0.58270347
-1.4521697
0.46215731
-0.41364124
-0.077762544
-0.30530185
-0.50446445
0.047077741
0.10827872
-0.0055892426
0.36152059
-0.80170792
-0.013008595
-0.015717361
-0.63866025
0.073679961
-0.10280519
-0.41392249
0.37188396
-0.11993734
-0.48252332
-0.24633899
-0.154723
-0.050527565
0.0041388571
-0.028776957
-0.34617141
-0.51149267
0.44647071
-0.39816511
0.35782024
-0.19356842
0.37072968
0.3601751
0.3428942
-0.40676948
-0.18592653
-0.10900265
0.70131576
0.052728437
0.23156242
-0.21292132
-2.4693868
0.95504546
0.61673248
-0.063758299
0.054476634
-0.73583984
0.097234286
0.26462597
0.24001043
-0.0090799881
-0.59308439
0.070551723
-0.072526582
0.21543688
0.082377344
0.10181738
-0.12909058
-0.3692503
-0.20209624
-0.11248921
-1.7917176
0.009170685
-0.17956071
-0.01598347
-0.053566348
-0.097507775
-0.35702503
-0.56346142
0.097111151
0.5612238
-0.34762621
0.55460685
0.59320784
-0.005836321
0.81061763
0.0053308015
-0.39396837
-0.090753943
0.5044952
-0.052528203
0.066624083
-1.2817613
0.20359683
-0.28840217
-0.07998722
0.0067164497
0.014791799
-0.17145213
-0.16088578
-0.22846684
0.19171911
-0.13201599
-0.070993543
-0.17828867
0.41263855
-0.20657495
-0.16042356
-0.056864183
-0.38182071
-0.52529907
-0.42291808
0.087759212
-0.087693863
0.14325188
-0.26744792
-0.26122889
0.043167196
-0.45851597
-0.89573127
-0.16076206
0.023335753
-0.16433308
0.74141735
-0.26954818
-0.1796958
0.15337649
0.24520601
0.13177109
0.38811713
0.84709662
0.1403935
-0.63854223
-0.69031483
0.083819449
0.28945413
0.34636122
-0.24616526
-0.071426079
-0.40715608
0.24326141
-0.50239974
0.2971248
-0.44135469
0.19344155
0.021664754
0.056338295
0.014547883
-0.21239704
-0.050361332
0.0087826522
-0.2523658
-0.28827184
-0.061903644
-0.0039049324
-0.031644426
-0.016513223
-0.28512114
-0.24157661
-0.78868771
0.18694124
-0.26662251
-0.33006665
-0.16355444
0.50012487
0.11888892
-0.22592784
-0.0070786788
0.33568484
0.29305831
0.90579897
0.06453985
0.30730444
-0.35446379
-0.32990271
0.080826379
4.166018e-05
0.15795687
-0.27671176
-0.30771011
-0.09886165
-0.21406826
-0.1948406
0.21184509
-0.51638466
0.12796843
-0.060198214
-0.43561873
-0.22581281
-0.20598508
0.053420611
0.080687501
-0.45582137
-0.29912534
-0.19243316
-0.49897087
0.17666881
0.20892335
0.20814279
-0.041957304
-0.36499873
0.2702843
0.10072782
-0.26558712
-0.22787781
-0.17467961
0.085509703
-0.37637475
-0.013577119
0.17743346
-0.093663886
0.17578015
-0.30151492
0.2080925
0.15651429
-0.054994397
-0.13559705
0.092505693
0.094269633
-0.1462138
0.54125184
-0.085415058
0.22935759
-0.060818456
-0.12530398
-0.25933853
-0.13975315
-0.24621812
-0.20336531
0.09867768
-0.1059579
-0.07269299
-0.029985543
-0.27611837
-0.18971395
-0.19656451
-0.28029945
-0.27938765
-0.37632018
0.30182821
-0.1492781
-0.45808321
-0.06928692
-0.088949546
-0.22583659
-0.24795224
-0.011662956
0.39435169
0.024444671
-0.15205316
-0.08185339
-0.5337832
0.14998235
0.0055820816
-0.06386444
-0.078993328
-0.30309659
0.49313352
0.35501063
-0.056033116
0.32208261
0.067903943
-0.0031244359
0.015205733
0.10550919
0.19169565
-0.0063601369
-0.051928345
-0.04186796
-0.22337703
-0.05816336
-0.052971199
-0.056264836
0.083342902
-0.33484977
-0.043837488
-0.31052887
-0.16522232
-0.32329264
-0.044972375
-0.45333451
-0.19440207
0.30861652
0.16882281
0.0016341773
-0.26763228
-0.4133274
-0.10260297
0.032562546
0.3501747
0.046008449
-0.16650538
-0.44141269
0.11620659
-0.27010065
0.23980545
-0.22153564
-0.075978152
0.1570498
0.046501216
0.1408011
0.24642274
0.12141827
-0.38433331
-0.002444762
0.035176035
-0.01361542
-0.14736314
-0.36091205
-0.14417845
-0.085819341
-0.24867025
-0.071645863
-0.22086966
-0.082043916
0.31614292
-0.203685
-0.14190441
-0.091382101
-0.058409944
0.35447019
-0.099712469
-0.19161817
0.22141539
-0.28619456
-0.14388061
-0.3050161
-0.061613783
-0.084559634
0.017211216
0.27948791
-0.17753315
-0.34811029
0.14758387
-0.17557497
-0.046286453
-0.41323331
0.10153469
-0.32087308
0.11529049
0.32829168
0.41444993
-0.097590476
0.038176205
0.0084841792
-0.11160848
0.085541248
0.0004969415
-0.19344895
-0.17983525
-0.11129376
-0.16910477
-0.20778705
-0.2066552
0.2110468
-0.11295429
-0.088910244
-0.063789979
-0.20004651
-0.046931501
-0.073781759
-0.047004528
0.096832842
-0.093159541
-0.059387628
0.4910683
0.043219224
-0.15933828
-0.3128421
0.33727166
0.029196411
0.45918074
-0.31834546
0.029616905
-0.25029871
-0.039961051
-0.15659298
0.020764511
-0.096797086
0.20594795
0.34536126
-0.19862954
0.26379436
0.25658417
-0.35952166
-0.16359274
-0.12011778
0.19127005
0.13926148
-0.054532692
0.08520408
-0.18548125
-0.27086794
-0.32427371
-0.29966906
0.091797628
-0.027868247
0.048623689
-0.047670212
-0.24937311
-0.42186636
-0.35277092
0.38436276
0.084865496
-0.21978015
0.068255931
-0.23687258
0.21959157
0.12379409
0.47565874
-0.33992586
0.17927511
0.066565886
0.30638805
0.20685406
-0.26070511
0.49031445
0.28851148
-0.0272016
0.18798839
0.099186786
0.12129021
0.34789601
0.046763718
-0.21734256
-0.13433899
-0.17732406
0.027494941
-0.13637608
-0.26662555
0.19369891
-0.25453469
-0.17706099
0.04458458
-0.27310351
-0.090290561
-0.21310234
-0.2289242
0.028442733
-0.0064849523
-0.10223879
-0.11921925
0.043381959
0.023290036
-0.026621772
0.17303762
-0.22638649
0.37417132
0.11367105
0.08618582
0.56315583
-0.25739601
-0.1457701
0.081324451
0.7232523
0.49586877
0.07454928
0.41024148
0.41940647
-0.074333176
0.30488503
0.13173425
0.14739242
0.2804105
0.19200906
0.63341051
-0.3034915
-0.17597125
-0.10684909
-0.11779678
-0.044578176
0.064023174
0.088467076
-0.16303784
-0.21251798
-0.084105492
0.15640956
-0.1346492
0.0170747
-0.23497929
0.069901086
-0.37484795
-0.18371958
0.059670866
0.16383852
-0.13246618
0.078272201
-0.32781896
0.24561912
0.86443973
0.79895926
1.1933446
0.117978
0.2972478
0.029868262
1.5729693
0.2641806
0.028847707
0.42505521
0.7474519
-0.083449021
0.25658518
1.404564
0.59380066
0.62994581
0.1383097
0.22383125
-0.44959924
-0.18758067
-0.033871643
-0.33460435
-0.058438528
0.24259353
0.10262518
-0.063926123
-0.047748879
0.17377037
-0.4488878
-0.23158176
-0.084405564
-0.10385305
-0.20282137
-0.17968389
-0.071742982
-0.18568711
-0.03069783
-0.036842961
-0.27295199
0.40818647
-0.57943738
-0.064081512
0.1523522
-0.24994898
-0.095033854
0.079795033
-0.37998137
1.1944472
-0.23415925
0.20252527
-0.48377022
0.12416187
-0.032923229
0.28748581
0.015232298
-0.27600509
-0.15284593
0.34780949
0.38117856
0.41406143
-0.10368216
0.18204932
-0.33318061
-0.48367631
-0.11522391
-0.31252357
0.035965737
-0.017980296
-0.04058294
0.27424011
0.11755125
-0.40993676
0.10821667
0.060954262
-0.52498668
-0.10562269
-0.008400294
-0.050682068
0.039811414
-0.0067025316
0.021141032
0.33359829
0.10980222
0.11171987
0.095079906
0.36338684
0.19696428
-0.30781791
0.32093331
-0.023759905
0.059272557
0.02365851
-0.32848138
-0.273105
0.071256138
-1.7498837
-0.064490624
0.21367685
-0.02883091
0.045295328
0.01562159
-0.16274123
-0.28440452
-0.024521422
0.11759887
0.085474558
-0.01090936
-0.30644989
0.12820649
-0.045871183
0.085460052
-0.08367876
-0.13221435
0.33605072
-0.059501421
-0.51569235
-0.25800151
-0.14494815
-0.31677014
0.034709979
-0.178155
0.12032817
-0.023875952
-0.11725751
0.18626113
-0.30251822
0.49134254
-0.076548375
-0.70174861
0.26885819
0.082447127
-0.77906543
0.099841356
-0.76379293
0.52683395
-0.33136538
-0.26658335
0.28374016
-0.43989211
0.12599051
0.10336322
-0.53085673
0.16276218
-0.040749218
0.082737342
-0.26557654
-0.56483132
0.13919052
-0.074669302
-0.28905183
-0.28206143
0.023313563
-0.0055908267
-0.11093155
0.058702189
-0.66208619
-0.10597368
0.049190007
0.29324943
-0.062261559
0.27314579
-0.21096526
-0.12824723
-0.072462142
-0.34491158
-0.27104223
-1.3936944
0.050399996
0.010422513
-0.32860196
-0.22167337
-0.36008245
0.11658226
-0.14961022
-0.8380776
0.3180002
-0.17532039
-0.93229216
-0.17411242
-1.0416737
-0.052958876
-0.4157691
0.41126311
0.016934274
0.049810492
-0.10347187
-0.22029343
-0.27587044
0.22317901
0.09912093
-0.19963162
0.14568274
-0.11401409
-0.051945522
0.12871449
0.053804412
-0.37671852
-0.16780497
-0.3212105
0.054173194
-0.43630177
0.37478423
-0.34458277
-0.16081071
0.65682203
-0.62146884
-0.074898653
-0.52797145
0.061237965
0.077078551
-0.020257486
0.43023819
-0.79757208
0.17784664
-0.24450864
0.11994502
0.35748389
0.46614197
-1.211138
-0.61036515
-1.225955
-0.013313532
-0.18323292
0.11478144
0.13135488
0.090188794
-0.17964453
0.1327388
0.31234452
-0.21030302
0.29737809
-0.036260627
-0.18665949
-0.25683451
-0.21469472
-0.18870062
-0.40214881
-0.26101285
-0.052491184
-0.2130402
0.24202313
-0.21689205
-0.087086968
-0.085640699
-0.26625782
-0.17485525
0.18880251
0.19421874
0.33126429
0.14383297
0.68742257
0.5814085
-0.25506029
0.29236361
0.16227216
0.35095534
0.1704355
0.12683074
0.066978388
0.27208558
0.75898331
0.36217695
0.17993127
0.43321386
-0.18318789
-0.18228894
0.088342622
-0.22979639
-0.052802384
-0.41449156
-0.059349295
-0.13210081
-0.17324808
-0.19398525
0.33279294
-0.021983942
-0.06187946
-0.12054892
-0.1369693
0.23821987
-0.016131563
-0.16773601
-0.12986796
-0.14707431
0.2437451
-0.29250243
-0.061695147
-0.29927278
-0.13797174
-0.67206842
0.40031308
0.025864968
-0.76253092
-0.14939292
-0.34103408
0.15039217
0.52024585
0.0069480729
0.035567552
0.28992921
-0.11581624
-0.71497917
-0.71737623
-0.27487102
0.018720016
0.30610639
0.20963283
0.0061512017
-0.041479688
0.20597218
0.02102207
-0.12858137
-0.13224828
-0.074233711
-0.14941691
-0.17109849
-0.28121978
0.0066493372
0.063139319
-0.23471887
-0.33819795
-0.015723642
-0.10639422
0.022870803
-0.096942268
-0.022477912
-0.43101624
-0.34267744
0.6248315
0.41760015
0.57218605
-0.3713623
-0.050840452
0.74494916
0.37314251
0.088661455
0.40077499
0.12577096
0.50906539
-0.087713018
0.22446612
0.4198941
0.74315333
0.8573072
-0.0091266269
0.0061531989
0.02769834
-0.13440597
0.031424187
-0.34921604
-0.13567016
-0.042968862
0.0046950602
-0.22574373
0.17045327
-0.21198432
-0.37526324
-0.071751863
0.15073448
-0.090802982
0.023028538
-0.16596894
0.26941893
-0.073579066
0.16654664
0.067035936
-0.22456804
-0.43928117
-0.30377582
-0.17022747
0.10840788
0.00047672685
-0.041462786
-0.50776654
-0.452544
0.64277589
-0.07200551
0.43504214
-0.55430502
-0.097737297
-0.20978203
0.06733305
-0.052849479
0.45864251
0.054058041
0.25005236
-0.016707003
0.098137386
0.061106432
-0.10116655
0.031114496
-0.38116488
0.3106387
-0.35742414
-0.24477592
-0.056122653
-0.11212166
-0.018298844
-0.14900804
-0.027444554
0.16867137
-0.34911174
-0.49327481
-0.19536415
0.15555389
-0.26218998
-0.24918124
0.19963625
-0.24416246
-0.66616708
0.14780207
-0.18594617
-0.1367425
-0.43218023
-0.31946084
0.084331833
-0.059347361
-0.36720213
0.032265186
-0.044973057
0.17841248
0.30197489
-0.021267498
-0.23475465
0.24701566
0.50204688
0.052344859
0.83917856
-0.17823945
0.011011126
-0.16226454
-0.18538277
-0.24046551
-0.36471474
-0.4110873
0.29246402
0.15801248
-0.33342466
-0.063782237
-0.11737295
-0.44333896
-0.018333815
-0.025050793
-0.17309336
-0.077845111
0.061165731
-0.24887636
0.16409792
-0.097563617
-0.057360753
-0.2854884
0.35587108
-0.05373615
-0.18742768
0.088333942
0.20316583
0.01534532
0.070666343
0.67283827
0.50054073
-0.041137021
0.25223356
-0.4061625
-0.069235668
-0.33259398
0.77064419
-0.032222223
0.1189941
0.13369429
0.21555099
-0.55375487
-0.26261485
0.04655524
-0.16757944
0.22223262
-0.40194756
-0.0027669361
-0.22364669
-0.20919372
0.094864763
-0.3754445
-0.33734757
0.12301051
0.14694765
-0.099489056
-0.3189809
-0.102575
0.22902371
-0.080761507
0.2668713
-0.31589535
-0.086057521
0.32075912
0.39741626
0.2501772
-0.40373248
-0.17144148
-0.038586307
0.14030056
0.3249408
0.45848709
0.15611847
0.41457421
-0.1524163
0.21319783
0.014818084
0.25777695
0.76439708
-0.05867767
0.35986102
0.66949165
0.055827215
-0.14043893
-0.3129392
-0.13757697
-0.36066031
-0.20301132
-0.038477924
-0.46732655
-0.14092481
0.14059372
0.11829781
-0.35345542
0.015587397
-0.070944838
-0.00045886612
-0.037365198
-0.37267697
0.2613537
0.032748338
-0.093007244
-0.14514659
0.23394597
0.40169516
0.72953302
0.47172776
0.32793683
0.38721573
0.64091772
0.41171616
0.51375884
-0.34922892
-0.38137192
0.52210492
-0.14100085
-0.078957304
-0.14006549
0.22319956
0.41736022
-0.17813046
0.38290659
-0.61294401
-0.27419972
-0.24213563
-0.075189121
-0.29519877
-0.29497501
-0.3345786
-0.10921655
-0.14216407
-0.019759683
-0.29819226
0.047705673
-0.082455985
0.060660947
0.16891052
-0.053105056
-0.23844159
-0.10641032
-0.10866851
0.2823939
-0.16920106
-0.018119857
0.78695714
-0.36015815
0.32073748
0.30805904
0.25503483
-0.2444607
-0.64091998
0.99316353
-0.23018964
0.068732969
0.17729427
0.076907262
-0.0082420222
0.3374221
-0.87201983
0.0059836544
-0.066216983
-0.017910026
-0.12006709
0.44684997
-0.16235253
-0.25798157
-0.12970401
0.22429882
-0.026912469
-0.18460225
-0.27997199
-0.19241422
0.0046542846
-0.023273947
0.10188387
-0.25865108
-0.052629031
-0.072000325
-0.23486467
-0.32286632
-0.37683228
-0.097494394
0.13851887
-0.21189936
-0.028525289
0.021091836
-0.17115386
-0.29276013
-0.36277896
0.33473188
0.19550826
-0.067458563
-0.45819017
0.31641516
-0.10757489
-0.80294985
0.093023427
0.020908557
0.019083967
-0.63383365
-0.1654551
0.20056258
0.38730335
0.67748505
0.15029451
-0.014827996
-0.24986234
-0.095409103
0.2262848
-0.29901287
0.039072778
-0.38705325
-0.00025906714
-0.14948323
-0.15469092
-0.34582683
0.039489251
-0.14580552
0.020605365
0.3323518
0.024675397
-0.17203683
0.078707583
0.15481649
-0.61118001
-0.5635094
1.6145778
-0.3290157
0.090002969
-0.79628181
0.67113745
-0.5198586
-1.025131
0.56394017
-0.063680843
0.6960386
0.42307514
-0.57608968
0.42426488
0.29828683
-0.25144142
-0.27186614
-0.18149601
0.31223327
0.44637352
0.53878486
0.35868648
-0.31588605
-0.044851117
-0.65607905
0.039012976
-0.24705851
-0.54509455
0.1574757
-0.188821
0.33516613
-0.063453533
0.025396122
-0.086201906
-0.41009477
-0.83729678
0.070103414
-0.019378439
0.091808215
0.051286981
-0.046378344
-0.023120603
0.69814092
-0.48667538
-0.48520127
-1.1521716
-0.069058985
-0.58875501
0.014486845
0.30046749
-0.3828977
0.15614659
-0.16681227
-0.49461883
0.28346202
-0.017333087
-1.1892377
-0.26513404
-0.28761634
-0.26984909
0.33030003
0.23507695
-0.023592275
0.10645611
0.020073211
0.1051439
-0.071633928
-0.012174397
0.27360213
-0.039632566
-0.2674095
0.0026314098
-0.33643317
-0.21404234
-0.21106246
-0.38584533
-0.15860151
0.13059932
-0.12362707
-0.13626562
-0.062431376
-0.43483153
-0.34769064
0.64027345
-0.5398472
-0.54189652
0.041061003
-0.2324259
-0.65488684
-0.27502283
0.90044093
-0.69241303
0.64535576
0.57458895
0.010642566
-0.13414928
0.86651444
0.054687381
-0.50300395
-0.085104071
0.050169114
-0.048936643
0.71057522
0.43116522
-0.26003969
-0.19416687
-0.10992673
-0.41540259
-0.29651177
-0.057136279
0.23146653
-0.17659703
0.069422849
0.16281275
-0.20426168
0.056848045
-0.46798012
-0.4903712
-0.20856299
0.054638848
-0.18602885
-0.043412052
-0.23029004
-0.028323153
-0.13124825
0.069439426
-0.25973165
-0.041485369
0.16220859
-0.56972545
0.099382408
-0.28977263
-0.51454127
0.22116184
-0.11216096
-0.1197066
-0.083889551
0.10920054
0.30442274
0.24490476
-0.1396725
-0.079398647
0.026436966
-0.096994169
0.057025854
-0.36019707
0.20454623
-0.22572003
-0.19567904
-0.10296448
0.089975424
-0.41203892
-0.3838571
-0.0469863
0.064905152
-0.41452035
0.12041285
-0.10456517
0.0854524
-0.20806445
0.088890031
0.11059354
0.041667949
-0.21854851
-0.53238302
0.095968805
0.0073658661
0.090859041
-0.29157764
0.1231496
-0.35564911
0.1291014
0.040528003
-0.16062906
0.35820818
0.34280962
0.040588629
-0.048683647
0.3174907
0.02919914
-0.032599542
0.071184762
0.0086426809
0.10658382
0.063181266
-0.18044855
-0.28199577
-0.20780762
0.12036688
-0.49325463
-0.37224594
0.026207231
0.28009245
-0.16706911
-0.091329806
-0.022038244
-0.27837592
-0.20658749
0.095345013
0.16503501
0.12002676
-0.013898903
-0.3624388
-0.021916224
0.090702876
-0.3924934
0.0073286463
0.37368011
0.37265724
0.42130944
-0.18287216
0.59094304
-0.024614641
-0.26686156
-0.31483302
0.23876621
0.25098148
0.052311823
-0.30114183
-0.3595576
0.26049978
0.57977217
0.35762519
0.0045779631
0.14015104
-0.46174112
-0.2129713
-0.12698349
-0.0019166175
0.045070879
-0.50232095
0.029433293
-0.5531702
-0.2306425
0.14749527
-0.11755556
0.047248427
-0.33934355
-0.026199631
-0.3639296
0.033023357
-0.19273186
-0.0083608991
0.048429206
0.21454775
0.081795804
-0.29718736
-0.27634901
-0.10236388
0.2475642
0.079039097
-0.10756027
0.36105543
-0.48723638
0.10685213
0.2400008
0.10646524
0.14749965
0.25625062
-0.64168555
-0.020219794
-0.24259622
0.28230587
0.18739691
0.15871368
0.07929299
-0.053887222
-0.30724612
-0.36660525
-0.2309365
-0.19590122
-0.11308725
-0.020696742
-0.39902973
-0.061478861
-0.08401759
0.041106168
0.048717931
-0.24052264
0.070200376
-0.36328676
0.028697846
0.030753298
-0.046000972
-0.21423283
0.13643797
-0.010855744
0.038609203
-0.70682484
-0.022234052
0.19136785
-0.062438857
0.21522546
0.1288864
-0.53038824
0.075988032
0.05565165
0.15662841
-0.18394414
0.0054369252
-0.29081321
-0.21376799
0.00080724061
0.050699908
0.15650432
0.0037903255
0.031852145
-0.53690016
-0.22516531
-0.33399478
-0.17081067
-0.22113004
0.15967372
0.2680577
-0.19399935
0.038291771
0.078352727
-0.19238965
-0.26424441
-0.32561398
0.066984765
-0.50691855
-0.30214357
-0.085727349
-0.1618499
-0.10031933
0.11448945
0.053317636
-0.014934656
1.3159732
0.5280537
0.012906338
0.37583366
-0.012368592
-0.044809155
0.21334225
0.094224833
0.082303919
-0.41555557
0.57591325
-0.38809749
0.73617059
0.13335787
0.059500359
-0.11129449
0.29909167
-0.049515456
0.37022012
-0.78966588
0.10381021
0.020957436
-0.33820003
-0.015944948
-0.2876251
-0.15004939
-0.27712286
0.20374273
-0.42205405
0.024053374
-0.075139068
0.31219858
-0.35845682
-0.059936233
0.013068185
-0.068426333
-0.14473256
-0.27127472
-0.36395675
-0.10935293
-0.13003726
0.53669107
0.39465174
0.03090902
-0.21217373
0.15559542
-0.1004712
0.46734524
0.52392852
-0.10276187
-0.02583294
0.46662283
0.50471765
0.27267033
0.38474044
-0.33098313
-0.3830567
-0.43062824
-0.02123474
-0.35171694
-0.13703692
-0.3996551
-0.1909979
-0.05732445
-0.26459149
-0.78501183
-0.07536231
0.098887153
0.098902337
0.18625674
-0.08393617
0.0017792949
-0.12119129
0.13930322
0.06359423
0.65970242
0.10034472
0.06006638
-0.73279077
-0.77963161
-0.13285492
-0.11582042
0.50565439
0.29005566
0.12985978
0.31151938
0.23368712
-0.072907679
-0.16915376
-0.16187848
0.10894148
-0.18103802
0.95426452
0.34620598
0.084493399
0.28761405
0.70592159
-0.45478779
-0.47432065
-0.0065238439
-0.11010844
0.40894881
0.19500086
-0.19357365
0.055474613
-0.13440426
-0.20742801
0.072696947
-0.18623656
-0.06892103
-0.29261228
-0.12009261
-0.25360709
-0.044719931
-0.15496209
-0.081007972
0.030933477
0.074481845
-0.30729333
-0.42440122
-0.057382088
-0.22305551
-0.024262238
1.1247063
-0.047836985
-0.11703994
-0.25029644
0.056009281
0.28030056
-0.12359416
-0.80364496
-0.35495833
-0.57021898
0.59788918
0.24040785
-0.21207163
-0.2156453
0.59109271
-0.85229659
-0.067310885
0.029089699
-0.098691046
-0.20608997
-0.13522683
0.044353161
0.015752537
0.032897659
-0.12973991
-0.48374453
-0.10048826
0.12543818
0.17035905
-0.74024242
-0.35507587
0.029621297
-0.18284823
-0.33864853
0.0096797636
-0.055038743
-0.50367844
-0.0036993499
0.26608303
-0.11511875
0.13943173
0.48075223
0.49137327
0.072788276
-0.024057502
0.18472391
0.19817616
0.19880934
0.76853478
0.086299784
-0.71759742
-0.082221307
0.57188702
0.47854495
-0.29189473
0.88146746
-0.40281031
-0.0015805644
-0.29153627
0.0054384251
0.063514479
-0.13725765
-0.12929063
-0.21792391
0.008837942
-0.2209767
-0.45431042
-0.56861103
-0.04308518
0.024738831
-0.037656207
-0.041738361
0.047802649
-0.15481588
0.09535154
-0.31493425
-0.033016182
-0.1379907
0.11104774
-0.3898837
0.12325721
0.12637942
0.60701412
-0.24452397
-0.13172622
-0.13350163
0.3836996
-0.71336365
-0.92783797
-0.41202629
-0.078152388
-0.24487002
-1.0342468
-0.33346942
0.16713363
0.55932945
0.8481822
-1.3170315
-0.69372284
-0.33686352
-0.5004102
0.4352527
0.079954647
-0.083419003
0.10955419
-0.69943947
-0.41240084
-0.083417222
-0.14634788
0.12220567
-0.37991735
0.17699109
-0.071685731
-0.19514282
-0.042083245
-0.17530958
-0.018748829
0.0015209191
0.15808004
-0.63795739
-0.34564364
0.17802565
0.13676414
-0.71323216
0.27524853
0.60128438
1.3499271
0.25669456
-0.32257971
-1.9567524
-1.209643
-0.062344663
0.63104635
0.057839707
0.92861825
0.39985269
-0.33363527
1.2774659
-0.931988
0.55120522
-0.1265848
-0.44638661
-0.12242831
-0.17243026
-0.31569436
-0.16116519
-0.10902009
-0.37596083
-0.13015021
-0.56270403
-0.36244196
0.0044942703
0.25234562
0.069340296
-0.13027844
0.169985
-0.078143314
0.077482149
-0.20780468
0.073044755
0.0089918142
-0.062634766
0.53049242
-0.74225104
-0.63120419
0.53149796
-0.095858976
-0.82716292
0.36639103
-0.3302983
0.2156342
0.84381115
0.82367426
0.85691524
-0.12962998
0.18949658
0.71434814
-0.49899307
-1.0279847
0.1072701
0.48234192
-0.042183731
0.57532066
0.44343853
-0.10791741
0.1087328
0.038402699
-1.1536707
-0.24842139
0.2568762
0.19975609
-0.14904141
-0.13360649
0.37589058
0.088574573
-0.20656705
-0.10554557
0.065844268
-1.8760768
0.26045537
0.11424987
-0.29677385
-0.051960364
0.46987754
-0.0081009092
0.56174111
0.12186085
-0.93145591
0.42905077
-0.056798574
-0.33207867
0.22673242
0.92617011
-0.49034357
1.3887709
0.4654533
-0.30702257
0.51424825
0.88081867
-0.47322902
-0.86571777
-0.40026745
0.13479419
-0.079069979
1.8619943
0.36806867
0.50889683
-0.27907899
-0.81693071
-0.47548926
-0.34104767
-0.054685816
0.26446712
-0.45526665
0.084391125
0.078945756
-0.39354989
-0.30561981
0.25025737
-0.74024612
-0.32071328
0.31202707
-0.013021997
-0.0068856413
0.33805782
-0.27286941
-0.38821027
0.26311803
0.17342953
0.34724146
0.47592402
-0.50219756
0.48090243
0.021572458
0.82528597
0.23486708
0.25476167
-0.91008222
0.25975367
-0.22019327
-0.51147121
-0.2308801
0.52052402
0.12294094
0.20436619
0.13586888
0.072350577
0.058699612
-0.087969758
-0.13082671
-0.3772476
-0.1593135
0.030157587
-0.37373853
-0.06715031
0.0071795848
-0.15546858
-0.30311459
-0.08864022
0.0557735
-0.26426068
-0.018873991
-0.1157622
-0.17211211
-0.18165295
0.14488843
-0.38791957
0.12967189
0.29153439
0.35741121
0.17836878
0.22107393
-0.85941178
-0.53051031
0.36437353
-0.10486586
0.41144073
0.19333732
-0.95156384
0.67028564
0.38701686
0.020576961
-0.40599513
-0.18563485
0.062547281
0.086089797
0.84354621
0.090884298
0.049013827
0.05973256
-0.1558633
-0.09120474
0.086821638
-0.33672491
-0.17259479
-0.16685432
-0.055363476
-0.025777146
0.032041568
0.003351738
-0.1573641
-0.21283725
-0.2684769
-0.050526969
-0.10079072
-0.25719815
-0.050590694
-0.50592333
-0.74265856
-0.21175204
0.089282222
-0.21075103
0.041008867
-0.10590054
0.090097345
0.015798673
0.04821438
-0.17316853
-0.99197739
-0.35904673
0.43048579
-0.075168051
0.31472343
-0.5656395
0.28885004
0.29723817
0.07533934
-0.50214243
-0.03930698
0.21625382
-0.21834113
-0.18167642
0.025165705
-0.12186804
-0.32353333
-0.14056084
0.029214108
-0.15080717
0.018444503
-0.13135803
0.3515138
-0.035907317
-0.52907342
-0.2373552
-0.10878717
-0.33643672
-0.11335707
0.38805345
-0.90379965
0.23398022
-0.09844508
0.63692206
0.032426648
0.36853594
0.31663522
-0.70601666
0.59331197
0.3403655
0.13241425
-0.08447732
-0.29393137
0.15748204
-0.33354542
-0.15311968
-0.61254853
-0.31803954
0.24794035
0.26957721
0.28479418
0.0092410333
-0.24209423
-0.19581488
-0.18637343
-0.5251714
0.066484675
-0.038042989
-0.39818105
0.014364691
0.18179917
0.063883305
-0.023140984
0.030358044
0.24069041
-0.020443955
-0.21601082
0.091486186
-0.17694511
0.1095601
-0.1698388
-0.90501422
-0.40906143
-0.086023368
-0.081366904
0.52250946
0.15111375
0.004484057
-0.26088706
0.12125462
0.046341561
-0.078970976
-0.12303824
-0.21306075
0.15010846
0.15705496
0.091221631
0.31653202
0.37938708
0.045878872
0.20010003
-0.16663978
0.013952733
0.17225584
0.0023261984
-0.21710517
-0.043407787
-0.10707413
0.11773666
-0.062104255
-0.11093615
-0.26353657
-0.16442995
-0.034465123
0.033658694
-0.28984457
-0.048957918
-0.14099516
-0.13109909
0.073773488
-0.18490838
-0.12654011
-0.81155586
0.00096015318
0.099432282
0.042773224
0.23034671
0.29207948
0.42569253
-0.13633008
0.71825111
0.16172285
0.41565716
0.43828756
-0.33890548
0.088816144
0.020990239
0.14597389
-0.098580733
0.26236033
0.30551219
0.29279369
-0.20764685
0.23750341
0.13722527
0.092132524
0.23919505
-0.20304149
-0.19113049
0.3505455
-0.098179422
-0.016646447
-0.19526204
-0.33270788
-0.05716411
-0.13012609
-0.17893565
0.12646191
-0.098366745
-0.39839083
-0.46418917
-0.12848261
-0.12043933
-0.87960374
0.02496949
0.095675625
0.48949501
-0.076282285
0.1422302
-0.31218404
0.24356139
-0.18774725
-0.17948222
0.39652935
0.38266253
-0.24309172
-0.086885862
-0.06571395
0.050664186
0.32033554
-0.075923629
0.18309368
-0.13638972
-0.36603853
-0.088033624
-0.04403536
-0.44301668
-0.20399514
0.25724363
-0.24026115
0.067741148
-0.09094578
-0.23555274
-0.21696137
-0.10488632
-0.097690649
-0.033716924
-0.096290447
-0.10039497
-0.2327473
0.050188988
-0.14954391
0.089468054
-0.1013368
-0.79245007
0.60361081
0.22439498
-0.0088774767
-0.009545885
0.076274849
-0.24409428
-0.070817687
-0.40283307
-0.33932289
0.28758889
-0.23890138
-0.25495693
-0.059026539
0.068689577
-0.13624714
-0.36974412
-0.20398629
0.25478008
-0.0043338179
-0.39323628
-0.14077704
-0.28206974
0.017640989
0.17733797
-0.21605827
0.10452881
-0.077913553
-0.20143536
-0.20612842
-0.25629875
0.1945895
-0.15509619
-0.24478805
0.055095814
-0.10957395
-0.10403446
-0.24737503
-0.31308419
-0.083561152
-0.3082681
-0.37412226
0.84223324
-0.059414443
0.099114612
-0.41748974
0.2316692
0.31145349
1.0517507
-0.20584218
0.071865
-0.27736011
-0.031580567
0.11935549
0.053836983
0.040495899
-0.4306826
0.13107343
-0.038444947
-0.11951062
0.41786566
-0.35344043
-0.16359161
-0.2176495
0.0012585787
-0.46577626
-0.09229438
-0.044733234
-0.22065979
-0.27313885
-0.14581811
-0.12820064
-0.11392475
-0.15594089
-0.20547265
0.065764599
-0.20751995
-0.083123006
0.10245831
-0.40295964
-0.37739158
-0.015261908
0.30488497
1.0067022
-0.070343927
-0.54949969
0.50919116
0.043928299
-0.045452315
-0.24688536
-0.47871897
-0.01326838
0.12800649
0.20916916
0.16711108
-0.38217655
-0.22046886
-0.51539719
-0.26558208
-0.75119996
0.33814892
0.16014673
-0.41545296
-0.006505908
-0.067366689
0.061866444
-0.21747331
-0.49512142
-0.078800753
-0.035780728
-0.29044288
-0.24262644
0.037287131
-0.30715424
0.053266123
-0.05532977
-0.27500102
0.021313597
-0.29274207
-0.077242702
-0.049560279
-0.45080617
-0.17250402
0.11589389
1.3937845
0.13519801
0.47735697
0.21779895
0.10894094
-0.24580397
-0.73537898
-0.769449
-0.2893081
-0.41876298
1.2264472
0.094223455
0.40442809
-0.41220316
0.022062382
-0.10338352
-1.1099458
0.11919821
-0.1201035
-1.4580714
-0.10896329
-0.20592247
0.035738382
0.25182179
-0.49477452
0.027281888
-0.32468221
-0.68886381
-0.34372211
-0.26461646
-0.16323766
-0.21390174
-0.063797779
0.039598301
-0.083929382
0.061130751
-0.067198031
-0.17111084
0.14708787
-0.31461161
0.070835307
1.6254623
0.23235969
0.26662475
-0.82323718
-0.010851545
0.027473724
0.89781821
-0.96947545
0.036801625
-0.29704624
1.308935
0.11092162
0.69984621
0.040260278
1.0654517
1.38811
-0.11915252
-0.037031204
0.39355668
-0.40843907
-0.36385393
-0.16685805
-0.13048486
-0.20221783
0.051132083
-0.16628526
-0.32662416
-0.18344626
-0.061999112
-0.3791863
-0.10699473
-0.031154227
-0.31645387
0.16745602
-0.19150004
-0.37636533
-0.58842295
0.30681282
0.0031086234
-0.32768661
0.66238463
0.075946756
0.043826312
1.542025
1.4339021
-0.037800226
0.81198317
0.38040254
3.6369524
1.059702
-0.49298236
0.94677693
1.5522195
0.43111518
0.66996682
-1.3323916
0.10456284
0.67958307
0.17031376
0.46546322
-0.51615655
-0.31774211
-0.307547
-0.59596848
-0.27871603
-0.43758425
-0.25891978
-0.37777969
0.043424282
-0.61064196
-0.29025656
-0.33811721
-0.2465771
-0.077463269
-0.12271097
-0.40947652
-0.23139685
0.041256744
-0.28564748
-0.11631386
-0.26878399
2.6199827
1.5429751
-0.78703791
-0.62896228
-0.19109014
0.98767483
0.75534451
-0.80502343
-1.6127049
0.055614259
-0.16266106
-0.68883663
-0.6528275
1.0993643
-0.35777554
-1.778877
0.1718408
-0.47534734
-0.42163572
-0.31382871
-0.71523523
-0.061930515
0.1214304
0.20101427
0.49650615
-0.35713777
0.17939126
-0.25792447
-1.5228935
0.23710547
-0.020358717
-0.145794
0.15769583
-0.18094525
-0.36525646
-0.84949934
-0.094809964
-0.29791874
-0.34086469
0.15450524
-0.10826173
-0.0020684574
-1.5344054
0.40797135
0.37802199
0.56942737
-0.33159497
0.22672302
-0.4140791
0.12734945
0.46377683
0.66996056
-0.1546869
1.0581712
-0.43524352
0.25448105
2.8193948
-0.13955589
1.181146
0.20479251
-0.49088776
0.20649192
0.13506344
0.050520327
-0.084584534
0.13500294
-0.24863628
-0.063303769
0.33369431
-1.837764
-0.3518599
0.041073956
-0.28376168
-0.18151583
-0.3514497
-0.45215505
-0.41271782
-0.12008096
-0.16266283
-0.066034049
-0.54310727
-0.0038706928
1.5629648
-0.68584353
-0.040978793
-0.14670335
-0.38466763
0.09041594
-0.67794555
0.18050818
-0.24258648
0.037009645
0.26411772
-0.86658752
-0.21710153
-0.24992639
-0.070601694
0.23859848
0.055834506
-0.20195442
0.39210373
0.14879088
0.34724924
-0.060017325
-0.12684254
-0.21786435
0.15302642
-0.096239492
-0.47514507
-0.36148739
-0.35459372
0.056825839
0.048173647
-0.0029223789
-0.21647163
0.028999431
-0.076253854
-1.2337872
-0.17030944
-0.13090919
-0.048825286
-0.14930823
0.013341677
0.64185095
-0.0082035884
0.17851548
-0.36619091
-0.075558327
0.35278872
-0.16780508
0.20296408
0.23271498
-0.22803019
-0.30219573
-0.23886244
0.034250926
-0.062779054
0.13212153
-0.30272827
-0.33313507
-0.2213029
-0.009410806
-0.099564523
0.44237286
0.041268662
-0.26814941
-0.10493381
0.13252103
0.33389735
-0.21822047
-0.078690439
-0.0035252422
-0.67275649
-0.14709814
-0.098262884
0.077632234
-0.23295546
-0.44897369
-0.074457958
-0.34910837
-0.034561541
-0.19853508
-0.41149431
-0.1578282
0.25281197
-0.12203534
-0.0043161241
-0.2288889
0.57910341
0.014119142
0.15117848
-0.65802395
0.21563353
-0.061744079
-0.12123365
-0.51013476
-0.25448653
-0.0073922146
-0.10181586
-0.19852544
-0.13214396
0.037662871
0.01209078
-0.0099130757
0.11191054
-0.044077247
0.065824747
-0.15507443
-0.58885688
-0.62277853
0.11303005
-0.19094905
-0.6095854
-0.082669459
0.16299255
-0.10161045
-0.23151608
0.22954144
-0.14774969
0.011773911
-0.35784909
0.094444782
0.19346957
0.037489012
-0.039312646
-0.53993177
-0.75606138
0.12769139
-0.006661261
-0.10661045
0.48259684
-0.0070645618
-0.2916373
0.38026476
0.14130753
0.26162794
-0.14225838
-0.32482028
-0.25783643
-0.035241999
0.063336618
-0.36225334
0.11817821
-0.081123628
-0.1444557
0.17945226
0.042948376
-0.076466784
-0.3403683
-0.14445236
-0.057201017
-0.30529165
-0.1099962
-0.20642011
-0.66292369
-0.19677928
0.074054606
-0.022201039
-0.014506869
-0.052977126
-0.095520705
0.012373378
-0.22079125
-0.17648773
0.019550109
0.026292803
-0.17905205
0.30696386
-0.079681396
-0.15289965
-0.054070767
-0.025935294
-0.19057515
-0.73956984
-0.34000114
-0.33403996
-0.28290391
-0.30320105
-0.16907856
0.10612243
-0.64077312
-0.30238655
0.18022941
-0.8498072
-0.10320857
0.15111116
0.10281827
-0.28807813
-0.10340336
-0.22264419
-0.096703731
-0.060678679
-0.097550616
-0.096728787
-0.45526454
-0.12638564
-0.31944871
-0.039282568
-0.14126287
0.13714945
-0.11390862
0.04728372
-0.1396074
-0.025240023
-0.33627173
-0.25832579
-0.057859607
-0.10490277
-0.1390347
-0.02659834
0.57799298
-0.20247173
0.1964322
-0.29204285
0.29781213
0.04925045
0.1585364
0.038525067
0.28784931
0.14081523
0.45253107
-0.32528165
0.33677891
-0.31357956
0.0015596226
0.025164498
0.12676533
-0.081751227
-0.11990425
0.069997117
-0.35588041
0.053704463
0.28857961
-0.081916727
-0.16020051
-0.15246986
-0.48479792
0.093787655
-0.14720763
-0.51425409
-0.37169167
-0.078364149
-0.11384661
-0.050369449
0.061076201
0.21489739
-0.22579785
-0.0042202319
-0.88139904
0.22634239
-0.3140161
0.11341304
0.086886421
0.18594037
0.041873168
-0.12704265
0.051257621
-0.22275715
0.36209965
-0.097764537
0.47580978
0.1687025
0.16673033
-0.36631361
0.011880047
0.044615209
0.21901558
-0.021727744
-0.2545974
-0.090743162
-0.10084615
-0.3004784
-0.26926672
-0.42153999
-0.043590881
0.11137811
-0.37835276
0.075094372
-0.13930008
0.089684367
-0.0025018712
-0.18023705
-0.058099605
0.0064830803
-0.17665547
-0.1787167
-0.17643054
0.10077532
-0.19758533
0.2329095
0.49059382
-0.34890509
-0.29035971
0.2861315
-0.23344798
-0.15051626
0.041921094
-0.0085571101
-0.30382636
0.28766081
0.30990377
0.19943359
0.24618532
-0.011327016
-0.027911365
0.28409073
-0.14123866
0.078544863
0.32684678
-0.12238239
0.00059967139
0.063132845
-0.0075994562
-0.086886995
-0.64102834
0.16024666
-0.099445403
-0.2780419
-0.21782213
-0.033775866
0.01139863
-0.14734119
-0.06682352
-0.201401
-0.049419217
-0.19572313
-0.30867317
0.045279559
-0.22914052
0.084101759
0.14208172
0.4427124
-0.0056995801
0.087653562
0.5632211
-0.19535294
0.0019102489
-0.055578884
-0.16097614
-0.18772306
0.22604536
0.56377864
0.29207662
0.018149048
0.022463812
-0.13628769
0.60143679
-0.069861971
-0.059179876
0.010156209
-0.031522289
-0.12162973
-0.10609838
-0.33678108
-0.18826312
-0.36824435
-0.022019804
-0.22590831
-0.43017423
-0.21788569
-0.036285676
0.05892437
0.14357573
0.0055976501
0.1240173
-0.19548738
-0.31997672
-0.30160269
0.3097536
-0.091412745
-0.023106137
0.077605844
1.0491565
0.4403795
0.016546721
0.51082999
-0.41380709
0.25823465
0.63773298
-0.4758018
-0.51221126
0.75055081
0.493763
0.14485046
-0.11559031
0.26294902
0.23215955
0.081064299
-0.056499612
0.020311726
0.32249197
-0.14403993
-0.070206761
0.0018722352
-0.29876506
-0.19373219
-0.080627099
-0.11579021
-0.14427668
-0.0011292382
-0.17865548
-0.10293481
-0.030642109
-0.0081694946
0.0996994
-0.46611056
-0.25511003
-0.26907462
-0.013526421
0.093725003
-0.22170603
-0.10900354
0.30430567
1.2670296
0.052605607
-0.2270318
0.54326159
-0.077540524
0.072338119
0.57021862
-0.74883425
-0.4774842
0.43826425
0.90548217
0.024866285
-0.20328662
0.24756019
-0.11654457
-0.19662462
-0.69218397
0.25517884
-0.074504137
-0.31272563
0.12415796
0.058423948
0.039610863
-0.232807
-0.53322309
0.12771046
0.068055794
-0.36624053
0.12213881
-0.38053295
-0.17515469
0.14689657
0.023216294
-0.33584017
0.27460268
-0.18785535
-0.37464717
-0.28246468
-0.47907951
-0.21865617
0.57850444
1.9120843
-0.019513423
-0.72478944
-0.35368013
-0.15907893
0.6080119
0.84177983
-1.4830518
-0.066432402
0.65178889
0.53963161
0.17344898
0.30605084
-0.13984598
-0.097785078
-0.19768107
-0.88213277
0.35961744
0.28027213
0.4525151
0.086595953
0.072153144
0.39226967
-0.19514933
-0.38149163
-0.25498894
-0.10720558
-0.35626671
-0.10520244
-0.31084284
0.022953285
-0.15660554
-0.077106029
-0.33190906
0.41208887
0.045743436
-0.36893079
-0.16774482
-0.16331302
-0.31643122
0.22749391
2.2262909
-0.040754925
-0.44938031
-0.30867422
-0.51732171
0.61094612
0.82539153
-1.5736151
-0.49461791
-0.083367668
1.4051745
0.39904183
0.55509102
-0.38460755
0.013607252
0.43003339
-1.2456311
-0.20850089
-0.027003648
-1.0071005
-0.025151603
-0.44680029
-0.29396832
-0.45664227
0.072251581
-0.52939934
-0.39412087
0.13641934
-0.1759038
-0.40714613
0.02212726
-0.4111498
-0.10466851
0.087562993
0.63757825
0.16460456
-0.39705509
-0.14649796
-0.17021795
-0.49630183
1.1950493
2.3478558
0.34713554
0.12672809
-0.41078165
-0.067462601
0.69044954
1.1178325
-0.92925429
0.26042211
-0.16802374
1.3849498
0.41408095
0.95416301
-0.028756492
-0.38462493
0.7055552
-1.2560102
0.0088716177
0.29990762
-0.98831683
-0.35080341
-0.40603486
0.2130477
-0.52271032
0.089060768
-0.048738629
-0.49219316
0.14981622
0.23740357
-0.63388747
-0.22882245
-0.2910313
-0.024146266
-0.0043924558
1.3627889
0.061768327
-0.32007882
-0.40239915
-0.24645153
-0.29253161
-0.0069642607
1.025961
-0.040577218
0.3268843
-0.44198149
0.36376756
0.33182076
0.60572505
0.91473544
0.14711984
0.10632498
1.1882563
0.32324165
0.33753586
-0.31521827
-1.5229819
-0.40691477
-0.95251882
-0.35061535
0.15056042
-0.81444496
-0.76395732
-0.38070366
-0.15424725
-0.14995033
-0.57398736
-0.21493202
-0.66609997
-0.0038957142
-0.042831544
-0.42791748
-0.43899903
-0.14036031
0.042709898
0.23766415
2.2084622
-0.29556102
-0.10015128
-0.38436395
-0.066271506
-0.32171923
0.54998904
1.7159208
0.24422714
-0.10068715
-0.1771352
0.414682
0.45081753
-0.29246283
0.42478094
0.40545619
-0.090435401
0.87012988
0.61488265
0.5478546
-0.21665792
-1.5668913
-0.22665069
-0.73135519
-0.38174266
0.21601062
-1.0317391
-0.48871431
-0.43041423
-0.0083119152
0.20339973
-0.40218821
-0.24720106
-0.074467726
-0.49629322
0.11367702
-0.0010934267
-0.1724342
0.00042296725
-0.16081955
0.13265122
0.76662737
-0.27278376
-0.14670646
0.30557439
-0.072544649
-0.25966012
-0.42139694
0.50855672
0.59697008
0.34384799
0.02759131
0.27154636
0.040754903
0.080119818
0.0076119993
0.18949212
0.7189309
0.54441106
0.66116899
0.2177536
0.32812443
-0.68258655
0.038532615
-0.04450988
-0.3023791
0.065739363
-0.58213812
-0.19989601
-0.40456566
-0.05047955
0.34487858
-0.034768641
-0.35160911
-0.22893341
-0.43476743
0.095408008
-0.19366448
-0.022147471
-0.023973705
-0.23343496
0.19822676
0.111633
0.024885491
-0.11432915
0.13093075
-0.23124103
0.03946735
-0.53199846
0.33636814
0.62099969
0.34423614
0.19285078
0.011506142
0.16487677
0.10172405
0.18958934
0.19209819
0.65017527
0.19938968
0.30808744
0.26624015
0.28218648
0.23182397
0.44441542
-0.17141737
-0.036998194
0.066929899
-0.3220945
-0.14736286
-0.15431134
-0.09640117
-0.21005881
-0.18441924
-0.20873794
-0.19601186
-0.13777332
-0.010885392
-0.099247843
-0.13527922
0.07421048
-0.34935543
0.098412782
0.33135113
-0.3490628
-0.13120016
0.19665062
-0.26798168
0.26214105
-0.31824109
0.29745042
-0.063332953
0.43527061
-0.067092739
-0.059169929
0.11023474
0.13317209
0.16360697
0.14135212
0.59206921
0.25830677
0.37231857
0.20586944
0.30513549
0.3684929
-0.10448737
-0.19525197
-0.27357769
-0.10843229
-0.27985251
-0.18952091
-0.33978
-0.35221362
-0.10685852
-0.16108918
0.0096069509
-0.20019485
-0.18789758
-0.0098765055
0.15972914
-0.10739411
0.029870763
-0.13083076
0.25847328
-0.13933085
-0.22310239
-0.12781946
0.11896618
-0.029442983
-0.039569736
-0.3988412
0.059650589
-0.0057152971
0.21169682
