-0.82070622
-0.13947809797684317211
0.20427777188221859895
-0.042964342859824494726
-0.079789673917603133387
-0.1270971835429028316
0.1215662405053808582
0.030027516575521671761
0.14285183732002147766
0.064094951921673463668
-0.10262754734764302434
0.17073374719459718282
-0.083713898960661023482
-0.0023651078661942039193
-0.12326035463769023886
0.11796350376782424673
-0.0045482577056868088544
-0.0077949491482339478121
-0.25622780806603922255
-0.081263898463614635179
-0.10196377205707250985
0
-0.068184601438679333638
0.16922738302766815207
0.11785629054092925843
-0.1931108193809823339
-0.13260132673351993424
0.069648712507285566308
0.080182105359235235028
0.14619308840290193582
0.087195397420384173376
-0.076500560644167205276
0.074356819037564744564
-0.14008788465236999186
0.062066923973474805925
-0.20161969982619886602
0.12381359362241239251
-0.015238768489928770356
-0.0077531736979026867984
-0.28227951162696384826
-0.0098209957587462291057
-0.080700201835191730437
0
-0.10411410136225874499
0.15843483724023366814
0.14626425633101105525
-0.19377061166886365933
-0.13784611360039828685
0.079661069711612143229
0.13384786774549485589
0.1675390213390888627
0.0026160954541113028131
-0.18929496800513560204
-0.012522405062919842493
0.0054817413404543488826
0.12386148607661184528
-0.1336396794866503981
0.18715972426104273515
-0.015916849420739409738
0.094589385672987164681
-0.24116309002839903596
-0.0020232979448289337232
-0.0015603569821906882531
0
-0.13097905812826161253
0.04260144018109600635
0.1028711271434654233
-0.14616532569627766998
-0.14436872167606283219
0.18153856455446616966
-0.029341978302176152454
0.14017977313918505389
0.10134340937003831364
-0.2277911658813690171
0.022960553294166363781
-0.018756864912927800315
0.02507286216868628564
-0.15114719096200615398
0.17898152150152778863
0.12908293341843167167
0.19260394045655608885
-0.22841916177698071314
-0.090577380654470006944
-0.062395586877783593272
0
-0.09876402563212957845
0.090862988032735850721
0.18007184219939161384
-0.16396864943256541722
-0.12918949808100466516
0.12995997200494975474
-0.012540048328334328378
0.1550096370733897604
0.22038110058511907699
-0.24884656761411224399
0.019337076269140352273
-0.049771381991697929376
0.062568263249665978633
-0.17589997698266232494
0.26866437746989085581
0.21607807954403453099
0.17462787537782959929
-0.25671521392052507494
-0.03914098112548778572
-0.15769424460670264975
0
-0.11404661265620540657
0.051473762340087137301
0.11496557650800130609
0.04362265544538836162
-0.22166121135229073811
0.097421822095134984784
0.019117554480168895033
0.18463779268894877005
0.28438810904239170436
-0.12661631557839880356
-0.050902099049963397478
0.071651286149473118926
-0.021987581080431184302
-0.081277594929447687947
0.26874370790131342306
0.18228580680920937529
0.068356674566531976415
-0.23987220872300582194
-0.073830175292338094075
-0.089781459475675540321
0
-0.0022268259054726440407
0.045357444589249981454
0.089284725675881586672
0.12460593214705683998
-0.19432673592329768806
0.070108014630356629199
0.17356453850006622995
0.16932197212922669253
0.24264869847574891849
-0.057877631635319325636
-0.06307388332929166923
0.041762565297748104469
-0.024246919695402095213
-0.18030107623625177125
0.22601128411609268735
0.33495442859082576192
0.12717442508943388742
-0.12368636756062886349
-0.11944711097277673393
-0.056087838030327635055
0
0.076412541740434582743
0.069832688861877272934
0.055095988360892689346
0.19382094373029562035
-0.32712263013351025381
0.070982293849148733996
0.20052646104152566668
0.13557233965081511944
0.33329742099888897111
-0.060694271894010570068
-0.098119867417629918925
0.12301737306479576319
-0.033443905809474005175
-0.11009011791512864324
0.12990268094036280137
0.3183003051610567686
0.20156114552140166175
-0.1227103867553831714
-0.059716208078950981135
0.0026914705435881276971
0
0.12451874923350549658
0.093033851511814640016
-0.006471982954734664904
0.18714012542216842253
-0.28476091189829783864
0.029011131957371844685
0.2041154942657232132
0.10446043841875466683
0.33171466989575521675
0.003901933780252708988
-0.11842871074984638375
0.014839761976645136463
-0.12267556517590672723
-0.055457374896898889144
0.18324533461784363591
0.23175671425375579999
0.138409101317947015
-0.066760300311513546295
-0.032017126841241581987
0.02202710546875846384
0.16600220806864504283
0.022060795399457383123
0.061977696016149917403
-0.01496473249167696224
0.088459217102358487145
-0.21071008644508136002
0.038838933462575272473
0.17001002388163849693
0.069445242973414619353
0.33640446208943642709
-0.063419923595921951299
-0.12879933951050887456
0.075805849930133815595
-0.048306642781752257271
-0.071873197924894246933
0.13083761540624838775
0.19319041684498820807
0.12388829315739521342
0.00037516270148035435829
0.023040218646087831225
-0.062554829899282786414
0.12152131400189949148
-0.020185132799823445203
0.027473095536336112931
0.048456236409828817005
0.083508820412674454102
-0.22185792132981787618
-0.040975157839973589365
0.10261967286365306751
0.090659900235621784227
0.25026508026434258317
0.0083631949813824782787
-0.12696305990060130458
0.086285802662912963055
-0.034579891439973321228
-0.049435968884576441868
0.18777529670101079786
0.075105364209670064079
0.097500206355878368422
0.028255295268968301781
0.058750140216651437423
-0.10329565497360925604
0.073871258104951436838
-0.039560513023127810726
-0.03381290330083416181
0.095648420598217499911
0.083344262087675785351
-0.15041041884255110646
0.074559688914040167964
0.14289921937162297493
0.10735430398595534386
0.17899411688781515783
-0.024105488261165780483
-0.066933933491758830084
0.0064719616333319256835
0.016895303271694713283
-0.01118337040900463332
0.17489006770712554062
0.013232738312682327905
0.039136341198345037385
-0.034292483328623884003
-0.040881924505588168601
-0.040852949725217315543
0.039275703812081722856
0.081269037625144166418
0.086842681912646875227
0.044832673000162526066
0.03689149082443452641
-0.055678598031430614449
0.042713968720752294642
0.13023678702198274683
0.014258972873553254982
0.20511089288208254002
-0.057642247140468341954
-0.056710215432548086537
0.0053609419578547361161
-0.001882497163427679266
-0.026275297677221480897
0.081077325678001117619
0.023987675621685659305
0.039097310697945268285
-0.020947123697911953984
0.015576323548426953668
-0.021140400765438389729
0.0015392371362825592882
0.035347895325025541477
0.084670138870278992954
0.043417643830396877057
0.019966958650379695369
-0.013866600369074857928
0.077658751303889113945
0.065848947713199541599
-0.021781990455633775771
0.11714919093361636414
-0.056782889912209094322
-0.053263404240536006816
0.010116081817413770674
-0.019699165989107504744
-0.0013852876622897365624
0.035053267768756677393
0.017907778117361704493
0.033020720603444596291
0.030932544522435192235
0.028584228165436368168
-0.02960794306642223262
0.0091571186883109816231
0
0
0
0
0
0
0
0
0
0
0
0
0
0
0
0
0
0
0
0
-0.00063083555890847267189
